<?xml version="1.0"?>
<opencv_storage>
<opencv_ml_ann_mlp>
  <format>3</format>
  <layer_sizes>
    392 128 128 128 14</layer_sizes>
  <activation_function>SIGMOID_SYM</activation_function>
  <f_param1>1.</f_param1>
  <f_param2>1.</f_param2>
  <min_val>-9.4999999999999996e-01</min_val>
  <max_val>9.4999999999999996e-01</max_val>
  <min_val1>-9.7999999999999998e-01</min_val1>
  <max_val1>9.7999999999999998e-01</max_val1>
  <training_params>
    <train_method>BACKPROP</train_method>
    <dw_scale>1.0000000000000000e-03</dw_scale>
    <moment_scale>1.0000000000000001e-01</moment_scale>
    <term_criteria>
      <epsilon>1.0000000000000000e-04</epsilon>
      <iterations>10000</iterations></term_criteria></training_params>
  <input_scale>
   </input_scale>
  <output_scale>
    5.2631578947368418e-01 4.9999999999999994e-01 5.2631578947368418e-01
    4.9999999999999994e-01 5.2631578947368418e-01 4.9999999999999994e-01
    5.2631578947368418e-01 4.9999999999999994e-01 5.2631578947368418e-01
    4.9999999999999994e-01 5.2631578947368418e-01 4.9999999999999994e-01
    5.2631578947368418e-01 4.9999999999999994e-01 5.2631578947368418e-01
    4.9999999999999994e-01 5.2631578947368418e-01 4.9999999999999994e-01
    5.2631578947368418e-01 4.9999999999999994e-01 5.2631578947368418e-01
    4.9999999999999994e-01 5.2631578947368418e-01 4.9999999999999994e-01
    5.2631578947368418e-01 4.9999999999999994e-01 5.2631578947368418e-01
    4.9999999999999994e-01</output_scale>
  <inv_output_scale>
    1.8999999999999999e+00 -9.4999999999999996e-01
    1.8999999999999999e+00 -9.4999999999999996e-01
    1.8999999999999999e+00 -9.4999999999999996e-01
    1.8999999999999999e+00 -9.4999999999999996e-01
    1.8999999999999999e+00 -9.4999999999999996e-01
    1.8999999999999999e+00 -9.4999999999999996e-01
    1.8999999999999999e+00 -9.4999999999999996e-01
    1.8999999999999999e+00 -9.4999999999999996e-01
    1.8999999999999999e+00 -9.4999999999999996e-01
    1.8999999999999999e+00 -9.4999999999999996e-01
    1.8999999999999999e+00 -9.4999999999999996e-01
    1.8999999999999999e+00 -9.4999999999999996e-01
    1.8999999999999999e+00 -9.4999999999999996e-01
    1.8999999999999999e+00 -9.4999999999999996e-01</inv_output_scale>
  <weights>
    <_>
      -4.8597736804388680e-03 2.0437547751231003e-03
      -2.2547829457479109e-03 -1.4278193231068534e-03
      4.5326107666384960e-03 4.5595428802551160e-03
      3.2456598963869908e-04 -3.4648443027289551e-03
      -4.3751698322289662e-03 -4.1191305369865450e-03
      -1.2883275206093025e-03 7.5980835201159321e-04
      -2.0694165116597776e-03 -3.9871046073419901e-03
      3.2502122741246905e-03 -1.8031421716950807e-03
      2.7256002622508685e-03 -3.0854015254625127e-03
      -1.1160527472444000e-04 2.1300273711896975e-03
      -4.6962180267216226e-03 2.7245040640696758e-03
      -4.0624227292900160e-03 -4.0529470987521890e-03
      -3.1049935418203519e-03 -3.8086963707118604e-03
      1.3771175313310319e-03 -1.1182864418018297e-03
      4.1085465160546871e-03 1.2646300438439438e-03
      2.0294398802555907e-03 -1.4936296535992097e-03
      1.8241893645443521e-03 -2.9366303380132714e-03
      4.3397563613621556e-03 -4.8955856218137984e-03
      -1.6655887920198379e-03 1.8605443792390171e-03
      -9.0080755879584098e-04 1.6475433110704140e-03
      -3.0037808268513588e-03 -4.9211735374332724e-03
      3.4017522315850117e-03 -2.1753237263792118e-03
      4.9889843212599884e-03 -2.8289668434433087e-03
      4.0901709014734694e-03 4.1952688359440628e-04
      -3.8195958617353296e-03 4.4784157966988279e-03
      -2.7961737896945627e-03 -3.4628024964040729e-03
      4.4568063062257425e-03 -3.1036877215807053e-03
      -1.4075199286154702e-03 -4.8682482986913810e-03
      3.5170186723217345e-03 -2.0908512319726819e-03
      3.8373823435610965e-03 7.1010122596581169e-04
      2.9629434206164726e-03 2.9982700874937444e-03
      2.1216892082950712e-03 -1.5534659934051412e-04
      -2.2292981627728740e-03 1.1335433267734461e-03
      -4.7236556188553170e-03 -1.6888092868370475e-03
      -3.1930891534462527e-03 3.7915107312029607e-03
      1.6976461633508443e-03 -8.3953681086080330e-04
      -4.7527176487088801e-03 1.6374601291730300e-03
      -1.6240599094197998e-03 -1.6612369555477648e-03
      6.0264331066184763e-04 -2.0265099834312919e-04
      -1.1988532773408551e-03 -2.2673729435810325e-03
      -2.5945113994446218e-03 2.5570245091903789e-03
      3.7438846437258377e-03 8.3899474908803934e-04
      4.2511186984683777e-03 -4.8688645257430182e-03
      -1.1943039142214045e-04 -4.7420566896851438e-03
      3.2448416148731269e-03 -3.1833942330211284e-03
      -2.9555255776586029e-03 2.3405671939447006e-03
      8.5021777832225290e-04 3.0076149014711582e-03
      1.7258868686869876e-03 2.0623693126301658e-03
      1.9544977326468402e-03 2.8118831115058552e-03
      1.3774810557383441e-04 -2.5112595241367584e-03
      4.4338364142113163e-03 2.5312965282047362e-03
      7.8862050430930999e-04 1.5520825022531895e-03
      -4.6478536036477641e-03 2.2227402438142890e-03
      -1.5738675133836009e-03 -2.5366107001039088e-03
      -3.2541393466441909e-03 3.8474487326777512e-03
      1.6743047340407229e-03 -4.2378937579472271e-03
      4.7190241050328206e-03 -3.7674639079065147e-03
      -1.2389015955758152e-03 3.0783433314624151e-03
      2.1472204443250612e-03 -1.2783848863515191e-03
      -2.7789601767627750e-03 3.8892755837234482e-03
      5.0043750069052803e-03 -2.8432147586826511e-03
      4.2901164204128877e-03 4.3667553384046610e-03
      -1.3781427649605940e-03 -1.6871135474248343e-03
      -1.7115302937882435e-03 4.8756905568424682e-03
      -2.5927152571517315e-04 -1.5929831076213950e-02
      -6.3574352727695769e-04 -9.2288299766640856e-03
      -1.5269646557602524e-02 -1.9936861532738378e-02
      5.4124365300125352e-03 1.5018707939280210e-03
      -4.6050697367286770e-03 1.5180407983592339e-02
      5.2514623068346982e-04 3.5159113454107677e-03
      3.9986620172362784e-03 2.3255759843019162e-02
      -2.1507348324770100e-04 -4.5151625702460670e-03
      3.7999127348141400e-03 -1.5349704406114740e-02
      -1.2830478488532557e-02 -1.4922424395835261e-02
      -2.0749938557591834e-03 -7.7385741600099365e-03
      -7.0310340960183081e-03 1.1100530191174043e-02
      3.5353983874369297e-03 3.5727436110242665e-03
      -1.5313344376867209e-02 -1.2450956304108558e-03
      -2.0547819748741248e-04 1.0542421501253448e-02
      -1.3388224752212704e-02 1.0151716876717631e-02
      -1.0312504771446117e-02 -9.4590196365533473e-03
      -2.0441199859753597e-05 -9.1931561722303611e-03
      7.0798475298589738e-03 4.5933366149510735e-03
      4.8997024605032264e-04 -1.2603091061721229e-02
      3.1367773644010175e-03 -1.0058843431041072e-02
      -5.6264067238666476e-03 1.9035341647626432e-02
      1.8302231356227119e-02 1.0406491838882793e-02
      6.6492106353304150e-03 9.8954823559443510e-03
      -2.1897694561252810e-03 -3.1327820955816296e-03
      -6.0144773256426585e-03 3.8771450807015156e-03
      -1.8066275476450278e-02 1.6344119875237768e-02
      -1.3003495443105360e-02 9.7741939052896874e-03
      1.3930817637567164e-02 -8.5644907550375318e-03
      5.1180174796442652e-03 -1.1002034440790702e-02
      -1.2095121924198989e-03 2.1085556493626494e-03
      -7.5702455257994185e-03 -6.0875745327268844e-03
      2.6219480240510788e-02 2.2278601264248713e-03
      -9.9181307607925980e-03 4.9641359227248032e-04
      3.3485833460051109e-03 8.3795075810654089e-03
      9.2470266138303704e-03 5.8502878994338122e-03
      -1.4574890230484878e-02 -4.5172777683138337e-03
      1.0698697934694410e-02 -8.9703256311248359e-04
      -2.1887402172440507e-03 6.5201561770580028e-03
      1.9788694873436923e-02 1.7557449295241452e-02
      -3.9463500529875930e-03 5.9377584121363099e-03
      -1.5708151299537881e-02 -6.5859745878788798e-03
      5.8580633627356219e-04 1.8399080999757294e-03
      -2.6890512144262187e-02 3.2021789601273582e-03
      -1.7275450865474547e-02 -5.0994264324643167e-03
      4.5738611713504931e-03 -5.8481191977628336e-03
      2.9614333789898190e-03 -1.7076626919686543e-02
      -1.7992308529570337e-03 1.0560640405639081e-02
      1.4265366444550469e-02 -9.3290067392951970e-03
      5.8300633280968890e-03 9.7364300983592590e-03
      2.8567763185691909e-02 -1.2985764224849535e-02
      -6.6455364490797929e-03 -2.7019889190916962e-03
      1.1776331859504703e-02 5.4553726392521304e-03
      -1.0842212257333913e-02 -2.4886476324684848e-03
      -6.2978187742265311e-03 2.8360572091709127e-03
      1.1251958178154170e-04 -4.1681108284198874e-03
      5.2481902278302323e-04 -3.7937743814373997e-03
      1.0571337142123535e-02 -1.4964563416539027e-02
      5.4406611332216163e-03 6.2695785943469784e-03
      -8.0923986038227494e-03 6.6635130841196559e-03
      1.0481195457690154e-02 -1.1461301383988707e-03
      -8.2639859073300910e-03 1.2261763515077474e-02
      -5.8568580680213433e-03 -1.4055634387072009e-02
      -9.3737349910123346e-03 1.3942663002588966e-02
      -1.1367547075843108e-02 1.9269069842189075e-02
      -1.2402290718551114e-02 9.0625614145703002e-03
      4.6968014838935333e-03 -4.5568443091618428e-03
      -3.7269709383554355e-03 -7.4035501395052329e-03
      -5.6905795034383408e-03 -1.3973474641650130e-02
      4.9048484428734782e-03 -3.7883304868211311e-03
      -7.6785054032984280e-03 -1.1256804497096909e-02
      8.4636588427406401e-03 -5.7755337495203098e-04
      1.5814137030892429e-03 2.5633445194938797e-03
      4.8834613094156159e-03 -1.1635443842616920e-03
      -9.7783388243392836e-03 -4.4386433756747222e-03
      4.4485834494031387e-03 -6.9797726666004645e-03
      -5.4936249768722722e-03 8.5771071026596070e-03
      4.6995517355500156e-03 -8.3262958109821174e-03
      1.1643543976787730e-03 -9.7199996822611451e-03
      9.1194668808966175e-03 3.1324820953986568e-04
      7.0354153996495606e-03 -5.7852649943955061e-03
      -6.0778279411669040e-03 1.1796694116755449e-02
      -1.0768255801141208e-02 -1.3008868231300104e-02
      -4.8740785052976687e-03 2.0042074206033820e-03
      -1.4651321963693124e-02 6.3058591835211961e-03
      -1.4429446353092609e-02 -6.3494414357123854e-03
      -1.1823799420975920e-02 -4.8674825238903653e-03
      9.6911416061277438e-03 -7.8230702459038091e-03
      1.9252115281677223e-02 -9.6733244954567438e-03
      6.9920530767920291e-03 -5.6642190637515785e-03
      7.8315712694310528e-03 -7.6785718486275167e-03
      -5.3874749722109235e-03 1.0964559821141898e-03
      -5.1500305355120938e-03 3.8096493789324362e-03
      2.4080462148989247e-03 7.0578834231851554e-03
      9.5642460118439861e-03 4.4232396226021996e-03
      5.7881648785657481e-03 2.2624643790787619e-02
      -1.7945368526159289e-02 2.5795773412154825e-03
      -3.9457572902417319e-03 -1.0500167154945077e-02
      -1.1852829463327469e-02 -3.7849646774004209e-03
      -1.4833343982805938e-02 -4.7726617172044652e-03
      8.1918691409595297e-03 1.9234193854577010e-02
      -1.3663149220264953e-02 -8.6010321462064594e-05
      -3.0140264138197796e-03 -9.1629384534038655e-03
      -7.5951287570642147e-03 -1.2899029810433608e-02
      1.9480266617192610e-04 -3.8742145488770900e-03
      9.9369819767151975e-03 1.7314357469582077e-02
      -2.3400517505303389e-03 -5.3925901792679096e-03
      4.6055246906079317e-03 -2.7826443199906606e-03
      9.4733069013602754e-03 -9.2788606796390862e-03
      -3.5696334745026841e-03 -5.3192390370204803e-03
      -6.6315239276486570e-03 7.1212986449309661e-03
      7.2247124061426216e-04 -5.2492939215490718e-03
      -8.7862993898977764e-03 2.3065433530958461e-02
      4.5642398621141764e-03 9.0283203292790565e-03
      -7.6432480470812201e-03 1.0064689685911605e-02
      -9.3865061856017035e-03 -3.6206898916218396e-03
      -1.2979796037293797e-02 -1.8628738537591564e-02
      1.0008349483768490e-02 1.6247406219566697e-02
      1.0575663872097772e-02 -3.6720424034671897e-04
      -4.2095659223936582e-03 4.3740626915071985e-03
      -6.8034863554225430e-03 1.0794279238444546e-02
      -1.2645423918719603e-02 6.1694607502525475e-03
      -1.2866092659811937e-02 -1.8137284601361749e-02
      -5.6757422043765679e-03 -1.2694627246519277e-02
      -2.3639650185167185e-02 -5.2677056395904510e-03
      1.4040788552506176e-02 5.1807981638323630e-03
      -1.6745605863243546e-02 1.4164121284685581e-02
      2.5949771662523396e-03 2.3814691528811368e-03
      -7.8763318772759171e-03 1.9123587385625598e-02
      -1.2926681245622516e-03 1.1398483725209772e-02
      1.2683651251862847e-02 1.3428129507756369e-02
      -9.3713928499637809e-03 -8.2690938479553222e-03
      5.9780035168768390e-03 -1.2858325199448016e-02
      7.6634636259343618e-04 -5.6689629876054935e-03
      -5.0634656752194468e-03 -1.4228485991340765e-02
      9.1938292270106088e-03 6.4987306931777776e-03
      1.9814145926232726e-04 6.3369164453823236e-03
      6.8478458018118322e-03 6.7963043719610292e-03
      -3.6796409964449245e-03 4.2025320029287850e-03
      3.9955139733045004e-03 -1.1644800653536583e-03
      2.5286412374273962e-03 -4.4447128151388409e-03
      1.4512508600830105e-02 -7.9625485346860678e-03
      -1.4550911343319316e-03 -6.9682739436265481e-03
      5.9613835213039278e-03 -8.8788160201308149e-03
      1.4591808714667477e-02 2.7684605565397170e-03
      -3.5955978596651211e-03 3.9138620931535367e-03
      -2.1113177504840586e-02 -1.6309750434577174e-02
      -1.1772955759036884e-02 1.7593092963168685e-02
      -6.4394713469030727e-03 7.6964963251286407e-03
      -1.1158288278164900e-03 -1.3546227371827717e-02
      -1.5376570123256335e-02 1.2213450739650600e-03
      -3.0352120449960514e-04 -1.5563293298914233e-02
      2.2512486108880191e-02 -6.0242763570607437e-04
      6.3704397156365564e-03 -5.4720705327241832e-03
      1.3363385961611783e-02 -8.6564006660291570e-03
      3.2449374262154542e-03 -6.1399352507155516e-03
      -1.4245033337299245e-02 9.8014779798690499e-03
      2.5047186455697495e-03 6.6703437680764120e-03
      8.0300338656287690e-03 -9.5536091089706530e-03
      5.8870882471104349e-03 2.5121833801689787e-02
      -1.4634424479102627e-02 6.8861210127459504e-03
      -6.2335220879329318e-04 -4.8949086895637419e-03
      -1.6640704084907015e-02 -7.5418628066967405e-03
      -1.0377476961063824e-02 -1.2071626004152928e-02
      1.2347778696032716e-02 1.3405255022085925e-02
      -7.1514830348393564e-03 3.7848137513345763e-03
      -3.6409445875929809e-03 -7.3851408420414081e-03
      -9.9492499899921580e-03 -5.9664692887563629e-03
      4.8111157339971643e-04 -1.0403617008607351e-02
      2.0018042324705942e-02 1.3925321304479592e-02
      -7.0211489646174342e-03 -1.5484349572290937e-03
      2.1254333204423336e-02 -9.3886834978999176e-03
      7.4340472892635316e-03 6.8968761408764144e-03
      -5.5242056982165721e-03 -2.0063355583288637e-04
      1.5310441134956451e-04 1.6767176858693424e-02
      6.3494549656687022e-03 -1.0145154098299351e-02
      -3.3941058807079962e-03 2.1622900299188820e-02
      -7.9829242176508077e-03 -6.1625045556552866e-03
      -1.7236161429111933e-02 1.5080272065775686e-02
      -5.9343597481947700e-04 6.7356298780222017e-03
      -8.7163093196753090e-03 -1.3702515094237753e-02
      7.2373234960562494e-03 5.4162845374985148e-03
      -3.6549979181705624e-04 -6.5701447757860647e-04
      -6.9101051648440904e-03 1.2990885677909822e-04
      -6.9931652419431885e-03 1.3507166377917677e-02
      -2.4345335414675835e-02 1.7569672213399116e-02
      -5.6325998755441730e-03 -1.0187976285848768e-02
      6.2161929289811452e-04 -8.1516980455064551e-03
      -2.1822943488469335e-02 -7.0002957390940899e-03
      2.4954759592634636e-02 -3.2142553686902452e-04
      -5.7985227237218268e-03 1.0448326610876843e-02
      3.6210226329968908e-03 -7.9394308885015058e-03
      1.8848224052535846e-03 2.8313229583923884e-02
      5.7284979873432843e-03 6.7817679146461082e-03
      1.9849560614888202e-02 2.4630939811926340e-02
      -3.0328684272200234e-03 -8.9668196787604688e-03
      8.6279157589057992e-03 -1.4417961180761264e-02
      -6.6538402175960664e-03 -4.3540374447232338e-03
      -1.0061384621154787e-02 -1.2352232649018422e-02
      2.4141727116214942e-02 2.6832270856777573e-03
      -1.0097529959793160e-03 2.1317000877438215e-02
      1.0697534730749492e-02 8.8864072389299494e-03
      8.9081997074126184e-03 -3.1907712041209669e-03
      4.5477273416694892e-03 -7.9453982814247405e-03
      7.0244724803261403e-03 -1.3517170299920084e-02
      2.5607580386351709e-02 -6.5404042071553212e-03
      -4.8902998013502187e-03 -3.7503588704096216e-03
      4.8803786691292332e-03 -2.0701746590785358e-02
      1.8442308724260378e-02 1.2563490322744621e-02
      -6.6162559246419296e-03 7.5544978950934528e-03
      -2.0338840683570426e-02 -2.4017579893758176e-02
      -1.2896321220624530e-02 1.3011042148719065e-02
      1.0403868525417140e-02 -2.1477574831416692e-03
      1.2438373963009959e-02 -1.8805509797566160e-02
      -2.3933899066477957e-02 3.5009216098574568e-03
      -9.7136331448906092e-03 -2.9858980314854556e-02
      1.9436582211386159e-02 1.7250741742824525e-03
      2.1970528403432645e-02 -3.6960803348863973e-03
      1.1110484888104523e-02 -1.6806233655969041e-03
      9.2609173470603601e-03 -1.5922937209794388e-02
      -1.9554598937865118e-02 1.4659999805138900e-02
      1.0316348085415174e-03 6.4328208384911946e-03
      7.4193699778178071e-03 -1.6923676916454015e-02
      1.0384328325220835e-02 1.7604974125608828e-02
      -1.2011776990058686e-02 1.2002442485547630e-03
      1.4505303806653415e-02 1.0250774535111980e-02
      -9.0201916797285498e-03 -1.7845630782427915e-02
      3.8951425676386465e-03 -1.2581501083104416e-02
      2.2443779131125597e-02 8.2536097114752054e-03
      -1.0713915329475399e-02 5.4538776359592239e-03
      4.5960146790558808e-03 -3.0332257314617307e-03
      -7.5964804357546555e-03 1.0492865301752067e-02
      5.7165764221206944e-03 -2.5565952248911009e-02
      1.2502741137421478e-02 9.3161736548821126e-03
      -1.2451465336734625e-02 3.6094741462687728e-03
      2.6757163277226367e-02 -4.8118942087959343e-03
      1.7190743033372095e-02 1.6207103462470479e-02
      -6.9135829259385165e-03 -1.1858670593267182e-02
      1.4772572422194147e-02 1.6408051594354874e-02
      -3.9259160110766134e-03 -1.9760484575341762e-02
      -1.2789859167270795e-02 2.7164910314683047e-02
      -1.8448047388170009e-02 -1.3603594960047653e-02
      -2.7610735334371864e-02 3.8663998274816604e-03
      1.7502651622123687e-02 8.5460462532706803e-03
      -1.2807290297857227e-02 -2.9081264558051098e-03
      1.1465886221409423e-03 3.3412092171073446e-03
      -2.0062057606475663e-02 2.8549255259477293e-03
      -7.6729261465597305e-03 -4.7465365290455201e-03
      -4.6483141101604326e-03 2.8665451531620419e-02
      -2.2147870594764432e-02 1.5546967509516684e-02
      -6.7310949604280027e-03 -1.4926353716803906e-03
      1.6790468034864239e-02 -3.6143100565564548e-03
      -2.5821262653223865e-02 4.8917148862550972e-03
      3.0479523852632379e-02 -8.0668326663296454e-03
      8.7226077848039166e-03 1.5470234093329687e-02
      9.1356609878277886e-03 -2.9591019571982491e-03
      -6.1232922088986651e-04 1.2077061946448470e-02
      -5.4026071221519459e-03 1.1343630937395422e-03
      3.9272276659170265e-03 -4.0123844716769075e-03
      1.0341723828581650e-02 5.7132884500996958e-03
      1.9304447686554192e-03 1.1464683949930241e-03
      -4.3397127379084443e-03 -1.0908418623196711e-02
      1.4072774783833915e-03 2.6616902985392883e-03
      9.6666363961706078e-03 -1.4913907511014490e-03
      -3.1102628600247380e-03 1.0466875362257000e-03
      -3.7147513628678500e-03 -1.0973021016344651e-02
      7.4435154601651399e-03 -4.7270201231542726e-03
      -5.5455066307728514e-04 -2.8740153331699506e-03
      5.2169594810591016e-03 -6.2062813766037665e-03
      1.4184064563958506e-02 7.2666682666202029e-03
      -1.0638645352231579e-02 1.0088981171190375e-02
      1.4789028080830883e-02 -6.4594537847965771e-03
      -1.0114152726597887e-02 2.4401282321555896e-03
      -6.8241613492929934e-03 6.4160497806839828e-03
      -1.8854614400074739e-02 -2.4186118254047411e-02
      -3.1800706259272054e-04 -4.7096052707757581e-03
      -5.5517361575244889e-03 5.8143418429904377e-03
      -6.4638579668239151e-03 -8.3677016661915116e-03
      -8.7857273041640795e-03 2.0685233712591238e-03
      -1.0416187765863883e-02 -1.9025213279672798e-02
      1.8977377069380776e-03 1.0264040365477527e-03
      6.3980467230779266e-04 -1.1179543336000918e-02
      1.7283443239344059e-03 1.1360945225916302e-03
      -9.4442753001142896e-03 -8.8654809228974965e-03
      -7.4154990312853258e-03 5.2103827417585599e-04
      2.2491057703518049e-03 4.9002311726346380e-03
      1.2771814192776782e-03 -5.4780392130344586e-03
      1.1139990899111826e-02 1.2532072216925523e-02
      9.8887261728603372e-04 4.2338247651005434e-03
      -9.0995324801148771e-03 -1.1996219083047861e-02
      -1.3968382251982726e-03 1.2219958532613819e-03
      -3.3424154479213997e-03 1.0674075632123817e-02
      1.9884637567526935e-02 3.0631351757848848e-04
      -6.5172300595372861e-04 6.2276362000005395e-03
      5.2896173065192604e-03 4.5584850017634193e-04
      8.1722046984637718e-03 -3.7621971032674160e-03
      1.1689454686644495e-02 1.3518995668580979e-03
      5.4447480594411474e-03 8.5900448654859501e-03
      -1.1013176558192347e-03 -4.4429320924239592e-03
      -5.7285194394566836e-04 1.2698996378914394e-02
      -3.3024728613552439e-03 -1.0929586739102765e-02
      -9.4483977438034362e-03 -1.7958005133159538e-02
      4.7206368249037445e-03 7.2280997560809435e-03
      -1.2652252101389665e-02 -5.4886857903697678e-04
      -7.8430513398613719e-03 6.4811837932921426e-03
      -3.0518833798063747e-03 7.6559741076140369e-03
      -1.1214244111978662e-02 3.2794442715691485e-03
      2.5547418297276175e-03 1.5775062078720360e-02
      -1.1377443007897401e-02 -1.5258591934178972e-03
      1.7193896761023210e-03 2.6417484952288614e-02
      7.2337100835915245e-04 5.3035945910214529e-04
      4.2602262278389202e-03 -6.6094256906133715e-03
      5.8303561862217725e-03 1.3058475295608340e-02
      -1.2848556210300500e-02 2.4741097114131913e-03
      9.0436463316565466e-03 -9.2920146051076770e-03
      4.4563682771553582e-03 -1.0674643809804476e-02
      -1.7838081028955836e-02 1.5531342251411380e-03
      8.8735044565262187e-03 -7.7510330441371809e-03
      3.1368949211165683e-03 7.8351354525259837e-03
      3.7372953138387613e-03 -3.0224591335928290e-03
      7.6593344204154883e-03 1.6499936816089626e-02
      -4.8307163023909166e-03 6.4053732277259794e-03
      7.8080842076205083e-03 -4.3707334054346710e-03
      1.1824428287545069e-02 6.2415526199684317e-03
      -1.7031249736746761e-03 3.3428570126061924e-03
      -3.3182774583535809e-03 -4.1173581768508202e-03
      4.5245474119120378e-03 3.0260922382406093e-03
      1.1173975564612785e-02 -5.7549044736709791e-03
      -1.0257231710814195e-03 5.8404643507273517e-03
      -5.8979696689634995e-03 -6.7251945755244314e-03
      1.7737809787463927e-03 -5.1565487461502947e-03
      5.7060992945323491e-03 -3.6336903423966217e-03
      -7.1912481402606457e-05 -1.0201700195582634e-02
      2.1849826724990990e-02 5.3150801065967876e-03
      -8.7537180053048717e-03 6.1325548855388420e-03
      1.1245787245798210e-02 -8.9276605527061782e-03
      -1.2892860147836442e-02 2.2049196801636221e-03
      -9.1386354348828649e-03 -5.2330778339050566e-04
      -1.2215797785846664e-02 -2.4158358306128593e-02
      -1.7836438692516140e-03 -1.1201870435392189e-02
      -1.1812234462666037e-02 3.7005570868749822e-04
      -1.7568420629297964e-03 -4.9959171831473279e-03
      -7.9037522828765919e-03 6.6322878626930808e-03
      -9.9820107843618649e-03 -1.4009884457009927e-02
      -9.2641983996325395e-04 -6.8723288275227717e-04
      8.4701897475957730e-03 -1.4354163725396805e-02
      5.1015285978727098e-03 -6.0491446094998623e-03
      -1.0412302617240715e-02 -3.8490752289450890e-03
      -1.3829795977620784e-02 5.5109258375171883e-03
      3.2030931495284081e-03 8.7838962588354108e-03
      2.3110658157156363e-03 -2.9663072950223924e-03
      1.0159984387698585e-02 9.9726688171806153e-03
      7.5036414835123579e-03 5.7148589179796244e-03
      -7.3342566182290356e-03 -9.5379471280718758e-03
      -3.3744241627468394e-03 -8.0334236603571527e-04
      -1.0496644214713668e-02 9.3883046139764965e-03
      1.4614446948072436e-02 -6.9741658477612449e-03
      3.7668349202605736e-03 3.1184418205511140e-03
      4.4567543123437536e-03 2.3150875886785116e-04
      8.5385740190949914e-03 -8.4270385146260212e-04
      1.7943014602899147e-02 -6.7588179182738687e-03
      9.4945606443658740e-03 9.0726039488089102e-03
      -2.0052202294940321e-03 3.5353007691024205e-03
      5.8884079030039347e-03 1.2693682280391550e-02
      -1.2826472646173643e-03 -9.9744979904095327e-03
      -5.9866159430495003e-03 -1.5374167410752525e-02
      6.3905156497649079e-03 1.1499229261227329e-02
      -5.3782682378514602e-03 -6.9361014916838942e-03
      -1.0629281561176545e-03 3.1096824666629959e-03
      -1.2061118726458505e-02 7.6672256531849434e-03
      -2.7752407343187642e-03 1.8562051730670842e-03
      -3.9418440240928423e-04 1.5762170742515371e-02
      -8.7269086778534114e-06 1.9042175731582289e-03
      -3.2187963510335003e-03 1.8934996489993246e-02
      -4.6883237699059631e-03 -2.5976702766020224e-03
      6.4648786780831073e-03 -6.6648877734880154e-03
      6.5302185178083387e-03 1.3202536469431958e-02
      -1.4068619025991085e-02 -6.4331923300948559e-03
      5.7874390395710826e-03 -8.1990324657405123e-03
      5.9722115153988051e-03 -1.8055611922856343e-02
      -1.7743681266294307e-02 6.9570630711298506e-03
      1.2386038491733035e-02 -1.2983619390251229e-03
      6.5501818226077601e-03 6.5412333789859403e-03
      6.0376811459224777e-03 -6.1997898021053334e-03
      1.9090429531418016e-02 2.2240064393040136e-02
      2.5059746085352477e-05 6.6725515824989637e-03
      5.7820901350642013e-03 2.2861244829947258e-04
      1.1015688776392109e-02 -2.4126168735053841e-02
      1.3678858739427984e-02 -6.1934218196969702e-03
      2.6483058315610597e-03 -2.9136950708786148e-04
      3.3396727807822484e-04 8.8415352992760668e-03
      2.9008471937197813e-02 7.1336919444061880e-03
      4.2178711811152264e-04 4.1384910076672232e-04
      -3.0549547885628009e-03 5.2908163792829664e-03
      -5.8965936039873171e-03 1.4492216816048623e-02
      1.5828988459007483e-02 1.2272028495792233e-02
      1.2007509222065447e-02 3.3343487553129970e-03
      -6.4137532914631335e-03 4.5546226478443098e-03
      6.0720566052039886e-03 6.4807707844038033e-04
      -1.1321290834127437e-02 5.2642103080653459e-03
      1.5208452338823071e-02 8.0361684506375704e-03
      -1.6757236616314760e-03 -9.7705050589301564e-03
      4.2907890294082243e-04 -5.4066307019857269e-04
      -1.8957929534414661e-03 -5.6739950863265278e-03
      1.5622908454371991e-02 5.1738534656560640e-03
      2.0275467053357955e-02 3.9649929631380750e-03
      -2.5579275132796529e-02 -7.7701177800613957e-03
      -1.7463907834668643e-03 -1.3105074117428275e-02
      -2.0021989632994602e-02 1.2448867967397440e-03
      2.8023657516576209e-02 -5.7766054734716054e-03
      -8.6302362915614567e-03 1.8150614372436440e-03
      1.5708267293458943e-02 -2.1961133859647931e-03
      -3.4687896591407148e-02 -9.9549722590999840e-03
      -1.4647777318551209e-02 6.4011061600390759e-03
      -2.0504631273456111e-02 4.6950836555919375e-04
      -7.8179321812055016e-05 8.0885440681321332e-03
      -5.9559671854343896e-03 1.1685010408867855e-03
      3.0573482030301765e-03 8.6370458774112525e-03
      8.3107805906212397e-03 -2.1598819596737057e-02
      2.6645519642831774e-03 -9.8194081398592405e-03
      8.5428591579695063e-04 1.6980855837676193e-03
      1.0275973287604566e-02 -4.4039900113496148e-03
      1.5633820150113824e-02 2.1269737476317913e-02
      7.8390217321685097e-03 4.3089198747537597e-04
      -4.6117849734232342e-03 -1.1775359087275438e-02
      7.9363916322825988e-03 -1.8071703106362295e-02
      9.1394672751000366e-03 2.3117084974628301e-02
      1.7975653502490502e-02 2.3073138691995939e-03
      -7.5972988075688379e-03 2.3267066057465872e-02
      -1.2907573973126437e-02 5.2066113644460401e-03
      -2.5253723724843963e-03 -5.7739390913934090e-04
      6.1653877535217125e-03 4.0873229819489414e-03
      7.4272344315198075e-04 -1.1283307907021711e-02
      -4.5978365300279088e-03 -2.7677704769468320e-03
      -1.0211489133250701e-02 -1.8060786036673680e-02
      8.3026743560448064e-04 5.3544932889650230e-03
      1.8908674842487407e-02 5.7520440615995020e-03
      5.2500306814972841e-03 -9.6461832515143016e-03
      -1.1602307404148688e-02 -1.2696882348841455e-02
      -5.1881087421497718e-04 -7.2364361138516639e-03
      1.9200195743688142e-02 1.3098400326573862e-03
      -1.0057052632912709e-02 1.6164946353537562e-03
      -1.1069131140482146e-02 1.0750066666574784e-02
      1.3032579718207602e-02 -1.5185357411011972e-03
      7.2025167983943105e-04 1.7767515960508309e-02
      3.0845483610521295e-03 -1.0085472360562059e-02
      1.5467612679032116e-02 5.3598478768935292e-03
      6.4024391316283430e-03 2.7373849676496052e-03
      1.9090025342798560e-02 2.0417608927329283e-02
      1.1408480863128156e-02 -9.9670353046913858e-03
      3.9744288287650769e-03 4.9840490943382117e-03
      1.4493239690030451e-02 -3.1466737461082056e-02
      7.6383611028404659e-03 2.7969032966668004e-03
      -3.3073750641775391e-03 -5.2039081794308753e-04
      1.7369021420455281e-03 1.2486529481737977e-02
      2.4493955051559536e-02 -2.2079314308445629e-03
      -3.6903941937107125e-03 -7.8065596163394962e-03
      -7.4437775142255150e-03 1.0668147750663434e-02
      -8.8518523814700443e-04 1.6778126870776656e-02
      1.8205180430535196e-02 2.2913651408869990e-02
      1.4999743267810174e-02 1.7063759450845109e-03
      -9.2373671040419849e-03 6.0913687778990323e-03
      8.0237226699015861e-03 1.4501015367439385e-02
      -2.3807238263077877e-02 3.7646123512926470e-03
      2.0323316758197894e-02 1.6198192298171026e-02
      -1.3721677789452576e-02 -1.2548547092502938e-02
      4.0404589697054438e-03 7.2444643244784319e-03
      4.9900319165519923e-04 -2.6062992943971376e-03
      1.3785794641795055e-02 4.5607728834178721e-03
      2.7083325627591984e-02 1.4392821957354595e-02
      -2.1874128547455084e-02 -7.6909600346562659e-03
      -2.1469548499205958e-04 -1.1447361267168334e-02
      -2.2474285380236970e-02 4.6577526802811164e-03
      2.7963482084355371e-02 -2.0068572417751055e-03
      -1.7247122438217136e-02 8.2217186146274282e-03
      1.9934094104099631e-02 1.2603500709846881e-03
      -3.2227551089908733e-02 -1.4756290543162224e-02
      -1.4526042172634467e-02 8.1598599667254948e-04
      -2.4297826457911668e-02 6.4809513925491603e-03
      3.8312617406728749e-03 4.5442988863272533e-03
      1.1779565467179506e-02 1.7861295155370716e-03
      -9.1084123609822746e-04 1.6381677192348915e-02
      8.3702598549016821e-03 -1.6052917756041205e-02
      -1.1220725545845491e-03 -2.1476962087216651e-03
      -6.0533154688112998e-04 -4.0441224214987029e-03
      8.7736473069107718e-03 -1.3465351519977013e-02
      1.5815054791397262e-02 2.3092671694744216e-02
      1.4699717181804952e-02 5.1417969675761831e-04
      -8.3653506317233166e-03 -1.5636889811369414e-02
      9.5520254179548292e-03 -2.6027366000077407e-02
      7.3402499532220561e-03 2.8723876163674125e-02
      1.8551609198726796e-02 1.0708694227625548e-02
      -1.4923744357935260e-02 2.9148983827384546e-02
      -9.6143033468148835e-03 1.4326228028357877e-02
      -3.2594972668886055e-03 -3.5730958791616112e-03
      1.8027846960346806e-02 9.6536743228857486e-03
      2.2200725273200861e-03 -1.7586817815437424e-02
      -6.1607787472217077e-03 -3.0822563525457294e-03
      -6.7311935432104600e-03 -2.4457804474890536e-02
      1.3069675408245011e-03 -4.6555830580206946e-03
      2.7779617682163367e-02 2.0587390222899953e-02
      -9.5890564934041913e-04 -2.1457532413118846e-02
      -1.3999605338901102e-02 4.7388556565680000e-04
      1.4403137993160195e-03 -1.5102710553292285e-02
      3.1993775061212475e-02 5.5122581906345142e-03
      -1.3631986942965321e-02 8.5520333361882377e-04
      -1.0037780070133633e-02 1.8938607395377172e-02
      2.5343851772619756e-03 -1.4964059669412555e-03
      6.5166410525741052e-05 2.4964290321704555e-02
      -1.5981027056141774e-03 -9.7874135856860136e-03
      1.3670817639336216e-02 1.8851684281683979e-03
      -5.1623811819849676e-03 -1.6034234476898639e-04
      2.2254667672948879e-02 1.3895092644500116e-02
      1.1540465628702760e-02 -5.2180576848546182e-03
      -5.2713632550311449e-03 2.1388623292071729e-03
      1.4181163524487990e-02 -2.7448699364301693e-02
      2.4318759949435277e-03 3.3241267928362651e-03
      -2.1428159331269123e-03 -1.0553129876032354e-03
      4.4267483503270958e-03 1.6470282400378899e-02
      1.2337412837937338e-02 -1.1230943373655025e-03
      -5.7494227351864774e-03 -8.8452927176074173e-03
      -5.6590761097768992e-03 9.7510089803746810e-03
      -1.4252908260582399e-02 1.2450497050207057e-02
      5.5727584208777195e-03 1.7382201692924378e-02
      -3.0092205899607090e-04 1.1579317025605952e-02
      -1.4702399271771589e-02 1.8829473501749232e-02
      1.1134074409132820e-02 1.1443345307913428e-02
      -2.2056932917583150e-02 1.0259141802725720e-02
      1.0111639471730514e-02 -1.9520386871556361e-03
      -1.1198863665993144e-02 -1.6569888705014826e-02
      1.3842339591054815e-02 1.9299013343468615e-02
      6.2007089647297519e-03 -1.1384670993921809e-02
      8.3861673922829786e-03 1.0511340806153584e-02
      2.0846012339742554e-02 2.1552501851475541e-02
      -1.3233031511856038e-02 -6.1642750800794807e-03
      2.7122015048565637e-03 -1.4567744347135389e-03
      -2.1489620802513279e-02 6.5705777076116448e-04
      2.7184714550011251e-02 -6.2124374514992359e-04
      -1.8676439502054335e-02 4.1104601448051893e-03
      1.6667320903544725e-02 2.2920504599630476e-03
      -2.1399074554500422e-02 -9.3578841098495187e-03
      -1.1663262811602182e-02 -1.7978472374971469e-03
      -2.6547545764030192e-02 1.7875565391375563e-03
      -6.4710104525625431e-06 -3.2711132286489938e-03
      3.8935038479081504e-03 -2.2166113495168246e-03
      -6.9454232863076816e-03 1.2731236326882179e-02
      1.5831114268619922e-02 -1.0221731755207956e-02
      3.5705373319998091e-03 2.0964538041829076e-03
      -8.2682315618560209e-03 -7.3924358315547540e-03
      8.4745031951711184e-03 -9.4295239460823743e-03
      1.4146133333240118e-02 2.6467942285091837e-02
      8.7042984160918789e-03 4.0742602050448384e-03
      -8.8660617194194786e-03 -9.7890264608999512e-03
      -2.4412842107825027e-03 -2.5293058685033121e-02
      1.5410667274546640e-02 2.1877983317923375e-02
      1.2201950258948846e-02 1.4954289352149496e-02
      -1.1261022449076900e-02 1.5662522978426564e-02
      -7.9290225050634901e-03 1.4182313228384686e-02
      -5.6349937680297245e-03 -6.4574194041643810e-04
      1.4158592497344401e-02 1.3801342063942429e-02
      6.4624560284808801e-03 -1.6082606326166697e-02
      3.2740647493149878e-04 -3.6926666233208835e-03
      1.0773921730598582e-02 -2.3699787841670917e-02
      -3.9423817241212271e-04 -2.1424555619832314e-03
      2.9685946144373209e-02 1.2790634852293150e-02
      -2.2955782530053948e-03 -2.4062799822886883e-02
      -1.1139899761105349e-02 -2.0910873239228540e-03
      3.3496043296131700e-03 -5.0586959852945848e-03
      2.3007365158146133e-02 -4.6114988516520331e-03
      -8.5723758304620794e-03 -3.9107930455566202e-03
      1.6885565783204186e-04 1.8877899360948660e-02
      6.1095932735557076e-03 -7.7180038899337191e-04
      7.7398890172053697e-03 1.8925112919206611e-02
      -6.1559346820289429e-03 -1.5756740713119357e-02
      1.0218129534318011e-02 -5.9275699907026767e-03
      -9.1136942878790525e-03 2.4530065491958322e-03
      -6.3981630580108818e-03 -1.0036360572056357e-02
      8.3721105993851807e-03 -1.6920116095121975e-02
      -7.4467834280338594e-03 5.9612416866526019e-03
      -9.2841976751838699e-03 1.8477011208294213e-03
      -1.2889376409192714e-02 3.8810323181668180e-03
      -1.0535781222059787e-03 4.2753269407568547e-03
      5.8171987468624772e-03 1.7552697593295260e-03
      -1.1824253506295138e-02 -1.3406497299331592e-03
      -2.6110876752239529e-03 -3.9180513779851177e-03
      2.0785094927162919e-03 -4.0382016781605155e-03
      -1.2513113545980952e-02 -1.9330254554751952e-03
      -7.5244967459651190e-03 -5.3484718758435839e-03
      -2.8826215693300135e-02 9.8098112573286426e-03
      -6.5734741598417123e-04 1.8667152894164492e-02
      9.0457356370147266e-03 -7.0088564121848964e-03
      4.9583970398307158e-04 8.8088369706315634e-03
      2.0517245302105226e-03 -1.8367192090194821e-02
      9.2236070432091220e-03 1.8931469219511667e-03
      3.0493545588261149e-03 1.0541136061289706e-02
      2.7233539996225817e-03 -6.4626865502935582e-04
      -3.9275255943811245e-03 -2.5504515675442239e-03
      -4.4915920045253428e-03 3.4639975381516516e-03
      3.1660050045433682e-03 1.1826492818002785e-03
      5.8200907010878284e-03 1.3729735937398194e-02
      -6.2959444917011663e-03 -4.2130506172181250e-03
      -6.5099570401375836e-03 5.0616925580306846e-03
      1.8999389535309520e-03 -1.2329115482252431e-03
      6.8476445787191437e-03 -2.2245928752994302e-03
      2.0791694215042133e-02 5.7531607035141100e-03
      -5.3383449944307279e-03 -5.5080669145208139e-03
      -2.4278987638014847e-03 -1.1279510489641428e-02
      1.7655795993729267e-03 -2.3812323722764892e-03
      7.1486283363123915e-04 -8.7180003260235381e-03
      -1.4393944345201476e-02 1.0524402652231813e-03
      8.1321976853423131e-03 1.3420581289589388e-02
      2.7826296026472832e-03 7.8318287811986187e-04
      -3.2510166988804104e-03 5.6802717011072250e-03
      -7.8037367376057277e-03 -1.1742741039211981e-04
      -1.7604237244174606e-02 -2.8894901326352927e-03
      -2.0642937984778516e-02 1.1799835845306011e-02
      -1.3566722830845411e-04 6.6108785394709798e-03
      -6.8546361626639993e-03 -2.2943094278423323e-03
      4.5642944297365467e-03 -5.5977467512832453e-04
      -4.0121466745957745e-03 -6.4390795813285108e-03
      -2.7379243086321694e-03 4.8975901236814412e-03
      -2.4123691285362920e-03 8.8833228028318556e-03
      1.8457905389191493e-03 -7.1195551424674838e-04
      -9.9072057046265954e-03 4.7826810008049633e-03
      2.4602510067821336e-03 8.8420967274879959e-03
      2.6380637348267670e-02 -3.3345273322698253e-03
      1.4121639137058925e-02 2.0027458636847789e-03
      1.3146376633884937e-03 -7.6590809859549613e-03
      -9.3232369042353484e-04 -4.7794581279099798e-03
      -5.3247281132204607e-03 -1.6235178576854547e-03
      3.6750788193232343e-03 4.8163722382801380e-03
      9.2159221785356234e-03 1.6392437376387643e-02
      -1.1664398402609768e-02 -5.1133310609908934e-03
      -9.9356729192890151e-04 2.1205167224270862e-04
      6.0084884314962894e-03 4.4287592314920673e-04
      -5.4207871343276677e-03 9.7144922940329316e-03
      -5.0737112505555310e-03 -6.5926457389590869e-03
      -2.4201959089086809e-03 -1.4621245509200146e-05
      8.3727760831994833e-04 3.4934510450446120e-03
      -5.3897421053225201e-03 -4.5071349509025463e-03
      -1.3872169246358810e-02 -1.0383704454609781e-02
      2.7362644422994531e-03 -4.5861556134884152e-03
      -5.7507140800813344e-03 -2.8980028582609695e-03
      -1.2372384650159449e-02 1.8596668239851104e-02
      -6.5346294269566715e-03 6.8119581569241856e-04
      2.0259975409098602e-03 4.6558346983484634e-03
      3.2808151493451949e-03 -1.9230147388053780e-03
      -1.7580456931466315e-02 7.1540262339268544e-03
      -1.6684192950415075e-03 7.5899053639724311e-04
      3.7003925247549420e-03 -9.0681955056626171e-03
      -9.9602818507362485e-03 -7.6889966898959893e-03
      -1.6224266691829269e-02 -1.1448051971742146e-02
      -2.2840339726230834e-02 -3.5029369914071776e-04
      9.3172454977679591e-04 1.7329286306293174e-02
      7.8262045685554421e-03 -1.4804298688825298e-03
      1.5248481786103822e-03 3.9249668634178045e-03
      1.6317754957893438e-03 -1.6060609965151757e-02
      1.2533763331394306e-02 6.9263917546832834e-03
      2.0612121237600133e-03 -2.1170006443742252e-04
      7.4846127297528812e-03 5.0998631681624619e-03
      -3.1726731869535069e-03 -5.6761914639926235e-03
      -9.8585127292281777e-03 -3.2937834175868356e-03
      1.0785866409344926e-02 -2.9789216966979335e-03
      3.0030663603604810e-03 9.4434198357273378e-03
      1.1490298497739142e-03 -4.6411045690027903e-03
      -1.2254434011883364e-02 -5.3625332058043664e-04
      2.1132434967763621e-03 -8.5325623678815660e-03
      1.6444400293642929e-03 -8.9947832781755944e-04
      1.7117572369584964e-02 1.0206213409911189e-02
      -3.8736219724427837e-03 -1.9451814567008050e-03
      2.0163459139390443e-04 -5.5371954290204493e-03
      -2.6837068741431586e-03 -7.8556023608896304e-03
      3.6207317271622838e-03 -6.8603494304284827e-03
      -4.0437542959866840e-03 4.9523708616150911e-03
      2.1112687923664668e-05 8.5901679603192765e-03
      5.1936771361392282e-03 7.8816306537744258e-03
      -2.8184147401085725e-03 1.8678294192708508e-03
      -1.2896267059369424e-02 8.9199297963965130e-03
      -7.2246233177067198e-03 -7.7915640760097497e-03
      -2.7263222838057995e-02 7.8800301724275199e-03
      2.4498190574413158e-03 1.1168759753327403e-02
      -7.3164098250274850e-03 9.0306970781813662e-04
      -8.9743879824974514e-04 -7.4770686137179947e-03
      -3.3546026176785866e-03 -8.0230422965311930e-03
      4.5188304566332625e-05 -1.0718464543538228e-03
      1.0203677011012676e-03 7.7570415820712533e-03
      5.2228511295082441e-03 2.6402950593470338e-03
      -9.8462084816960012e-03 2.4610169699711827e-03
      -7.9848359010117487e-03 1.1579456961563360e-02
      1.4937525151571094e-02 -1.2192321644421066e-03
      1.0249529460823673e-02 5.6115220598279072e-03
      -2.3695726699223198e-03 2.4584871429415031e-04
      -7.9063426324945136e-03 -4.3302286376827367e-03
      -5.2413573999706004e-03 1.0817083465847802e-03
      2.7428944295278790e-03 4.5638903506661499e-03
      -6.4954468200252163e-03 1.0748332606182289e-02
      -1.8845194400379975e-02 -4.3222342900242385e-03
      1.3529426388217093e-03 1.0301372273031177e-02
      1.0748693291018423e-03 4.6011828717999045e-03
      -3.9525865335069800e-03 5.9690346219932345e-03
      -5.6420571637013925e-03 -6.9577639211532939e-03
      4.1602314955575389e-03 -2.5857849852088570e-03
      2.0102898668043563e-03 1.7273715193027220e-03
      -9.2871458489174625e-03 -3.2295348686673334e-03
      -9.4578723723460784e-03 6.9941132097844734e-03
      1.3409964350903957e-02 -1.5027096463587122e-02
      -1.8407972089871845e-03 1.1519043030038974e-02
      2.2879831485572277e-03 -1.8819007218891806e-02
      -1.1209315063460405e-02 -6.5292740119246070e-03
      -4.1596288438807121e-03 -6.1603085222265352e-03
      3.7570105975507882e-03 1.2422093498333351e-02
      6.2141579397873205e-03 -2.1250991769390555e-03
      -1.1671692955536208e-02 -9.0585073229027344e-03
      2.9454625516608132e-03 -2.3841754725300902e-03
      -1.1812599571326108e-02 8.3836328318773953e-03
      1.7892585730566195e-03 9.8245247498855905e-03
      -2.0630868196475860e-02 7.0546667065772744e-03
      -5.9567608002570388e-03 1.7391281731729137e-02
      1.2599772089185586e-02 3.5754954862474305e-03
      -1.1518635313703000e-02 2.5487997036174030e-04
      1.7823864330139137e-02 -1.5594272785106406e-02
      -1.4717877255059282e-02 3.5679921924782437e-03
      1.1099640465510511e-02 1.5112149928773995e-02
      5.7130275680457128e-03 -6.3415681355141976e-03
      4.0148120157216822e-03 7.9725772456125908e-03
      1.5902845247374048e-03 9.9179755166597834e-03
      -6.8066171307410578e-03 -9.0384620644886355e-03
      9.5323769476770275e-03 -5.0387082840779411e-03
      -1.6893258869861941e-02 -6.2512068713652400e-03
      7.6444882558758731e-03 -2.6306900755991109e-03
      -7.3806148215678777e-03 -4.4006594795010061e-03
      2.3745076118740657e-02 7.9253194055853241e-03
      -2.4295538412803714e-03 4.2400287328421046e-03
      -1.4325582487717411e-02 3.4400351226212488e-03
      -2.1205694386071318e-02 -1.2869236678770230e-02
      9.2980465887508264e-04 8.4419398943206810e-04
      1.2703133472081145e-02 -4.6736836484047965e-03
      -1.9941091734347018e-02 1.2948677100977423e-02
      4.3553178476847228e-03 2.3471307175105104e-03
      7.6058989435602783e-03 9.3383645586146546e-03
      -1.8878849648170534e-02 4.1130268700930121e-03
      -7.0107702924657326e-03 -1.7221300964194271e-02
      -5.0769894087964668e-03 1.4686030277230044e-02
      -1.1415122991629102e-02 7.5780448608954295e-03
      -1.0855691715693443e-02 -2.3527585796507327e-03
      4.5752573842431539e-03 -1.5231504331591050e-02
      1.1851787731598926e-02 9.8187054648098699e-03
      1.4792921425661073e-02 2.0811650447780196e-02
      -1.3632447465236331e-02 1.8565980285178967e-02
      -6.1288007149783823e-03 1.7366507158516217e-02
      -2.0634802490639100e-03 6.3044407856126369e-04
      1.1944559438240630e-02 1.5835807659815341e-03
      6.5687420984895733e-04 6.7869915147859474e-03
      6.2894155554789714e-03 5.9449004851111894e-03
      -2.9571559757415110e-03 -3.2469820572982679e-03
      1.9098332371977672e-03 -2.9499878209483512e-03
      1.9734721033014130e-02 -1.7842043578407355e-03
      -6.0895675045218259e-03 -1.6859978644908378e-02
      -1.1222036167424100e-02 1.0244864157183505e-02
      1.7888151034701035e-02 -6.9988792118870881e-03
      3.1970394420036169e-03 -3.3105775570907324e-03
      -6.9008963488620349e-03 1.2139228254112670e-02
      -9.1583096344142086e-03 6.5223180796599202e-03
      -8.1526996756375592e-03 -2.1254865007218921e-03
      -1.5761215513998943e-02 8.6122294834049453e-03
      5.3800011976851735e-03 3.4783614494150227e-03
      3.9505980867060803e-03 5.5347482041282203e-03
      -2.0118899486521399e-02 -7.1697887778146745e-03
      -4.5436910791835669e-04 -5.3443934635597811e-03
      2.6196415714985080e-03 -1.7677613125505007e-02
      9.3790259076483723e-03 1.2644937596744630e-02
      8.4252811236886892e-03 1.3460636866027052e-02
      -2.6099295881852882e-03 -7.9469440340262393e-03
      -5.1238085885819842e-04 -6.3743159226822320e-03
      1.8583500286691357e-02 1.2549680552086580e-02
      -3.2516444292069635e-03 -6.0258567713491569e-03
      7.9525224154961590e-04 7.9775283987852438e-03
      -9.0459003412407674e-03 -5.8354131620945394e-03
      3.8279806291532160e-03 -2.4243656553135784e-04
      -1.2890698085154443e-02 3.7390339927204167e-04
      -2.2985658966169310e-02 -8.6564975899670604e-03
      6.9396349161264855e-03 2.0057205279879590e-02
      6.2394385416576314e-04 -5.6416590690655617e-03
      1.9498500075104588e-03 -2.1158625104962083e-03
      -1.1198260456113598e-02 -1.8387524250503273e-02
      -4.9059818917382434e-03 -9.6518527085507066e-03
      -8.3736154294965313e-03 -1.1461089294289632e-02
      4.3758917815366442e-03 -6.7164964153272177e-03
      -1.1986901996926173e-02 -7.4996265140556033e-03
      -9.0344629984360415e-05 7.6964903698327411e-03
      2.5413940102446647e-03 2.6568914060643820e-03
      -8.0766426179994660e-03 4.6819810334440739e-03
      1.6433258459525187e-03 1.0956017716166054e-02
      -5.4230665739882404e-03 -3.6180014137211771e-03
      5.9756222125807359e-03 5.9019163605815537e-04
      -6.6460094234916849e-03 -2.4352117836221676e-03
      6.2557319065619284e-03 1.1353347091113805e-02
      5.7465736270748422e-03 -4.1281220012232530e-03
      4.3613502180383859e-03 -2.2279257285064219e-02
      6.7207271528940736e-04 -7.1784509269717921e-03
      4.6969284360552643e-03 2.4988382086241993e-03
      2.9622911521743813e-03 2.2591753439719785e-03
      -6.8556498213847048e-05 2.5645319585776245e-03
      1.5009357953817784e-02 1.0584595979161403e-02
      3.4581763192758500e-03 -7.2955468962240672e-03
      5.1069050038986047e-03 1.3302800347115522e-02
      -1.0521610112318360e-02 3.8188364371320393e-03
      -6.5855271960013834e-03 1.3526157812084022e-02
      7.2909247204438875e-03 -6.0238289133200361e-03
      -6.4467878681107177e-03 4.8528520288209287e-03
      1.8027972605213509e-03 1.1760156486080624e-02
      -5.2464874967744352e-03 7.2209103007939771e-03
      3.5760671131917503e-03 -3.8811287615399172e-03
      -1.3559443002372129e-02 -6.3657882021464010e-03
      1.1097743048714850e-02 8.2776228364056671e-03
      -2.3333201791162893e-02 -1.1601882636644712e-02
      -5.6698056994589551e-03 1.8187059142095910e-02
      8.8387648955724676e-03 2.3515468138072867e-03
      1.0842149085411482e-02 -1.0414603994175608e-02
      1.2217923079437308e-02 8.4631378814289740e-03
      -1.3686816865531269e-03 -7.3162912976293066e-03
      -1.8767287889495910e-03 7.3098949712159062e-03
      4.7161612007944487e-03 2.2099862266754790e-02
      8.9487565962159607e-03 7.1048791018931837e-03
      7.4471783126057043e-05 4.3830740899587911e-03
      -1.1940721460178494e-02 -8.3098050840769572e-03
      1.6101636876886462e-02 -1.1311994461152757e-02
      -4.7291084169757036e-04 -5.6206333116361629e-03
      -1.6271271367929406e-02 7.6417360199404474e-03
      1.1265570850077811e-02 -1.1575680522603314e-02
      1.5790718371704496e-02 8.2875763576908418e-03
      -2.7465941262110136e-03 -1.3256223244518762e-02
      5.5459460200330268e-03 -5.4925352846837000e-03
      -7.0939402492923107e-03 -3.0602020098994920e-03
      -5.0703212796527871e-03 -1.0472358711194970e-02
      3.9028756414151550e-03 -3.4847672732413698e-03
      7.5684176740368593e-03 6.0862661973139888e-03
      2.0658463409335037e-03 1.0168114419540207e-03
      -6.1122795434123403e-03 1.5533237868600818e-02
      8.1151115297209732e-03 -8.2212995865347267e-03
      8.7505853426665253e-03 -4.2400182579662472e-03
      -1.3642086275971289e-02 2.8667819236307926e-03
      -5.6636299117401711e-03 -2.5643795707547376e-03
      -1.1737102701033690e-02 1.1678862878169036e-02
      -4.0737503051903193e-04 8.5813063508218320e-03
      -1.2272594189149224e-02 -1.8596670327427015e-03
      1.9625016738440606e-03 3.2940478848482273e-04
      -9.9373920699138332e-03 1.7454380625005258e-02
      -2.0305859881142533e-03 -7.7978881014228313e-03
      8.6372109929951698e-03 -1.3264610523704605e-02
      -1.4238429060324271e-03 2.9369581511492228e-03
      -6.8360256438407558e-03 -1.8454348105400864e-02
      -3.7618593118569658e-03 -6.1261832603386737e-03
      -1.9463429545770201e-03 2.4826900863235447e-02
      4.7331307991271996e-03 2.3650028409815745e-03
      1.1489439167185452e-03 1.6241316605922301e-02
      4.2259209812215971e-04 1.4374372742502267e-03
      1.1130709653610392e-03 1.3047792291709551e-02
      -2.0143270835411412e-02 1.7515467572687732e-03
      -9.3544154039188303e-03 3.3818079729152008e-03
      9.8806543208027173e-04 -5.2445896979007381e-03
      7.7879111777953494e-03 1.7797468141259299e-03
      4.6953418583687376e-03 2.1370766489764849e-03
      -7.2880296130592975e-03 1.4634137330562769e-03
      8.5991615321649138e-03 5.1883692153985670e-03
      -7.0734803045361522e-04 -6.4079629486526535e-03
      5.6920752213579619e-03 -4.7755632731227250e-03
      1.3006424495573217e-02 -2.4725581337560355e-03
      -7.1736322854398888e-03 2.9102451217395617e-03
      1.2657516361740302e-02 2.5116986331307012e-03
      5.2306235680257907e-03 1.0047206943953453e-02
      7.2221795202372513e-03 5.3594822820261850e-03
      4.7484221568670684e-03 2.2468474950455815e-03
      -6.6533823122245078e-03 -7.0377100107238593e-03
      7.5049915381509248e-03 3.2289057296998312e-03
      -1.3243475106532744e-02 1.4807656312563233e-02
      3.1017272263115449e-03 1.6616067057126754e-04
      -8.7938869030401174e-03 -3.7426076595900590e-03
      1.9862052311171419e-03 -7.5683102742870358e-03
      -5.5240963741113279e-04 3.1053294715265565e-03
      5.5724172868227406e-03 -7.6635818427631206e-03
      5.9533666080044088e-03 -2.5756811241330066e-03
      3.0871090807978011e-02 -1.7056537994642698e-02
      -1.3514832246427062e-02 -7.2813252936202192e-03
      1.6770807665408064e-02 5.3145995938383374e-04
      -1.5766886330897149e-03 -2.4588725813639331e-03
      4.8718401478320076e-03 4.8276572670209097e-03
      3.3851577135267678e-03 -2.0444696438537595e-03
      1.2748437272363520e-02 -1.3779841876741087e-04
      -2.9276870401202951e-03 -7.0324377766931819e-03
      3.9363757806697500e-03 -1.3316649093703778e-03
      -6.0969295849202998e-03 4.5676362771879765e-03
      1.5386446445398336e-02 5.9391802847790949e-03
      -4.2305616544520992e-03 2.8021866016109411e-03
      -1.5518541144971345e-03 -1.3660266499774722e-02
      -9.9964033575228595e-03 6.7976216180067580e-03
      1.5037325791438468e-02 9.3211044722988766e-04
      -3.5367314951483285e-02 -1.1018636707478389e-04
      -3.3762481750041306e-03 -1.0386952174822515e-02
      3.5136072708185188e-02 -3.1654722150737495e-02
      2.1500471892198367e-02 -1.6269590511524001e-02
      3.5923352718910911e-03 -1.1470371254800821e-02
      -9.7570664713543444e-03 2.8078969012859775e-02
      3.4635248763732904e-02 -2.3092953302987832e-02
      1.0350565264524882e-02 -1.7477662490376512e-02
      -3.7059869714282885e-02 1.2398528149577316e-02
      -3.2532811556243747e-02 2.7530633013202570e-02
      -7.8412289837007847e-04 3.1222245773959621e-02
      -9.7186608062755277e-03 4.0948860930766315e-02
      -2.8709032274900209e-02 -4.4275527645044289e-03
      -1.0710485809114052e-02 -9.4855447326918901e-03
      -3.0120362032840047e-03 3.8278001800032602e-02
      1.4494389483438385e-03 -7.9106213382348686e-03
      -2.1764625590931379e-02 -3.0725316909490923e-02
      9.9068329954051329e-04 5.6639724469674290e-03
      -2.3403732777519250e-02 -5.2445649750358245e-02
      -2.8744944758342550e-02 -1.1000723093691151e-02
      -7.1438999344593281e-03 6.7045439245791566e-02
      -1.1165173347159241e-02 1.4362737495334113e-02
      2.1495870834283629e-02 2.2114721849249751e-02
      -1.0465009255646463e-03 -5.5136984383350341e-03
      2.7987554452230425e-02 7.8222678629190703e-03
      -2.8413752878921686e-02 9.8663779982072208e-04
      -1.0772691006855618e-02 1.2960108463635964e-02
      -1.6450089132132837e-02 -1.1436999421239765e-02
      2.2779662849312099e-02 6.9587833373207777e-03
      -1.9837587462933691e-03 -5.0100798455509363e-03
      -2.1366228694364428e-02 1.9988291054207824e-02
      2.3175620574455571e-02 3.0778365665706360e-02
      -2.1085916624614537e-02 -1.8293667158252241e-02
      -6.8882260469425954e-06 -1.6429727748445085e-02
      2.2470782034331779e-03 9.6454940546035813e-03
      -2.0919695856889707e-02 1.4437971524757759e-02
      3.1277689258731346e-02 -5.6914007717757302e-03
      -4.8526706631569567e-04 3.8932707628690270e-02
      3.0704605848877492e-02 2.7070001791878805e-03
      3.7756989953842950e-03 -2.0478783268583826e-02
      6.1239884412226447e-03 -6.8668208924424507e-03
      9.3674263157081088e-03 3.5839356266612360e-02
      -9.9748783246899186e-03 5.9970620215383526e-02
      -7.1600333171408462e-03 -8.1588753426344741e-03
      -2.4985540163992775e-02 -9.6647705624235795e-03
      -6.9678026252384439e-03 -1.8456159271542583e-02
      1.4196037027420699e-02 6.3811442870118683e-03
      1.8841030644405492e-02 -7.6661694036066616e-03
      -6.1325031366731226e-04 8.3706298251696107e-03
      4.1160422309101330e-02 -2.3562072425750393e-02
      -2.4602268564667313e-02 -2.8265616446061011e-02
      6.8498582962148891e-02 -1.8367978835374749e-02
      5.6018936016800133e-03 2.2212717853043063e-02
      2.4131987341560537e-02 1.8852058301523925e-02
      3.3680349430405446e-02 -1.2327200346473022e-02
      3.4838143255520246e-02 1.3470860728149528e-02
      -2.4252633149944389e-02 -1.1333569854978697e-02
      -1.0065204014229358e-02 -2.2254828157125366e-02
      -1.0383538319613167e-02 -2.3746170991912074e-02
      4.7801678119353376e-03 1.4825254171185961e-02
      6.8873941887902081e-03 1.4277931884865437e-02
      -9.0266067740836856e-03 -2.1207562927148885e-02
      -2.3015963067290708e-02 2.4781284651218909e-02
      -1.5216070492499427e-02 1.7666550733151860e-03
      -6.8812065690814547e-03 7.5970787469835993e-03
      1.0368016643224343e-02 -1.4206171617526329e-03
      -1.8114697109324850e-02 -9.6312146814975779e-03
      -1.9399233040253247e-03 -3.3635071384789154e-03
      5.2307348102022958e-03 1.3309563075368249e-03
      -1.5405810062361096e-02 -1.4809251957622433e-02
      5.3749551775545516e-03 -8.3052534275765526e-03
      4.5521420304031482e-03 3.9707155306669961e-03
      2.5360217380024932e-03 -5.3790058881003546e-03
      -9.3472894286152197e-03 -7.2929645134411593e-03
      4.2949779856947109e-03 6.2328240925956504e-03
      -9.9313480851333010e-03 1.1961131922037982e-02
      4.3586402630766530e-04 -2.3770964895054224e-02
      -1.2043809122187422e-02 -1.8980775500255375e-03
      1.2552639904414971e-04 2.9661770791221931e-03
      1.1941743771056940e-02 2.6844375989619833e-03
      -7.3689382929478311e-03 1.7443593444180900e-03
      -1.9751071358877947e-02 -1.8321768090642569e-02
      -2.1216436417792785e-02 3.0772208943011005e-03
      -4.7473956873571631e-03 -1.0943732544407404e-03
      -1.9062380587369636e-02 1.3124972954672048e-02
      1.9253207218929004e-03 7.7682433331612462e-03
      2.0588790543293382e-02 -8.2594927405480727e-03
      2.3555428589132222e-02 -5.5774583597292746e-03
      -5.7160004260025194e-03 -1.8906271385640276e-03
      5.9126276280593425e-03 7.3653588739250927e-03
      -1.4943079964007400e-03 7.7838381055202891e-03
      2.6830316523590763e-03 -2.2636745081950267e-03
      1.1373439397732232e-02 3.3345623002580416e-03
      1.2875754958482187e-02 -5.8141950721627839e-03
      -6.7654820432744517e-04 2.0419880177696918e-02
      -1.8757783828843696e-03 5.4399160038055587e-03
      -1.0083959266100583e-02 -1.3127034689674761e-02
      -1.3939824242283167e-02 3.3362447080930026e-03
      -3.0981116322308382e-03 -4.0217118219923282e-03
      -3.1617023159814317e-03 2.3931042601493858e-02
      -9.8621409102228400e-03 -8.0990718451092111e-03
      -9.1645106234402030e-03 -7.7033277001515100e-03
      3.4433163661617030e-03 -4.2454548344255895e-03
      -1.3762258145418821e-02 -6.4530424754287684e-03
      1.0492889842418753e-02 1.9600398027254592e-02
      -4.8585753328093612e-03 -1.0319900482367275e-02
      -6.5212326898642882e-03 7.6608214856439157e-03
      5.9245846697653249e-03 4.3444455218527725e-03
      3.0313436657499904e-03 3.2900930525603372e-03
      -3.4669935217786448e-03 9.7163001715666988e-04
      1.3577368923467161e-02 -9.5230680405815060e-03
      1.4316239322894235e-02 1.8976035976260665e-02
      -1.4292621551190191e-02 3.9759215483652173e-03
      -1.7734804657629382e-03 1.9947780657292691e-02
      -1.1149126551796512e-02 -2.5331086331823395e-03
      3.1789719074345854e-03 -1.7015887836740500e-02
      -1.7870758282970862e-03 9.9842300292999776e-03
      -1.3025549293588391e-03 -1.6755790635658329e-03
      5.5714039179267484e-03 -8.1822071164989602e-03
      -6.2830922102314309e-03 1.5752012399067102e-02
      -5.3302168585452597e-03 1.5216961995511770e-02
      -1.4421953736769341e-02 -8.4940886561642084e-03
      -6.9724135111111822e-03 -1.4558480714055187e-02
      -5.2067863801912063e-03 -1.2428404849242633e-02
      1.8197714270375715e-02 2.2153960406989831e-02
      -2.3327757451153685e-02 -1.1442286334638551e-03
      -1.4570527742676811e-03 9.4746941178928679e-03
      -1.6991982419797547e-02 1.1064396217038051e-02
      -5.7316091630271503e-03 1.8558116464333009e-02
      2.1905198320387901e-02 1.1937090811078384e-02
      -2.0913554184719602e-02 1.4556042291091512e-02
      4.8750524522844169e-03 -1.3205923411226880e-02
      -2.8664711830749270e-03 -5.4286680247454409e-04
      -1.4903283885763632e-02 -2.9931714134792155e-02
      -5.5935369973054271e-03 1.5777382357015440e-03
      -1.3046521940337035e-03 2.0123327192540036e-02
      1.2289963214475176e-02 1.7257312411070136e-03
      4.0022119317774524e-03 -1.5086364883753539e-02
      -7.4069775821780717e-03 -1.5204662318095447e-02
      -5.2505566565999992e-03 -1.2648957232763464e-02
      2.7463643140034123e-02 -2.3370984059578902e-02
      -1.8126346921637043e-02 -1.6562031960621140e-02
      1.2729883214053489e-02 -2.4620900912354294e-02
      1.1743506164140417e-02 1.6367864828236349e-03
      3.5780609379873272e-03 1.7906796429149618e-02
      -2.8502940636104718e-02 -3.4639982029583349e-02
      -1.7304187992477144e-02 1.8065270432544668e-02
      -6.2708085514661688e-03 -6.9445413015729804e-03
      -1.8628492268054422e-02 -1.7531750360013327e-02
      2.6514547622583829e-03 6.7660952941371354e-03
      1.5923731030964903e-03 -1.8267661536701365e-02
      3.6100888941231639e-02 -7.9708719629480833e-03
      -9.6632758814114272e-03 -1.3399174475248403e-02
      1.8601838674821240e-02 -1.1601611754086848e-03
      -9.3918567460331576e-03 -1.4243913754146211e-02
      3.5117721205749669e-03 9.9550535343324656e-03
      1.6000701147953399e-02 7.2298297717859790e-03
      2.5220297409907246e-02 -1.1637498224799991e-02
      -1.5846677023004894e-03 1.7145662773435131e-02
      -2.0384442296774032e-02 -1.5170483173977014e-04
      1.4297391721728702e-02 -6.4498201659134299e-03
      -2.5286350654339221e-02 -5.0333957133326460e-03
      -4.8045283022554834e-03 -1.4283251303280273e-02
      1.7041877874068603e-02 1.4487706912148070e-02
      -2.1779109402468549e-02 1.5909934822682830e-03
      -1.2571591081257305e-02 -3.0921908736431282e-02
      -1.1728861226947548e-02 5.2169935339422559e-04
      -4.0014205671824931e-03 -7.9059216094720507e-03
      1.2513584864567495e-02 3.6990043441653131e-02
      -1.5565082457970005e-02 -2.1765697105368409e-02
      7.3633125989247940e-04 -6.6272815888532366e-03
      2.5304690298034692e-02 1.8193820291344585e-03
      3.4842491223155254e-03 -1.3177928474384738e-02
      7.9134556892383138e-03 1.5664064638055562e-02
      -1.3441515520116278e-03 -2.7315805872576544e-02
      -2.1507790508668093e-03 3.6802588935327486e-02
      -2.3919103018885841e-02 -1.7310135547870581e-03
      -2.9538538901001769e-02 3.4604173319969941e-02
      -2.3543579225351482e-03 4.0973684659488903e-03
      -2.6359570503967363e-02 -1.8654047916601912e-02
      3.5502878817520152e-03 2.6081219912774390e-02
      -1.8160385440267254e-03 -5.4066514355466571e-03
      -1.1068656133950104e-02 4.7149512154080900e-03
      -2.7737103342287104e-02 2.6831899713144484e-02
      -5.7228495793459353e-03 2.8083875332516575e-02
      -6.5405721606678355e-03 -1.1402239686602502e-02
      8.8490649314700524e-03 -9.2616794046628780e-03
      -1.7120903663829651e-02 -2.1018342836688714e-02
      2.7658985462061587e-02 7.3445502407763607e-03
      -1.3504690079807835e-02 9.2522424735151255e-03
      1.2812109770559025e-02 5.8139235200734612e-03
      -1.1974580275923054e-03 2.1142269034894325e-02
      6.1035381883494293e-03 6.6072121610757512e-03
      2.6800973129173046e-02 3.2086883189350913e-02
      -1.3450339018057096e-02 -1.5663366561858714e-02
      9.2969997606836691e-03 -1.6988236747399077e-02
      -1.3288882636599584e-02 -2.1947624798864399e-03
      -1.3573696266317724e-02 -1.0593585085302906e-02
      2.3009388860251345e-02 -7.3819770262795546e-03
      -5.9673321062958832e-03 1.5223291244132825e-02
      6.4614438573460508e-03 1.1195332563394049e-02
      1.3123978047474828e-02 5.0264413459985276e-04
      3.4124037425303701e-03 -5.7094317047567183e-03
      6.1032390964346180e-03 -1.3973563542434562e-02
      2.1505083650583574e-02 -2.3893231644521683e-02
      -3.8836395374649869e-03 -9.8412907808762343e-03
      9.3782598064362315e-04 -2.5797822356375153e-02
      2.0966278029831632e-02 1.2806260302723657e-02
      -8.1951523880021138e-03 3.8318818808303705e-03
      -2.4159808416063695e-02 -1.7242367283930308e-02
      -1.6588403213630643e-02 1.8736841711538575e-02
      6.2349709097247220e-03 -5.4133165281449692e-03
      -2.2135152438147797e-03 -1.0761121948420226e-02
      -2.5240027057041689e-02 2.9916905190788262e-04
      -2.6096001815219773e-03 -1.7289714582595574e-02
      3.1590164910828125e-02 -6.7150995133157393e-03
      1.4336948169295463e-02 -5.3554715908888280e-03
      5.2994153755440629e-03 -1.0450890402252091e-03
      1.1537875596705613e-02 -6.5200804877061863e-03
      -1.8885263025606586e-02 8.3011040481871592e-03
      -2.9717618520578265e-03 8.0429534749698935e-03
      1.9646844843943679e-02 -1.8925150605364125e-02
      3.6452702092569307e-03 2.2541182092013560e-02
      -1.0964825617443818e-02 7.3948002084794863e-03
      1.0666109087758162e-02 3.8181532759601908e-03
      -2.0103141758766613e-02 -1.3257860456761719e-02
      -2.0590426223442477e-04 -1.6608949398118762e-02
      1.7484190593847482e-02 1.5166553211920673e-02
      -4.4705988855617343e-03 -5.0590572998167223e-03
      -4.1893571635883689e-03 -1.3627071777740517e-02
      -1.2310909118595214e-02 8.7239193058090501e-03
      -1.3992251768769684e-02 -2.7346877169793300e-02
      2.1445162270822542e-02 1.7547316331025097e-02
      -1.6405599287536765e-02 -3.0009556577847426e-04
      1.9856923498836263e-02 -5.9378053513413397e-03
      1.3029174869059178e-02 1.8795838645712274e-02
      -6.7741870650669380e-03 -2.4122270009767988e-03
      1.3774439256874429e-02 2.2610478289363668e-02
      5.6444758289861969e-03 -2.6736148230636653e-02
      -5.9973405366916068e-04 2.3793567208828748e-02
      -2.4786742848988713e-02 -1.4377272055352013e-02
      -3.1077034833272021e-02 8.8147975408298142e-03
      1.8948328537120203e-03 6.3996848844210703e-03
      -1.3190199681478079e-02 1.1820337004933559e-03
      8.6688723373340732e-03 4.4291964319166420e-03
      -1.6167558153292041e-02 9.2911521738821383e-03
      -6.3687281562173461e-03 -9.9972932484712236e-03
      -2.3459227035033219e-03 3.4976155036984313e-02
      -2.0746902248519088e-02 2.7946384644419012e-02
      -1.2711586513973940e-02 4.4153030167267803e-03
      1.2525499461637760e-02 2.7996326233752406e-03
      -2.1311232904812214e-02 -4.8264549009485137e-03
      3.7635284853690720e-02 7.9138836434993007e-04
      7.4604385456505224e-04 5.0474975730513561e-03
      7.9723829153492964e-03 -2.9316855502361443e-04
      3.4458993301133838e-03 3.2190950327167948e-02
      -3.3383088458749342e-03 3.8149275241632008e-03
      1.1628448666687670e-02 1.1204188758499090e-02
      2.4662010390515143e-02 -2.5275806009460541e-02
      -7.4537957628702488e-03 5.4047955754727281e-03
      -7.2464097288164825e-03 -1.3472438034728319e-02
      6.0836016238054683e-03 1.0720368234484743e-02
      3.0204718849030407e-02 -5.9097314660810805e-03
      -2.5659614767660341e-03 1.5326556288897358e-03
      -8.3654052824511278e-03 -1.1491747510089910e-02
      1.6450156785997947e-03 -2.0069052470209677e-03
      1.8293571383564456e-02 1.9467385669416821e-02
      4.9486337293098044e-03 -9.1456020633233336e-03
      2.1852518369972103e-02 9.3542347672092869e-03
      -1.4694223575103355e-02 1.9255346900514329e-02
      -1.7416094813424961e-03 -1.3957198979262444e-02
      4.9432205386844771e-03 2.4940615332586262e-04
      -3.8133186447175497e-02 1.4721214134001959e-02
      -1.8323654346407005e-02 -3.4960720451405573e-02
      -5.6853908151221107e-03 -1.7022508791813433e-02
      -8.9881287157741164e-05 -3.2076170716939518e-03
      -4.3986300898911975e-03 1.3768914141900209e-02
      -1.5630737429768986e-02 3.9385377548895022e-03
      4.4578265288864058e-03 -3.2724417056084983e-02
      -1.1043885365437786e-02 -2.3473770845070588e-03
      2.9041953280470267e-02 -3.1701414937800980e-02
      -7.7244512653305347e-03 7.4737264625373973e-03
      2.1730273816814296e-03 4.4053456088940105e-03
      -3.8418812639463812e-02 -7.9298868805862469e-03
      8.0806687881227555e-03 1.4367022047477081e-02
      2.2641315094156802e-03 -1.8295194129275699e-02
      2.3695483060101146e-02 2.9445963412057394e-02
      2.3085185755387500e-02 -1.3128266351504719e-03
      -2.1647334417593981e-02 3.6540295032921749e-03
      3.2737787551569337e-03 -4.7751257018840950e-03
      -1.0841252009810830e-02 1.5023468614479637e-02
      2.1648156697267940e-02 2.3560808604003261e-03
      1.4359418459382670e-02 -1.0971701179850381e-02
      6.2892997428937682e-06 2.0603579813782993e-02
      2.2268747476809313e-02 2.5317401211263830e-03
      2.5215340898326801e-03 -1.8681805256887146e-02
      1.9375021288542196e-02 2.6511251085954545e-03
      1.1472725496373863e-02 1.2159786532098125e-02
      1.6620575343516471e-02 3.9978266667094205e-02
      -2.2718248649518841e-02 8.3460748060940721e-04
      -2.0368012643133544e-02 -1.0805819655417871e-02
      9.1442619957015792e-03 6.7817205780421790e-03
      1.3574485329249578e-02 -7.0308296286825875e-03
      -1.4799093309518323e-04 9.3725331419036439e-03
      -3.3885765148381895e-02 1.2396812186559358e-02
      -2.0217337700039830e-02 -9.4417291953985557e-04
      6.2462702794200526e-04 8.8375104036751383e-03
      1.9463504398749158e-02 -1.2342468862200846e-03
      -1.5671949628555107e-03 1.9069933396008640e-02
      -2.2100662123353317e-02 1.3148044507034586e-02
      2.1918232511329277e-02 -2.9860821300888220e-02
      2.5118644516562753e-02 2.8180287785466985e-02
      -2.6140405748976116e-02 1.1338829741012640e-02
      -1.0006271943959160e-02 -1.0088425662529727e-02
      2.8627141413893379e-03 -2.9487578071992916e-02
      -2.7259831961771102e-02 2.7815349513777298e-02
      2.4879411402683769e-02 9.4722339596803318e-03
      -6.2631125711815896e-04 8.2838844045516804e-03
      -7.6001324128610187e-03 2.4957990915410286e-03
      8.2844611809833064e-03 3.2998642433105442e-02
      -6.8829843483672187e-03 4.3375030889968788e-03
      2.0162611389111938e-03 7.0383447364685504e-03
      3.6276529549432113e-02 -3.2200520042453218e-02
      -1.0226586276164433e-02 -3.9765468053561005e-03
      7.1523204108773991e-03 -2.4415035727689376e-02
      1.1878856118340941e-02 8.9229603929671178e-03
      3.6100890257037950e-02 -2.4033191206532280e-03
      -1.6092411934575247e-03 -3.3118942686006098e-03
      -1.8657463735231774e-02 -9.5943372058091801e-03
      -7.8516444738643484e-03 8.1313988238044688e-03
      1.6989857671046497e-02 2.8145238628950187e-02
      -2.2583524646810466e-03 -4.6052484053222984e-03
      1.8526097881421514e-02 2.6046785913892027e-02
      -9.9497995464663379e-03 1.6746615061043104e-02
      4.2334621617810680e-03 -1.0602751191806273e-02
      -2.5000449187404884e-05 -7.3341235699567620e-03
      -4.2324744968997852e-02 6.8529292721326426e-03
      -1.4827156952971481e-02 -3.8708609192977687e-02
      4.7108094445770425e-03 -3.1701671297745967e-02
      -2.4939426800819470e-02 4.4164134995259841e-03
      -1.6617018892883834e-02 2.1473001201345428e-02
      -2.9480930949913754e-02 4.9394337985240403e-03
      3.6410613460679752e-03 -3.3590115248741489e-02
      -2.1288929347369090e-02 3.4900885568847741e-03
      3.3880372758265845e-02 -3.0107984052982519e-02
      -1.2426193561537594e-03 -4.2119314224542941e-03
      -4.3788880402661793e-03 2.2642781096172265e-03
      -3.2277849198197150e-02 1.2168448265731252e-03
      1.1110548027259639e-02 1.9781831709681015e-02
      -6.0055161982288498e-03 -9.3155022681427647e-03
      1.7877650094247178e-02 3.2986418353586414e-02
      2.0029878391229678e-02 9.6179477607857868e-03
      -3.1275334398798330e-02 -8.9320659464586522e-03
      6.9724286764399849e-03 -2.6252124029857780e-03
      -1.4501011378676525e-02 2.4277484441995810e-02
      1.7879510629330558e-02 2.3041081423912629e-03
      1.0453768141844467e-02 -1.0295537843457178e-02
      2.0380893131805417e-03 2.9873858457101700e-02
      2.1557165748141770e-02 -1.1346181424065639e-02
      1.5980227771524493e-02 -1.1215768573700474e-02
      1.6781566940831771e-02 8.5189296135720783e-03
      2.0605469682530762e-02 2.3339584938950969e-02
      2.2073778744796574e-02 5.2173572215551793e-02
      -1.5768537105913766e-02 -5.1719155455278512e-03
      -2.7887946608380055e-02 -1.4645796373375696e-02
      8.8163478896008743e-03 5.6180054954663083e-03
      1.4518421538931021e-02 -1.8261961460523640e-03
      -2.0481598519993386e-03 8.1166249064710538e-03
      -2.5636255502531586e-02 1.0845090582292412e-02
      -1.1865403832285957e-02 -5.0651522937916393e-03
      -2.7167307918096913e-03 1.1550436847912118e-02
      2.6501997763672711e-02 -8.7447357404847118e-03
      2.3877760666798373e-03 3.4685325896018165e-02
      -7.6815379789492962e-03 1.6102655585649259e-02
      2.5724337916554894e-02 -2.5478002573395001e-02
      2.8103805818632543e-02 2.2247933815995539e-02
      -3.9351960478991560e-02 9.1635475092749358e-03
      -1.4089710800339343e-02 -1.6275104880174199e-02
      -8.7068842571150727e-04 -3.4061854182177810e-02
      -3.4150226902517705e-02 3.2047417466681827e-02
      2.7926583317087167e-02 1.8317354236300118e-03
      -5.8330237805117660e-03 1.5750980921190587e-02
      -1.0925706531379933e-02 -2.5291985893231253e-03
      9.3253245886600455e-03 1.6998962583660834e-02
      -1.3755957422314051e-02 1.4765680331759588e-02
      3.7653731210579681e-03 -5.9182997461922991e-03
      9.9741420317677638e-03 -1.1356451771603089e-02
      1.0953734964872031e-02 -4.1057845027347040e-03
      5.8001302509118674e-03 -1.1001022483119167e-02
      1.6881231747238395e-03 -4.2470432651801702e-03
      2.3214352383145780e-02 4.7191107738641606e-03
      5.4569448983450902e-03 -7.8543988855946274e-03
      1.4550530087474616e-04 4.4543678003088781e-03
      -8.2626494706688359e-03 1.6104153038505067e-02
      1.2027238529536789e-02 5.2812313777275558e-04
      1.2304571057994262e-02 8.3052448881859343e-03
      3.9951786524159939e-03 1.0606822347840446e-02
      6.3183079064088087e-03 -7.5053093194703850e-03
      1.1280176079863801e-02 8.2509122877792648e-03
      5.8095968296349712e-03 7.4228397073881633e-03
      -3.2802514332652857e-03 -7.6203905948125390e-03
      -1.0301469952721219e-03 -1.2273017182914828e-02
      6.4167732863684183e-03 -1.0449160044462960e-02
      -2.3529044004112960e-03 1.3870386482164761e-02
      3.3400839053071307e-03 5.7218912452861766e-03
      -1.9253554308493306e-02 2.0810114928124703e-03
      -9.6822644696893927e-03 -4.3593780091673133e-03
      -9.2234075465190326e-03 -4.3402349514823791e-03
      2.4895713732691595e-02 -3.8608489159846094e-03
      -1.1376671859600546e-04 -1.0921959723496610e-02
      1.1681070188514387e-03 -6.1265019870807673e-03
      -3.0432685522742142e-02 -3.5053475075512530e-03
      -4.0820432062503046e-03 1.6618829842699530e-02
      -6.5526510343047331e-03 1.0574373080061501e-02
      9.5908093093692946e-03 1.5582786905073590e-02
      -6.2938796334794846e-03 9.1671727756935349e-03
      -5.2945728548030088e-03 -1.2333967518858962e-02
      -4.7825509277287534e-04 -1.5014041324157458e-02
      -1.2731494840037471e-02 -5.7690977426716151e-03
      8.7082106439495648e-03 -7.1852230387804078e-03
      5.5905835866976016e-03 4.2254541396611464e-03
      1.4189842270393034e-02 9.5997527423114151e-03
      6.2660648018754593e-03 -1.3823920159833454e-02
      3.6212560031475480e-03 -3.4127224670578941e-03
      1.3011098651674788e-02 -7.4202696198230427e-04
      6.6242589774823547e-03 5.3747652693846848e-03
      1.1095854204963840e-02 7.9207510136122608e-03
      1.0517744863449570e-02 1.8567079783798055e-03
      -1.6313716227170465e-02 -4.8569786855056409e-04
      -7.1647998115466687e-03 6.8658410896975273e-03
      1.0880967339669844e-02 7.8678332631430554e-03
      -6.1565143506889476e-03 -3.1146731051153627e-03
      6.2607977199795996e-03 -4.5926111034925096e-03
      -7.3922004283226541e-03 -3.2347837273680301e-03
      -9.4631907308850103e-03 2.2959864509504266e-03
      1.9467479626836856e-02 -1.1160548017993882e-02
      1.5316480959667386e-02 1.2912474665978524e-02
      7.0721793705513973e-03 -1.1857041241821449e-02
      1.9198561725241971e-03 4.4265799405411596e-03
      1.4271148870696094e-02 1.2023626104160599e-03
      -5.1457465329274926e-03 -8.0695802859258470e-03
      -1.0996133648869342e-02 -1.1625787488757937e-02
      7.8389474800490393e-03 -6.8586157271291739e-03
      -8.4945864226032494e-03 1.5818527333600847e-02
      3.4606665799669718e-03 -1.0515562168134414e-02
      1.5647153431272143e-03 5.8590361186223322e-03
      1.0108106941017539e-02 4.6544679969247752e-03
      1.3550059350788218e-02 1.8274580535822454e-02
      -5.5574427959233352e-03 1.3839310419418703e-02
      1.7191819720248899e-02 7.3400765829004027e-04
      6.7927135027460598e-03 -1.2289123689242336e-02
      2.6277243358823397e-02 -1.5050944496814544e-02
      -2.0483872830707132e-03 -6.6714712762852117e-03
      6.4412417949648139e-03 -3.7569434968494496e-03
      1.4805198824691782e-02 9.7441826973935566e-03
      1.0072237134029086e-02 3.7262497305854425e-03
      8.1095277297359436e-03 9.1809589078527508e-03
      -1.2638585682684642e-02 1.4906960338850186e-02
      3.9925937634819521e-03 -4.6218683311438749e-04
      1.2343374096872283e-02 9.7038117351276182e-03
      1.0866122747774482e-02 6.9930366631443834e-03
      1.6505527751305031e-02 -1.2283656680041007e-02
      4.9695228559286800e-03 7.3721707255907038e-03
      1.8801831669042198e-02 1.1714752063290720e-02
      1.2875916444320717e-02 -1.4592883631177379e-02
      -4.2155340095738104e-03 -4.5850853740835967e-04
      7.3959906401083392e-04 3.6195902991407549e-03
      3.4404962904963018e-03 2.0143487009198862e-02
      1.1180534149397821e-02 -6.3766462408861900e-03
      -1.6975742788319075e-02 -1.0224730849233117e-02
      -1.3427022755422005e-02 -2.0704937884267710e-03
      -1.4807013934753176e-04 2.2631977547486796e-03
      1.6680600797244795e-02 9.7713647320336935e-03
      3.6706952283331253e-03 -2.4401474255576379e-02
      5.9923872836197276e-03 -1.8086929216267165e-02
      -2.8591473540816727e-02 -1.8470984660970756e-03
      -1.3615325820918499e-02 5.0210780814574111e-03
      -1.2706501107905074e-02 4.7667472666988349e-03
      -6.3555016944949493e-04 9.5418368281443792e-03
      -2.3319953751354143e-02 9.9225941319302478e-03
      4.7991246038216568e-03 -1.4661110167182604e-03
      5.2511915150642140e-03 -2.2269600795530590e-02
      -5.6616878958604460e-03 -1.7306185379772618e-02
      1.2174342198328990e-02 -6.3619558247749348e-03
      7.2678756942522931e-04 4.0377008125097539e-03
      1.8442444958789578e-02 1.9382038572703364e-03
      -1.2490913964993675e-02 -1.1518890178010534e-02
      5.6109825239922728e-03 -2.3983391434455122e-03
      1.0587514843340322e-02 -1.3546951776384243e-02
      3.4194764969811700e-03 8.3942191107607596e-03
      2.0906883107645349e-02 -4.6541952891274883e-03
      1.8099861787309827e-02 1.0552445178301506e-02
      -1.1102542624906569e-02 7.8511642648609631e-04
      -3.2720822265133774e-03 1.7449890247527185e-02
      -2.0890606870316618e-03 -1.7529919120876074e-03
      -8.2883986642773317e-03 4.2415973440281028e-04
      1.0653606966620049e-02 -1.7034267785240604e-02
      -5.7151087720682843e-03 -1.3201778332591632e-02
      4.4435499615122183e-04 6.1809329723282501e-03
      1.7467378035627101e-02 -3.4208137211433338e-03
      2.1433206250972493e-02 -8.4821601777284039e-03
      7.0166046060574057e-03 -1.5446364683540449e-02
      -1.2619368117464247e-02 1.1262052853762281e-02
      6.2596728564195600e-04 -6.8635872979423990e-03
      -9.0285762789720607e-03 -7.7544971974999157e-03
      -5.5044226673984040e-03 -1.9996867634802453e-03
      1.8422348245892329e-02 8.2541049327843081e-03
      -6.9296860187518941e-03 7.1361609810458079e-03
      2.3847827175398776e-03 -2.8307725987678962e-02
      8.4873953580379986e-03 1.2079624957232088e-02
      1.0571247292616595e-02 -1.1573784878509703e-02
      -7.5240718878435628e-04 2.0167312566325164e-02
      3.6858632219783439e-03 5.3562948640345706e-03
      2.7310914524636396e-03 2.1836866963336967e-03
      -1.2229997561357276e-03 -2.3775425691813883e-02
      8.3096555964497359e-03 -4.9528892288751049e-03
      -1.0988462723807721e-04 -5.0517196502867668e-03
      2.0901620997926880e-04 -5.9283781095682982e-04
      1.3877586392315252e-02 9.7248517848959638e-03
      -4.7861471292969813e-03 -9.2148634367765925e-03
      6.3541567169820073e-03 2.8029355166000174e-03
      -1.5956970034038474e-02 1.1764604185360173e-02
      5.4501578020010946e-03 3.4213374975037339e-03
      -8.7799228549921698e-03 1.4974868141294595e-02
      -5.2914107370384674e-03 1.1271298263404785e-02
      1.3216587275381594e-02 -8.5797622796173444e-03
      -2.7758571393609109e-03 1.4508271188744143e-02
      2.1156188565172998e-02 4.3827704101100340e-04
      9.8318934944199802e-03 -1.2926680898649574e-02
      5.9310600702171751e-03 6.8260744700969741e-03
      1.1435737964897597e-02 1.8766688348773317e-03
      -2.5225432799437972e-03 1.2031179106093888e-02
      3.5787136154074176e-03 3.5020972365478855e-03
      -1.1678133099061681e-02 -5.4726794068881562e-03
      -3.0941034834118214e-03 3.1996030637943210e-03
      -5.2323847354754831e-03 -9.9877770499779018e-03
      1.1807140095476992e-02 2.6704028672227538e-03
      2.8511187119514060e-03 -1.8476164525415281e-02
      1.5156188774459756e-02 -9.3784298417003212e-03
      -1.4252796251079869e-02 -1.9824147056436031e-03
      -9.8857493719915271e-03 3.6161192109818788e-03
      -1.5829772392728647e-02 -9.5701368690209710e-04
      3.1046857436377012e-03 1.3472588473941066e-02
      -1.6145510619997180e-02 3.5627428213924231e-03
      -1.3607509729154248e-02 1.5160753909174709e-03
      2.9330918195236721e-03 -1.6354735146878262e-02
      -8.2125849809766057e-03 -8.8948582864591067e-03
      -3.5250617010134746e-03 2.5421670962608007e-03
      7.2079813161336163e-04 4.0650693214267144e-03
      6.2714852114764286e-03 7.1366321210016839e-03
      -1.2780330443001656e-02 -1.2195957234010566e-02
      -6.0711795940988408e-03 -3.0591425342873591e-03
      1.0072547484649219e-02 -1.2545082630220793e-02
      8.5615617317891853e-03 1.1239677766228784e-02
      1.0738501492860866e-02 6.3499297415414591e-03
      4.8459256703597929e-03 1.4669131845102119e-02
      -1.5605104722602061e-02 1.5098676399964579e-02
      -1.2086903588065620e-02 2.9315871095955148e-03
      1.1696843603779835e-02 6.8451519403631518e-03
      -5.0042195247895242e-03 -3.9603933364765233e-03
      1.4554964030613109e-02 -8.1164296414504098e-03
      4.7223379552385671e-03 -6.1834751241708645e-03
      -2.2937320673628104e-03 -7.2242346560938689e-03
      1.7804421630502758e-02 -6.2094818476539134e-03
      9.6021428218026669e-03 -6.0412816462764212e-03
      -1.0554528386173081e-03 -3.7343128066761187e-03
      -2.7110978634664611e-03 1.4418010672638799e-02
      4.5054627165457811e-03 -7.2003789318406640e-03
      -6.6971343933601756e-03 3.3649285575767806e-06
      -1.4336603521037290e-02 8.7098229707536655e-04
      5.7043373609639743e-03 3.9591746234690357e-04
      -9.1457111394728507e-03 4.6020073201813111e-03
      6.3607843149182906e-03 -1.9450848475207238e-02
      2.2146351371857562e-03 1.2708871237034635e-02
      2.0898295634154832e-03 -8.6830612313157588e-03
      4.3139890359122921e-03 3.6928894563526380e-03
      8.4233134180420645e-03 -3.8470191343404517e-03
      7.5392398402038211e-03 3.1016503285444313e-03
      -1.3626119332130888e-02 -1.3774853770610225e-02
      1.5072927593029362e-02 -1.1744792211702829e-02
      1.6742131542023416e-03 3.6681400288813260e-03
      -3.2985208138121992e-03 -8.7354320216925328e-03
      -5.7041800831277142e-04 3.0235947566436502e-03
      -2.5383305833141978e-03 -5.7629181433882064e-03
      2.9686896717251374e-03 8.6095081014333844e-03
      -1.9875484717431533e-02 1.1156852893857641e-02
      -1.9028949821143077e-03 -4.9311264799989122e-03
      -8.1014470535775134e-03 1.8798479295811538e-02
      -1.1331958465118390e-02 3.2069976908932880e-03
      2.5406381002441612e-02 -1.3277392672394190e-02
      1.0027439516091755e-03 1.3615679466718406e-02
      3.1187152913559744e-02 -4.3683568600450337e-04
      1.3037608829558478e-02 -1.1079454997944530e-02
      1.0250951357461695e-02 2.4679723817866737e-02
      6.9944015741704672e-03 1.3859295951597435e-02
      -1.8813822644364895e-04 7.2282142853487778e-03
      9.4480568071505337e-03 9.7751463110719375e-03
      -1.1929082847253754e-02 -8.8675531358749799e-03
      6.5153519052020816e-03 1.2613128278672817e-02
      -5.2736560080169942e-04 -1.1223084783583208e-02
      8.0910302228584651e-03 6.9385154490029556e-03
      -4.3824573124770835e-03 -1.0146189877064610e-02
      2.0813356982460084e-02 -6.3598657071358847e-03
      -1.1782233382460119e-02 7.4154597321576905e-03
      -1.5077888040064255e-02 3.1502788304960017e-03
      -1.2905201592238142e-02 8.1858897635612906e-04
      -1.1664080127854809e-02 -5.9944352307767933e-04
      -1.0079324167134304e-02 1.2469631612563000e-03
      -3.8009086756640628e-04 2.7931477439424820e-03
      7.1382891403663990e-03 -1.6329139609299149e-02
      2.9865815885552591e-03 -1.5888948114606741e-02
      -1.4387568827790565e-02 8.2527032510200469e-03
      -8.6780902784899042e-03 -2.7917434210381639e-04
      -3.0123916535833488e-05 2.3542952387375980e-03
      -2.2849552946267358e-02 1.5902128878108514e-04
      -1.0244830877365210e-02 1.5742732445705940e-03
      8.5132277734357026e-03 -8.1948814269487118e-03
      6.7291380493423323e-03 8.4237068671801189e-03
      1.6927965466726411e-02 -1.4053056725125603e-02
      1.2464309407868570e-02 2.7552639694934385e-02
      -6.1504200930905823e-03 1.8421829739939274e-02
      -1.0935811589130340e-02 1.5601809975168068e-03
      7.0807267531163209e-03 -1.0465206905629955e-03
      -6.0431413845027085e-03 4.4139331213422957e-03
      1.8983564117197389e-02 -7.4047788406966849e-03
      7.8683317887547673e-03 -8.4006534722285454e-03
      2.2423241461390336e-03 -4.2567527435567881e-03
      8.8839351882533564e-03 -9.2201354880879997e-03
      2.7138345204472951e-03 -1.1732304088713841e-02
      7.1984306468334024e-03 -7.5130291376304462e-03
      1.6022319342585641e-04 1.9953032550308544e-02
      -9.4446508566478609e-03 -1.0181982323307887e-02
      3.9447882274048583e-03 8.0117731398265061e-03
      -8.8819926121191644e-03 4.2412521614961585e-03
      9.8056467890927038e-03 1.6334953074098969e-02
      -6.6799423041911752e-03 1.6129844330717348e-03
      -2.9462472430834994e-03 -9.8233794267859626e-03
      -1.6964559129038035e-03 9.6785752821767490e-03
      -7.8565330974889620e-03 -1.5497553015912946e-03
      -1.0873461869795211e-02 9.2524297401317575e-03
      4.0418258543076010e-03 5.4880631806236398e-03
      8.6380103561408232e-03 7.6109574106511492e-03
      -2.1822052860091687e-02 -8.8271832560165332e-03
      4.7658941440840569e-03 -8.7050978853586364e-05
      7.4062727195053097e-03 1.0023209286410380e-02
      -1.3815161315913560e-02 -6.9775235917785526e-03
      -3.9367816150112124e-03 5.1361567278978663e-03
      3.8056299556530113e-04 -5.3841746443270338e-03
      1.1504401242953021e-02 4.8026302619081276e-03
      -1.9083149535499316e-02 -2.6131995812759645e-03
      -1.6468569099782077e-03 8.6708571278818131e-04
      -1.0129726160134345e-02 1.7909340279262650e-02
      -1.8388274937345746e-02 2.1915062866632831e-03
      1.0396301017161396e-02 -1.6576912776127186e-02
      7.7883067003505250e-04 1.4194150940090701e-02
      2.3869011816283703e-02 -5.5364369536486692e-03
      6.3444835682980108e-03 -7.3475897647827422e-03
      -7.1817737746512474e-05 1.4063805282597368e-02
      -3.0805956545726112e-05 1.1213184180539692e-02
      -4.5244217754567158e-04 1.4574372398553194e-04
      1.9724545274711395e-03 3.8615748404498881e-03
      -6.8589929002289707e-03 -3.1603783115489704e-03
      5.3399378362259473e-03 8.4005553128172535e-03
      1.3916538322762765e-02 -5.3264801324068196e-03
      8.0220015485113760e-03 2.4458403037273205e-03
      -4.5928067211115651e-03 -1.0606054502721384e-02
      8.8821802294875296e-03 -4.1402125780670204e-03
      -5.8496260656871902e-03 2.7348089254312538e-03
      -7.8206328070011735e-03 5.2003415615137572e-03
      -1.6626922587209346e-02 -3.7154076474311200e-03
      -5.6863701037542565e-03 1.0938984002903071e-02
      -1.1234092588465456e-02 4.9565970600221826e-03
      8.4500396466997496e-04 4.5073626714320662e-03
      -3.6482117082555663e-03 -9.2561316201847064e-03
      -6.0242210424375957e-03 -1.6514129477992204e-02
      -1.1062563779092014e-02 5.6024818367965802e-03
      -9.1194912058186507e-03 1.0706131272166840e-03
      -1.8601407794290104e-03 -6.5345073760594819e-04
      -2.1952064462646314e-02 -4.1545408298818915e-03
      -9.6104777780506318e-03 -5.9011382045692949e-03
      4.0060638405867797e-03 -1.9697118203262269e-03
      1.1705091925519608e-03 1.5220667826575825e-03
      1.3659731939810479e-02 -9.3833424108740911e-03
      4.8097994197433846e-04 1.8666851661194566e-02
      6.2678889913676608e-03 2.4808777148794810e-02
      -5.0360571360794316e-03 3.8546782312362591e-03
      -6.4575256543629325e-04 4.7660020300306994e-03
      1.1992599844693818e-05 6.5779531094151480e-03
      1.9823502442625762e-02 -4.3056950410122023e-03
      8.3592512820734825e-03 6.9575354267151571e-03
      -5.5381764510744587e-03 -5.3804932817212315e-03
      3.8174298675636466e-03 -1.0773297723677151e-02
      -4.6923451043958475e-03 -6.1122682847684403e-03
      4.4485110145532565e-04 -3.5549745004143861e-04
      -2.1655851083223466e-03 1.0408105438627456e-02
      -1.1720059651608663e-02 -5.2324936165246555e-03
      4.2721429700975146e-04 9.4303435144275031e-03
      -1.3854435088437089e-02 7.1234205521040440e-03
      -3.2747848661304328e-03 9.2521918724499889e-03
      -7.4200752052449781e-03 -6.6464323893567620e-03
      5.2319825885242116e-03 -3.4972782506222746e-03
      -9.5288921637141106e-03 3.8990740358696052e-03
      -9.2164118942495259e-03 7.3659003445745574e-04
      -1.2418578610902696e-02 2.8470939508945018e-03
      7.9893450450347521e-03 -8.6631080780700772e-04
      -1.9016060893728335e-03 3.3739268448284075e-03
      -2.8354037954648841e-02 -2.3964757022041521e-02
      -4.9792485476293467e-03 -1.5943535957203758e-03
      3.3583813863104746e-03 7.1648270910354079e-03
      -1.7879238414034590e-02 -7.8561162534472803e-03
      -8.8605441009323633e-04 1.0847382114341736e-03
      -3.6148905111089472e-03 -3.4517544721911408e-03
      1.1985389746794835e-02 4.5934039282883119e-03
      -2.3096452500448002e-02 4.5122188966571428e-03
      -2.1360425526071405e-03 2.0012340201990362e-03
      -2.2853472589937807e-02 2.3063658693064495e-02
      -2.8433778780673248e-02 -1.1851525707098621e-02
      1.3324378917477000e-02 -1.3113057477205672e-02
      -1.9792270514307264e-02 1.7103248257470068e-02
      3.3787109066389952e-02 2.3711630143069947e-03
      6.8578836123240026e-03 -2.1893535350055141e-03
      6.3102405704264621e-03 2.7086589477554223e-02
      -6.7716005622969868e-03 2.2858641040029107e-02
      5.4491796838522998e-04 1.0551618950506386e-02
      -9.2972902896709339e-04 3.5331778808134900e-03
      -9.2561486275915001e-03 -1.1427093106660185e-02
      2.7493327163136422e-02 8.9053165895762541e-03
      1.5423855317754061e-02 -1.0273686811680897e-02
      6.2708964157650606e-04 1.2932491983825964e-02
      -1.1171031371229885e-02 -5.9573889140387614e-03
      2.1843522034488756e-02 9.2005488502755802e-03
      3.0657840465721903e-03 -3.9572567321560729e-03
      -1.3343856380272493e-02 5.6247166139198248e-03
      -1.6562695490828453e-02 -8.5452925177141538e-04
      -5.7286328484493819e-03 5.6164416290949764e-03
      -1.7941073524332574e-03 -2.0381096492577415e-03
      -6.4636302895628864e-03 7.1609438081798931e-03
      -6.9996009617921138e-03 -7.5902934608457900e-03
      -4.7505525449259975e-03 -1.2791750035052944e-02
      -2.4684275272392208e-02 2.6268873577046100e-02
      -1.4360422356254324e-02 -1.6806017363494196e-02
      -8.7734521227834719e-03 3.2673250817431758e-03
      -2.5442675885745829e-02 1.7191087039311922e-03
      -1.5456909943895945e-02 -4.4217234551595028e-03
      1.0202444416191428e-02 -4.0880966431229198e-03
      6.1766963377876518e-03 4.1109561523192161e-03
      9.6669178400103622e-03 -1.4823244537973550e-02
      1.4610657755661572e-04 3.1720725020534600e-02
      6.4277515579840849e-03 2.8751943494046705e-02
      -8.9040969119376402e-03 -6.5933272466688559e-03
      1.4818068277079431e-02 7.5707415827452641e-03
      1.0067587641209644e-02 6.7845667138886363e-03
      2.3251337499688513e-02 -1.2255654490741094e-03
      1.1868875732806688e-02 2.4398759832053563e-03
      -1.1093754510442571e-02 -2.1754941613533477e-02
      1.2487495209267733e-02 -6.2461336901347905e-03
      -6.5359843059001627e-03 -1.7070197964937178e-02
      2.8529633240380538e-03 4.3443426917117508e-04
      -4.0419107212773826e-03 1.3097631626076189e-02
      -1.5467733163495934e-03 -9.8162325800301761e-03
      1.2946254120906467e-03 1.7379530607875008e-02
      -2.3225272829845173e-02 1.4157779195286392e-02
      -3.9562659864560224e-03 1.0953621230897225e-02
      9.6297563664188464e-04 -1.1288417738867140e-02
      5.7470504219291312e-04 1.2118016393938258e-02
      -1.5250492797592507e-02 2.2213153049672812e-03
      -1.6528227748064294e-02 7.9176200370973306e-03
      -4.6870198543386447e-03 1.1974577828567956e-02
      5.6182179869264173e-03 7.4289938117118575e-03
      1.2066399266680197e-02 8.6427172329279055e-03
      -1.2288560588476081e-02 -2.6186127125269736e-02
      1.5724248440447885e-03 -7.1657850300608080e-03
      -3.6433052509854489e-04 1.8833908269189900e-04
      -1.2753394625366218e-02 -1.0243758830887751e-02
      2.1466742544750183e-02 6.2818984197992112e-03
      -2.2569451266655069e-03 -1.9484728625864269e-03
      1.2166397358203110e-02 8.4515359008146967e-03
      -8.2618056862258163e-03 1.9918461578051776e-03
      3.8602313313240936e-03 8.3166567267818070e-03
      8.7512070870588549e-04 1.5532317048567673e-02
      -1.0728152737416553e-02 -7.2480389390537601e-03
      1.4364173951414205e-02 -6.4505820215562965e-03
      -1.1417844142834116e-02 6.3844785895541744e-03
      3.4255769434659120e-02 1.1342195361256220e-02
      3.6043605766642702e-03 4.8811191235870969e-03
      7.2303793707235000e-04 7.3645966403098314e-03
      -1.0279774408534588e-02 1.8422075451373025e-02
      8.0481499000873858e-03 8.3316352988069085e-03
      1.0340778685663750e-02 5.6144061789079719e-04
      -2.1896827944516344e-02 -4.1783004886751336e-03
      2.0754837585063843e-02 -8.1004168668379253e-03
      5.3966279870099288e-03 -1.2735286828564247e-02
      1.2165652241791338e-02 -3.7236203422518544e-03
      5.5951459619714308e-04 -1.6739126021457179e-03
      2.7510301752556220e-02 -4.1391080098741954e-04
      -1.5719449545221191e-02 -5.8806368758772898e-03
      -1.2372114461263278e-02 1.1534827470330555e-02
      -1.7667989303437492e-02 3.4850820159070986e-03
      -6.2119330268897745e-03 1.4460791833153613e-02
      -9.3963610302056858e-03 -2.0629770124349356e-03
      -2.9964643615393756e-03 1.1224793481449755e-02
      -1.3668227507303557e-03 -7.8259645642596090e-03
      -4.7987535722395754e-03 -1.7143352897986866e-02
      -1.5854252021057180e-02 1.6108257268783999e-02
      -7.0900937586353702e-03 -9.0184594858823391e-03
      1.6831257385348751e-03 -3.4214308560391272e-03
      -1.1736888526302738e-02 -9.5118767348247243e-03
      -2.3088732198057980e-02 -8.0517305287989803e-03
      1.5372041255547629e-02 -3.9048764962099566e-03
      4.0141789007305338e-03 7.6915556935446454e-03
      1.8926281092535115e-02 -9.3423989445911432e-03
      5.4282726705678925e-03 2.2291525077548245e-02
      2.6571362798315976e-03 2.0197269738697413e-02
      -8.7507156499097762e-03 7.3374426861004824e-03
      2.5180679812087433e-02 4.9925884913876182e-03
      1.3416294648419104e-03 4.4655751638657077e-03
      -2.4122405387937630e-03 -3.7563130088371158e-03
      -7.1145578477404643e-03 -5.1531946964303028e-04
      4.3415317518808144e-04 -1.1857658449761780e-02
      1.1098473832392274e-02 -5.8464444750088735e-03
      6.8947206758305617e-03 -1.5097429801068825e-02
      -3.1385952007987237e-03 -8.9060981019299327e-03
      -3.5744921571700594e-03 2.0461965995590514e-03
      -2.6882866112336867e-03 6.3780761608098428e-03
      -9.8540442345244894e-03 1.6549812795098595e-02
      -1.9773509351201198e-02 1.0025899407620758e-02
      -5.4055894021279123e-03 4.5850650363730618e-03
      -8.3365212119743386e-03 -2.6178311783191513e-03
      1.3196853358305442e-02 6.3525751644379538e-03
      -8.5586607641505962e-03 -2.8727449724155708e-04
      4.1392022478435505e-04 2.9861758777084703e-03
      1.0403360307012563e-02 -5.9154135876132129e-03
      -2.3538552781767721e-02 4.4345641002370923e-03
      6.4824313641504534e-04 -6.5337947771101287e-03
      1.8844215608783070e-02 -5.4676867943492611e-03
      1.4676247339586864e-02 -8.8457777110732220e-03
      -3.9130275545867978e-03 -1.2356338575758959e-02
      -3.1907810703548059e-03 1.5343250309721501e-02
      1.3078020686741711e-02 -1.1796981958166790e-02
      9.9688100390442399e-03 -5.0328883688102108e-03
      -2.0721424209136880e-02 5.5673023914049611e-03
      -1.1072014040374049e-02 4.4310090275061949e-03
      -4.8667636722087605e-03 1.0373070055126943e-02
      -1.1529430085928691e-03 1.1451457626944534e-02
      -4.0208057618427127e-03 -1.4051481434585278e-03
      -1.2744145956188264e-02 -2.7299451412437759e-03
      8.1668448842978757e-03 1.3487244057172474e-02
      -1.0508163183548996e-02 -7.0320643841858517e-03
      -2.1131523894045226e-03 -1.1944198471336447e-02
      -7.1861037248278307e-03 -9.9745482814788382e-03
      -1.9203528620085786e-02 -2.7302717932949614e-02
      -1.9846460654833205e-02 -7.0491148115513378e-03
      -1.4808783395404522e-02 2.7202292730943059e-02
      3.0108092132911861e-03 9.3200843267772105e-03
      6.7603950476811054e-03 3.4490728681662785e-03
      3.1259496923011186e-03 4.3636431330739382e-05
      6.5217590873388040e-03 4.9074311906044876e-04
      -1.1867357127063598e-02 4.2217204444093973e-03
      -2.1768915204894684e-02 1.5854163707672857e-03
      -1.5791168944820808e-03 2.1927080217781563e-03
      2.0121251205544012e-02 5.5167249688187073e-03
      1.4263866505584937e-02 -5.2890287162767752e-03
      -1.0151927148009955e-02 1.5448902430187691e-02
      1.2190271797169545e-02 2.0399908132706035e-02
      -1.7529608938228771e-03 -2.0689273343863522e-02
      -7.5893217360619722e-03 -7.7021804100261670e-03
      8.5671955638340017e-03 3.6328378491849384e-03
      4.5336244933601539e-03 8.7271958254888093e-03
      2.2143520793687040e-02 8.2749142285259512e-03
      -4.0284147095961840e-03 1.3426495494824412e-02
      1.8039734094647347e-02 5.4270403590627909e-03
      1.6246031666272115e-02 -4.7341051485988387e-03
      -4.3318717683231448e-03 7.3926792551996731e-03
      5.9401248083069055e-03 6.2762540659348906e-03
      -1.9198983612595529e-02 3.2573826880896189e-02
      2.7363295875158004e-03 -1.5388546669528717e-02
      -1.1550056566618824e-02 -2.0089819903239312e-02
      2.5135761095152012e-03 -1.0776996367284467e-02
      -2.3960341263255416e-03 -3.5376054359170768e-03
      8.4082648374854893e-03 -1.6953842721235803e-03
      -5.3134590149673429e-03 6.9121521573973967e-03
      1.9583255680368495e-02 -1.9884307625786398e-03
      -1.6056252301312298e-02 -6.3887583934332031e-03
