%YAML:1.0
---
opencv_ml_ann_mlp:
   format: 3
   layer_sizes: [ 392, 196, 196, 3 ]
   activation_function: SIGMOID_SYM
   f_param1: 1.
   f_param2: 1.
   min_val: -9.4999999999999996e-01
   max_val: 9.4999999999999996e-01
   min_val1: -9.7999999999999998e-01
   max_val1: 9.7999999999999998e-01
   training_params:
      train_method: BACKPROP
      dw_scale: 1.0000000000000000e-03
      moment_scale: 0.
      term_criteria:
         epsilon: 1.1920928955078125e-07
         iterations: 300
   input_scale:
      - 1.
      - -255.
      - 1.
      - -255.
      - 1.
      - -255.
      - 1.
      - -255.
      - 1.
      - -255.
      - 1.
      - -255.
      - 1.
      - -255.
      - 1.
      - -255.
      - 1.
      - -255.
      - 1.
      - -255.
      - 1.
      - -255.
      - 1.
      - -255.
      - 1.5959063386735883e-01
      - -4.0613688444124591e+01
      - 1.5959063386735883e-01
      - -4.0613688444124591e+01
      - 1.5959063386735883e-01
      - -4.0613688444124591e+01
      - 3.7107715902733492e-02
      - -9.3466914815805122e+00
      - 3.7107715902733492e-02
      - -9.3466914815805122e+00
      - 3.7107715902733492e-02
      - -9.3466914815805122e+00
      - 2.8786426486003207e-02
      - -7.1916169742432272e+00
      - 2.8786426486003207e-02
      - -7.1916169742432272e+00
      - 2.8786426486003207e-02
      - -7.1916169742432272e+00
      - 2.5337256220648134e-02
      - -6.2956325106651772e+00
      - 2.5337256220648134e-02
      - -6.2956325106651772e+00
      - 2.5337256220648134e-02
      - -6.2956325106651772e+00
      - 2.0040317854505513e-02
      - -4.8962504582127870e+00
      - 2.0040317854505513e-02
      - -4.8962504582127870e+00
      - 2.0040317854505513e-02
      - -4.8962504582127870e+00
      - 1.9583600378624780e-02
      - -4.7670400041648442e+00
      - 1.9583600378624780e-02
      - -4.7670400041648442e+00
      - 1.9583600378624780e-02
      - -4.7670400041648442e+00
      - 1.8686373772815602e-02
      - -4.5368024003893241e+00
      - 1.8686373772815602e-02
      - -4.5368024003893241e+00
      - 1.8686373772815602e-02
      - -4.5368024003893241e+00
      - 1.8473677482792893e-02
      - -4.4585604815471225e+00
      - 1.8473677482792893e-02
      - -4.4585604815471225e+00
      - 1.8473677482792893e-02
      - -4.4585604815471225e+00
      - 3.5609769786929896e-02
      - -8.9475481551292528e+00
      - 3.5609769786929896e-02
      - -8.9475481551292528e+00
      - 3.5609769786929896e-02
      - -8.9475481551292528e+00
      - 2.8577857692528241e-01
      - -7.2791613923895099e+01
      - 2.8577857692528241e-01
      - -7.2791613923895099e+01
      - 2.8577857692528241e-01
      - -7.2791613923895099e+01
      - 1.
      - -255.
      - 1.
      - -255.
      - 1.
      - -255.
      - 1.
      - -255.
      - 1.
      - -255.
      - 1.
      - -255.
      - 1.
      - -255.
      - 1.
      - -255.
      - 1.
      - -255.
      - 1.
      - -255.
      - 1.
      - -255.
      - 1.
      - -255.
      - 3.2606618510311873e-02
      - -8.1412205096546693e+00
      - 3.2606618510311873e-02
      - -8.1412205096546693e+00
      - 3.2606618510311873e-02
      - -8.1412205096546693e+00
      - 1.3513687631826332e-02
      - -3.0896794488898935e+00
      - 1.3513687631826332e-02
      - -3.0896794488898935e+00
      - 1.3513687631826332e-02
      - -3.0896794488898935e+00
      - 1.0816677908670472e-02
      - -2.3081348433381632e+00
      - 1.0816677908670472e-02
      - -2.3081348433381632e+00
      - 1.0816677908670472e-02
      - -2.3081348433381632e+00
      - 1.0087059652425245e-02
      - -2.0624002165348658e+00
      - 1.0087059652425245e-02
      - -2.0624002165348658e+00
      - 1.0087059652425245e-02
      - -2.0624002165348658e+00
      - 9.6721944396032638e-03
      - -1.9091622197851561e+00
      - 9.6721944396032638e-03
      - -1.9091622197851561e+00
      - 9.6721944396032638e-03
      - -1.9091622197851561e+00
      - 9.2507839613542482e-03
      - -1.7588823905188209e+00
      - 9.2507839613542482e-03
      - -1.7588823905188209e+00
      - 9.2507839613542482e-03
      - -1.7588823905188209e+00
      - 9.3907797901234200e-03
      - -1.7813683209878119e+00
      - 9.3907797901234200e-03
      - -1.7813683209878119e+00
      - 9.3907797901234200e-03
      - -1.7813683209878119e+00
      - 9.9700059547880998e-03
      - -2.0065633984606528e+00
      - 9.9700059547880998e-03
      - -2.0065633984606528e+00
      - 9.9700059547880998e-03
      - -2.0065633984606528e+00
      - 1.3727972279983435e-02
      - -3.1602707386673869e+00
      - 1.3727972279983435e-02
      - -3.1602707386673869e+00
      - 1.3727972279983435e-02
      - -3.1602707386673869e+00
      - 2.5979434208690571e-02
      - -6.4423800950710879e+00
      - 2.5979434208690571e-02
      - -6.4423800950710879e+00
      - 2.5979434208690571e-02
      - -6.4423800950710879e+00
      - 1.
      - -255.
      - 1.
      - -255.
      - 1.
      - -255.
      - 1.
      - -255.
      - 1.
      - -255.
      - 1.
      - -255.
      - 1.
      - -255.
      - 1.
      - -255.
      - 1.
      - -255.
      - 1.
      - -255.
      - 1.
      - -255.
      - 1.
      - -255.
      - 4.7540391357675044e-02
      - -1.2022331102471249e+01
      - 4.7540391357675044e-02
      - -1.2022331102471249e+01
      - 4.7540391357675044e-02
      - -1.2022331102471249e+01
      - 8.6677082218042587e-03
      - -1.4691765435958219e+00
      - 8.6677082218042587e-03
      - -1.4691765435958219e+00
      - 8.6677082218042587e-03
      - -1.4691765435958219e+00
      - 8.0604605331298339e-03
      - -1.1711849154637650e+00
      - 8.0604605331298339e-03
      - -1.1711849154637650e+00
      - 8.0604605331298339e-03
      - -1.1711849154637650e+00
      - 7.9849376334605298e-03
      - -1.0796168009614202e+00
      - 7.9849376334605298e-03
      - -1.0796168009614202e+00
      - 7.9849376334605298e-03
      - -1.0796168009614202e+00
      - 8.0380846962842274e-03
      - -1.0024027488579517e+00
      - 8.0380846962842274e-03
      - -1.0024027488579517e+00
      - 8.0380846962842274e-03
      - -1.0024027488579517e+00
      - 8.2190223093663358e-03
      - -9.0601022590248248e-01
      - 8.2190223093663358e-03
      - -9.0601022590248248e-01
      - 8.2190223093663358e-03
      - -9.0601022590248248e-01
      - 8.1594861548128297e-03
      - -8.9302856135708153e-01
      - 8.1594861548128297e-03
      - -8.9302856135708153e-01
      - 8.1594861548128297e-03
      - -8.9302856135708153e-01
      - 8.2671030027127029e-03
      - -1.1559614558593081e+00
      - 8.2671030027127029e-03
      - -1.1559614558593081e+00
      - 8.2671030027127029e-03
      - -1.1559614558593081e+00
      - 1.0786451707828380e-02
      - -2.2288404712276040e+00
      - 1.0786451707828380e-02
      - -2.2288404712276040e+00
      - 1.0786451707828380e-02
      - -2.2288404712276040e+00
      - 1.6100687309661056e-02
      - -3.8156482165588752e+00
      - 1.6100687309661056e-02
      - -3.8156482165588752e+00
      - 1.6100687309661056e-02
      - -3.8156482165588752e+00
      - 1.
      - -255.
      - 1.
      - -255.
      - 1.
      - -255.
      - 1.
      - -255.
      - 1.
      - -255.
      - 1.
      - -255.
      - 1.
      - -255.
      - 1.
      - -255.
      - 1.
      - -255.
      - 1.
      - -255.
      - 1.
      - -255.
      - 1.
      - -255.
      - 1.9436183822146767e-02
      - -4.6957820114306585e+00
      - 1.9436183822146767e-02
      - -4.6957820114306585e+00
      - 1.9436183822146767e-02
      - -4.6957820114306585e+00
      - 8.4713687959970859e-03
      - -1.4427305817502771e+00
      - 8.4713687959970859e-03
      - -1.4427305817502771e+00
      - 8.4713687959970859e-03
      - -1.4427305817502771e+00
      - 8.0623486446253778e-03
      - -1.0855683705033250e+00
      - 8.0623486446253778e-03
      - -1.0855683705033250e+00
      - 8.0623486446253778e-03
      - -1.0855683705033250e+00
      - 8.0338143941359307e-03
      - -1.0626594092936734e+00
      - 8.0338143941359307e-03
      - -1.0626594092936734e+00
      - 8.0338143941359307e-03
      - -1.0626594092936734e+00
      - 8.1084371431991552e-03
      - -9.4728168331614671e-01
      - 8.1084371431991552e-03
      - -9.4728168331614671e-01
      - 8.1084371431991552e-03
      - -9.4728168331614671e-01
      - 8.6056174988252219e-03
      - -7.7094858632808894e-01
      - 8.6056174988252219e-03
      - -7.7094858632808894e-01
      - 8.6056174988252219e-03
      - -7.7094858632808894e-01
      - 8.6868704845327605e-03
      - -6.9871394930591835e-01
      - 8.6868704845327605e-03
      - -6.9871394930591835e-01
      - 8.6868704845327605e-03
      - -6.9871394930591835e-01
      - 8.2553651877329496e-03
      - -9.8547046034364127e-01
      - 8.2553651877329496e-03
      - -9.8547046034364127e-01
      - 8.2553651877329496e-03
      - -9.8547046034364127e-01
      - 9.9801943508824528e-03
      - -2.0079485687685437e+00
      - 9.9801943508824528e-03
      - -2.0079485687685437e+00
      - 9.9801943508824528e-03
      - -2.0079485687685437e+00
      - 1.5541262638233206e-02
      - -3.6611070438973905e+00
      - 1.5541262638233206e-02
      - -3.6611070438973905e+00
      - 1.5541262638233206e-02
      - -3.6611070438973905e+00
      - 1.
      - -255.
      - 1.
      - -255.
      - 1.
      - -255.
      - 4.7263380029895524e-01
      - -1.2043969588418176e+02
      - 4.7263380029895524e-01
      - -1.2043969588418176e+02
      - 4.7263380029895524e-01
      - -1.2043969588418176e+02
      - 2.4308442693238747e-02
      - -6.0278455627847229e+00
      - 2.4308442693238747e-02
      - -6.0278455627847229e+00
      - 2.4308442693238747e-02
      - -6.0278455627847229e+00
      - 1.8188555842834141e-02
      - -4.3890197819148309e+00
      - 1.8188555842834141e-02
      - -4.3890197819148309e+00
      - 1.8188555842834141e-02
      - -4.3890197819148309e+00
      - 1.7657421577472760e-02
      - -4.2287170355170263e+00
      - 1.7657421577472760e-02
      - -4.2287170355170263e+00
      - 1.7657421577472760e-02
      - -4.2287170355170263e+00
      - 1.0626355451888758e-02
      - -2.2401774139975088e+00
      - 1.0626355451888758e-02
      - -2.2401774139975088e+00
      - 1.0626355451888758e-02
      - -2.2401774139975088e+00
      - 9.2648892912675588e-03
      - -1.7543376702658164e+00
      - 9.2648892912675588e-03
      - -1.7543376702658164e+00
      - 9.2648892912675588e-03
      - -1.7543376702658164e+00
      - 8.8821370346382697e-03
      - -1.6020414498142559e+00
      - 8.8821370346382697e-03
      - -1.6020414498142559e+00
      - 8.8821370346382697e-03
      - -1.6020414498142559e+00
      - 8.6302316840259890e-03
      - -1.4652982701918258e+00
      - 8.6302316840259890e-03
      - -1.4652982701918258e+00
      - 8.6302316840259890e-03
      - -1.4652982701918258e+00
      - 8.3352309849320898e-03
      - -1.3235791122006495e+00
      - 8.3352309849320898e-03
      - -1.3235791122006495e+00
      - 8.3352309849320898e-03
      - -1.3235791122006495e+00
      - 8.1057732238227903e-03
      - -1.1326467118088377e+00
      - 8.1057732238227903e-03
      - -1.1326467118088377e+00
      - 8.1057732238227903e-03
      - -1.1326467118088377e+00
      - 8.2366114827059946e-03
      - -1.1493367662967944e+00
      - 8.2366114827059946e-03
      - -1.1493367662967944e+00
      - 8.2366114827059946e-03
      - -1.1493367662967944e+00
      - 1.0631145577709642e-02
      - -2.2111365315559031e+00
      - 1.0631145577709642e-02
      - -2.2111365315559031e+00
      - 1.0631145577709642e-02
      - -2.2111365315559031e+00
      - 1.6613957989937672e-02
      - -3.9475871781291234e+00
      - 1.6613957989937672e-02
      - -3.9475871781291234e+00
      - 1.6613957989937672e-02
      - -3.9475871781291234e+00
      - 5.5105286133567390e-02
      - -1.3969924772007781e+01
      - 5.5105286133567390e-02
      - -1.3969924772007781e+01
      - 5.5105286133567390e-02
      - -1.3969924772007781e+01
      - 2.3133678698095711e-02
      - -5.6652836886389863e+00
      - 2.3133678698095711e-02
      - -5.6652836886389863e+00
      - 2.3133678698095711e-02
      - -5.6652836886389863e+00
      - 1.0075221985414072e-02
      - -2.0785182955909232e+00
      - 1.0075221985414072e-02
      - -2.0785182955909232e+00
      - 1.0075221985414072e-02
      - -2.0785182955909232e+00
      - 8.9014591519777815e-03
      - -1.6245162952359451e+00
      - 8.9014591519777815e-03
      - -1.6245162952359451e+00
      - 8.9014591519777815e-03
      - -1.6245162952359451e+00
      - 8.9372374420302533e-03
      - -1.6010762969482466e+00
      - 8.9372374420302533e-03
      - -1.6010762969482466e+00
      - 8.9372374420302533e-03
      - -1.6010762969482466e+00
      - 9.5347479957984590e-03
      - -1.8613735037397752e+00
      - 9.5347479957984590e-03
      - -1.8613735037397752e+00
      - 9.5347479957984590e-03
      - -1.8613735037397752e+00
      - 9.4381776443330373e-03
      - -1.8363547636657314e+00
      - 9.4381776443330373e-03
      - -1.8363547636657314e+00
      - 9.4381776443330373e-03
      - -1.8363547636657314e+00
      - 9.2227719336223386e-03
      - -1.7400911232896388e+00
      - 9.2227719336223386e-03
      - -1.7400911232896388e+00
      - 9.2227719336223386e-03
      - -1.7400911232896388e+00
      - 9.0823578523247048e-03
      - -1.7014283710021614e+00
      - 9.0823578523247048e-03
      - -1.7014283710021614e+00
      - 9.0823578523247048e-03
      - -1.7014283710021614e+00
      - 8.8460589091713150e-03
      - -1.6044981649454930e+00
      - 8.8460589091713150e-03
      - -1.6044981649454930e+00
      - 8.8460589091713150e-03
      - -1.6044981649454930e+00
      - 8.1451038576028107e-03
      - -1.1600799920921765e+00
      - 8.1451038576028107e-03
      - -1.1600799920921765e+00
      - 8.1451038576028107e-03
      - -1.1600799920921765e+00
      - 8.1398091283959185e-03
      - -9.6141998885193658e-01
      - 8.1398091283959185e-03
      - -9.6141998885193658e-01
      - 8.1398091283959185e-03
      - -9.6141998885193658e-01
      - 8.0349766377464747e-03
      - -1.1465911662064219e+00
      - 8.0349766377464747e-03
      - -1.1465911662064219e+00
      - 8.0349766377464747e-03
      - -1.1465911662064219e+00
      - 9.9122178888852545e-03
      - -1.9377725158244747e+00
      - 9.9122178888852545e-03
      - -1.9377725158244747e+00
      - 9.9122178888852545e-03
      - -1.9377725158244747e+00
      - 4.8933705912248250e-02
      - -1.2343037979305500e+01
      - 4.8933705912248250e-02
      - -1.2343037979305500e+01
      - 4.8933705912248250e-02
      - -1.2343037979305500e+01
      - 1.7311225284932018e-02
      - -4.1590795787892008e+00
      - 1.7311225284932018e-02
      - -4.1590795787892008e+00
      - 1.7311225284932018e-02
      - -4.1590795787892008e+00
      - 8.4535143380640495e-03
      - -1.3858691405822203e+00
      - 8.4535143380640495e-03
      - -1.3858691405822203e+00
      - 8.4535143380640495e-03
      - -1.3858691405822203e+00
      - 8.0359235145716981e-03
      - -1.0044904393214622e+00
      - 8.0359235145716981e-03
      - -1.0044904393214622e+00
      - 8.0359235145716981e-03
      - -1.0044904393214622e+00
      - 8.1949422387170914e-03
      - -1.0285745168555112e+00
      - 8.1949422387170914e-03
      - -1.0285745168555112e+00
      - 8.1949422387170914e-03
      - -1.0285745168555112e+00
      - 9.1242351034935137e-03
      - -1.6494792220095573e+00
      - 9.1242351034935137e-03
      - -1.6494792220095573e+00
      - 9.1242351034935137e-03
      - -1.6494792220095573e+00
      - 9.2957491293668218e-03
      - -1.8023218128625018e+00
      - 9.2957491293668218e-03
      - -1.8023218128625018e+00
      - 9.2957491293668218e-03
      - -1.8023218128625018e+00
      - 9.0709130665209865e-03
      - -1.7231711188701033e+00
      - 9.0709130665209865e-03
      - -1.7231711188701033e+00
      - 9.0709130665209865e-03
      - -1.7231711188701033e+00
      - 9.0244754385857568e-03
      - -1.6894419652728443e+00
      - 9.0244754385857568e-03
      - -1.6894419652728443e+00
      - 9.0244754385857568e-03
      - -1.6894419652728443e+00
      - 8.7611112689486240e-03
      - -1.5748973617062045e+00
      - 8.7611112689486240e-03
      - -1.5748973617062045e+00
      - 8.7611112689486240e-03
      - -1.5748973617062045e+00
      - 8.1614486925438226e-03
      - -1.1208933634339686e+00
      - 8.1614486925438226e-03
      - -1.1208933634339686e+00
      - 8.1614486925438226e-03
      - -1.1208933634339686e+00
      - 8.7113518188760702e-03
      - -7.6596012759437659e-01
      - 8.7113518188760702e-03
      - -7.6596012759437659e-01
      - 8.7113518188760702e-03
      - -7.6596012759437659e-01
      - 8.5040321293876862e-03
      - -8.0521845555795535e-01
      - 8.5040321293876862e-03
      - -8.0521845555795535e-01
      - 8.5040321293876862e-03
      - -8.0521845555795535e-01
      - 8.7330027640610923e-03
      - -1.4173663486071153e+00
      - 8.7330027640610923e-03
      - -1.4173663486071153e+00
      - 8.7330027640610923e-03
      - -1.4173663486071153e+00
      - 4.8190112971708637e-02
      - -1.2206555615733798e+01
      - 4.8190112971708637e-02
      - -1.2206555615733798e+01
      - 4.8190112971708637e-02
      - -1.2206555615733798e+01
      - 3.4173881479798281e-02
      - -8.5922251075274154e+00
      - 3.4173881479798281e-02
      - -8.5922251075274154e+00
      - 3.4173881479798281e-02
      - -8.5922251075274154e+00
      - 9.5666642615062376e-03
      - -1.8943908570634653e+00
      - 9.5666642615062376e-03
      - -1.8943908570634653e+00
      - 9.5666642615062376e-03
      - -1.8943908570634653e+00
      - 8.6484023162341824e-03
      - -1.4575440703626674e+00
      - 8.6484023162341824e-03
      - -1.4575440703626674e+00
      - 8.6484023162341824e-03
      - -1.4575440703626674e+00
      - 9.0904800370546542e-03
      - -1.6247717986229018e+00
      - 9.0904800370546542e-03
      - -1.6247717986229018e+00
      - 9.0904800370546542e-03
      - -1.6247717986229018e+00
      - 1.0210334772837120e-02
      - -2.0726979588859353e+00
      - 1.0210334772837120e-02
      - -2.0726979588859353e+00
      - 1.0210334772837120e-02
      - -2.0726979588859353e+00
      - 1.0344972736664310e-02
      - -2.1489956698297328e+00
      - 1.0344972736664310e-02
      - -2.1489956698297328e+00
      - 1.0344972736664310e-02
      - -2.1489956698297328e+00
      - 1.0381489752385349e-02
      - -2.1482070694952591e+00
      - 1.0381489752385349e-02
      - -2.1482070694952591e+00
      - 1.0381489752385349e-02
      - -2.1482070694952591e+00
      - 9.6072459060128641e-03
      - -1.9151724472106444e+00
      - 9.6072459060128641e-03
      - -1.9151724472106444e+00
      - 9.6072459060128641e-03
      - -1.9151724472106444e+00
      - 9.4722262296268716e-03
      - -1.8587665271271130e+00
      - 9.4722262296268716e-03
      - -1.8587665271271130e+00
      - 9.4722262296268716e-03
      - -1.8587665271271130e+00
      - 9.2054323848369916e-03
      - -1.7218454428091430e+00
      - 9.2054323848369916e-03
      - -1.7218454428091430e+00
      - 9.2054323848369916e-03
      - -1.7218454428091430e+00
      - 8.2595151768053796e-03
      - -1.1818264949318258e+00
      - 8.2595151768053796e-03
      - -1.1818264949318258e+00
      - 8.2595151768053796e-03
      - -1.1818264949318258e+00
      - 8.0983571322788724e-03
      - -1.0966795228532047e+00
      - 8.0983571322788724e-03
      - -1.0966795228532047e+00
      - 8.0983571322788724e-03
      - -1.0966795228532047e+00
      - 9.6991279316826357e-03
      - -1.8718670299618709e+00
      - 9.6991279316826357e-03
      - -1.8718670299618709e+00
      - 9.6991279316826357e-03
      - -1.8718670299618709e+00
      - 4.8190112971708637e-02
      - -1.2206555615733798e+01
      - 4.8190112971708637e-02
      - -1.2206555615733798e+01
      - 4.8190112971708637e-02
      - -1.2206555615733798e+01
      - 3.7213896889640927e-02
      - -9.3267949311277398e+00
      - 3.7213896889640927e-02
      - -9.3267949311277398e+00
      - 3.7213896889640927e-02
      - -9.3267949311277398e+00
      - 1.2077665462585135e-02
      - -2.6964595911767573e+00
      - 1.2077665462585135e-02
      - -2.6964595911767573e+00
      - 1.2077665462585135e-02
      - -2.6964595911767573e+00
      - 1.0695170962682334e-02
      - -2.2262354864522034e+00
      - 1.0695170962682334e-02
      - -2.2262354864522034e+00
      - 1.0695170962682334e-02
      - -2.2262354864522034e+00
      - 1.2276211814512553e-02
      - -2.7118151898258231e+00
      - 1.2276211814512553e-02
      - -2.7118151898258231e+00
      - 1.2276211814512553e-02
      - -2.7118151898258231e+00
      - 1.5318869338358028e-02
      - -3.5837984188110661e+00
      - 1.5318869338358028e-02
      - -3.5837984188110661e+00
      - 1.5318869338358028e-02
      - -3.5837984188110661e+00
      - 1.3380188228220111e-02
      - -3.0763728774323678e+00
      - 1.3380188228220111e-02
      - -3.0763728774323678e+00
      - 1.3380188228220111e-02
      - -3.0763728774323678e+00
      - 1.2816955202405736e-02
      - -2.9021004432967228e+00
      - 1.2816955202405736e-02
      - -2.9021004432967228e+00
      - 1.2816955202405736e-02
      - -2.9021004432967228e+00
      - 1.1815166835797999e-02
      - -2.6224156630948188e+00
      - 1.1815166835797999e-02
      - -2.6224156630948188e+00
      - 1.1815166835797999e-02
      - -2.6224156630948188e+00
      - 1.0746350520998083e-02
      - -2.3002205078512361e+00
      - 1.0746350520998083e-02
      - -2.3002205078512361e+00
      - 1.0746350520998083e-02
      - -2.3002205078512361e+00
      - 1.0100462685400583e-02
      - -2.0378693514064214e+00
      - 1.0100462685400583e-02
      - -2.0378693514064214e+00
      - 1.0100462685400583e-02
      - -2.0378693514064214e+00
      - 9.1220273876197865e-03
      - -1.6935347912695722e+00
      - 9.1220273876197865e-03
      - -1.6935347912695722e+00
      - 9.1220273876197865e-03
      - -1.6935347912695722e+00
      - 9.1467273066013332e-03
      - -1.6812294571353692e+00
      - 9.1467273066013332e-03
      - -1.6812294571353692e+00
      - 9.1467273066013332e-03
      - -1.6812294571353692e+00
      - 1.1547758151081500e-02
      - -2.5135620242187398e+00
      - 1.1547758151081500e-02
      - -2.5135620242187398e+00
      - 1.1547758151081500e-02
      - -2.5135620242187398e+00
      - 3.4190481983476212e-02
      - -8.6023252670426142e+00
      - 3.4190481983476212e-02
      - -8.6023252670426142e+00
      - 3.4190481983476212e-02
      - -8.6023252670426142e+00
      - 1.7087838788171984e-02
      - -4.0694118479405308e+00
      - 1.7087838788171984e-02
      - -4.0694118479405308e+00
      - 1.7087838788171984e-02
      - -4.0694118479405308e+00
      - 1.0151040085726856e-02
      - -2.0841438768008667e+00
      - 1.0151040085726856e-02
      - -2.0841438768008667e+00
      - 1.0151040085726856e-02
      - -2.0841438768008667e+00
      - 8.9980590382693383e-03
      - -1.6892956038446856e+00
      - 8.9980590382693383e-03
      - -1.6892956038446856e+00
      - 8.9980590382693383e-03
      - -1.6892956038446856e+00
      - 1.0059294707257291e-02
      - -2.0585340688931320e+00
      - 1.0059294707257291e-02
      - -2.0585340688931320e+00
   output_scale:
      - 5.2631578947368418e-01
      - 4.9999999999999994e-01
      - 5.2631578947368418e-01
      - 4.9999999999999994e-01
      - 5.2631578947368418e-01
      - 4.9999999999999994e-01
   inv_output_scale:
      - 1.8999999999999999e+00
      - -9.4999999999999996e-01
      - 1.8999999999999999e+00
      - -9.4999999999999996e-01
      - 1.8999999999999999e+00
      - -9.4999999999999996e-01
   weights:
      -
         - -4.8597736804388680e-03
         - 2.0437547751231003e-03
         - -2.2547829457479109e-03
         - -1.4278193231068534e-03
         - 4.5326107666384960e-03
         - 4.5595428802551160e-03
         - 3.2456598963869908e-04
         - -3.4648443027289551e-03
         - -4.3751698322289662e-03
         - -4.1191305369865450e-03
         - -1.2883275206093025e-03
         - 7.5980835201159321e-04
         - -2.0694165116597776e-03
         - -3.9871046073419901e-03
         - 3.2502122741246905e-03
         - -1.8031421716950807e-03
         - 2.7256002622508685e-03
         - -3.0854015254625127e-03
         - -1.1160527472444000e-04
         - 2.1300273711896975e-03
         - -4.6962180267216226e-03
         - 2.7245040640696758e-03
         - -4.0624227292900160e-03
         - -4.0529470987521890e-03
         - -3.1049935418203519e-03
         - -3.8086963707118604e-03
         - 1.3771175313310319e-03
         - -1.1182864418018297e-03
         - 4.1085465160546871e-03
         - 1.2646300438439438e-03
         - 2.0294398802555907e-03
         - -1.4936296535992097e-03
         - 1.8241893645443521e-03
         - -2.9366303380132714e-03
         - 4.3397563613621556e-03
         - -4.8955856218137984e-03
         - -1.6655887920198379e-03
         - 1.8605443792390171e-03
         - -9.0080755879584098e-04
         - 1.6475433110704140e-03
         - -3.0037808268513588e-03
         - -4.9211735374332724e-03
         - 3.4017522315850117e-03
         - -2.1753237263792118e-03
         - 4.9889843212599884e-03
         - -2.8289668434433087e-03
         - 4.0901709014734694e-03
         - 4.1952688359440628e-04
         - -3.8195958617353296e-03
         - 4.4784157966988279e-03
         - -2.7961737896945627e-03
         - -3.4628024964040729e-03
         - 4.4568063062257425e-03
         - -3.1036877215807053e-03
         - -1.4075199286154702e-03
         - -4.8682482986913810e-03
         - 3.5170186723217345e-03
         - -2.0908512319726819e-03
         - 3.8373823435610965e-03
         - 7.1010122596581169e-04
         - 2.9629434206164726e-03
         - 2.9982700874937444e-03
         - 2.1216892082950712e-03
         - -1.5534659934051412e-04
         - -2.2292981627728740e-03
         - 1.1335433267734461e-03
         - -4.7236556188553170e-03
         - -1.6888092868370475e-03
         - -3.1930891534462527e-03
         - 3.7915107312029607e-03
         - 1.6976461633508443e-03
         - -8.3953681086080330e-04
         - -4.7527176487088801e-03
         - 1.6374601291730300e-03
         - -1.6240599094197998e-03
         - -1.6612369555477648e-03
         - 6.0264331066184763e-04
         - -2.0265099834312919e-04
         - -1.1988532773408551e-03
         - -2.2673729435810325e-03
         - -2.5945113994446218e-03
         - 2.5570245091903789e-03
         - 3.7438846437258377e-03
         - 8.3899474908803934e-04
         - 4.2511186984683777e-03
         - -4.8688645257430182e-03
         - -1.1943039142214045e-04
         - -4.7420566896851438e-03
         - 3.2448416148731269e-03
         - -3.1833942330211284e-03
         - -2.9555255776586029e-03
         - 2.3405671939447006e-03
         - 8.5021777832225290e-04
         - 3.0076149014711582e-03
         - 1.7258868686869876e-03
         - 2.0623693126301658e-03
         - 1.9544977326468402e-03
         - 2.8118831115058552e-03
         - 1.3774810557383441e-04
         - -2.5112595241367584e-03
         - 4.4338364142113163e-03
         - 2.5312965282047362e-03
         - 7.8862050430930999e-04
         - 1.5520825022531895e-03
         - -4.6478536036477641e-03
         - 2.2227402438142890e-03
         - -1.5738675133836009e-03
         - -2.5366107001039088e-03
         - -3.2541393466441909e-03
         - 3.8474487326777512e-03
         - 1.6743047340407229e-03
         - -4.2378937579472271e-03
         - 4.7190241050328206e-03
         - -3.7674639079065147e-03
         - -1.2389015955758152e-03
         - 3.0783433314624151e-03
         - 2.1472204443250612e-03
         - -1.2783848863515191e-03
         - -2.7789601767627750e-03
         - 3.8892755837234482e-03
         - 5.0043750069052803e-03
         - -2.8432147586826511e-03
         - 4.2901164204128877e-03
         - 4.3667553384046610e-03
         - -1.3781427649605940e-03
         - -1.6871135474248343e-03
         - -1.7115302937882435e-03
         - 4.8756905568424682e-03
         - 4.6232638223527587e-03
         - -5.0282458657781642e-03
         - 4.7773699443973616e-03
         - -2.4192954810262094e-03
         - -2.6859636570607482e-03
         - 3.6014997179879037e-03
         - 3.2384936108631370e-04
         - -7.4043840611721738e-04
         - 4.0721146600810219e-03
         - -2.2326529174602188e-03
         - -1.2829939063440784e-03
         - -9.7368794605780370e-04
         - 9.1279613236726754e-04
         - 3.9932167387107089e-03
         - 3.0533867211355661e-03
         - -4.2221354415991272e-03
         - -5.0588460260833435e-03
         - -4.7629317641423100e-03
         - -3.5491270902225799e-04
         - -2.7200551194656855e-03
         - 2.0750947426147826e-03
         - -3.1163443013321772e-03
         - -4.9631980822820608e-03
         - 1.4877082468681177e-03
         - 4.9435964129112718e-03
         - 1.8960670363484470e-03
         - -3.8801446818699688e-03
         - -8.8816292678383941e-04
         - 1.9322475501233913e-03
         - -1.6890679143491392e-03
         - -1.8025378669283341e-03
         - -1.9115174282474505e-03
         - -4.4620300800026413e-03
         - -1.6648687308082146e-03
         - -8.7904165442694168e-04
         - 4.4728403740253086e-03
         - -4.0719764917530364e-03
         - -2.8924020649211072e-03
         - -2.6018426501342277e-03
         - 1.3110499007276803e-03
         - -5.4158018771178552e-04
         - -4.6144213127416456e-03
         - -1.9443662659076552e-03
         - 1.8579202475550490e-03
         - 1.8932767328249966e-05
         - 3.9092697100637985e-03
         - -3.9922569172767281e-03
         - 4.8027300581610110e-04
         - -6.6511655698105578e-04
         - -2.6176445429305803e-04
         - -2.5150577963203497e-03
         - -3.7884751748124110e-03
         - -2.5524194309515815e-03
         - 7.0765021662062019e-04
         - 2.0140236395167462e-03
         - 2.8404151433816418e-03
         - -2.5537733206565540e-04
         - -1.1729109881534184e-04
         - -4.5418007135589840e-03
         - 4.0235424871552612e-03
         - 1.2094418328149525e-03
         - 9.9723153024979579e-04
         - 2.5318686420106777e-03
         - -3.6138068045158426e-03
         - -3.9842570458409705e-03
         - -5.3205614356520220e-04
         - -1.6444736307365804e-03
         - 4.9505914918967575e-03
         - 1.0379136536021920e-03
         - -3.4666999685070720e-03
         - 1.3281526241723177e-04
         - -2.9315632986403977e-04
         - -6.5301540835891749e-04
         - -2.2936539667322842e-03
         - 3.8596383998596704e-03
         - -3.6270717617153132e-03
         - 1.5956753813261282e-03
         - -1.8256731368966812e-03
         - 4.5643516720900255e-03
         - -2.4314624841908833e-03
         - 4.9581715077427289e-03
         - 4.1420276664643372e-03
         - 1.8087566283118931e-03
         - 1.6496096017080432e-03
         - 2.1092861863420609e-03
         - -4.3330956640023413e-03
         - -8.5515567592646402e-04
         - -4.8162809350974492e-03
         - -2.4186026911354521e-04
         - 2.1593706440780481e-03
         - 5.4515826265337216e-04
         - 2.9643351930003703e-03
         - 4.4197969004256118e-03
         - 1.0667648466199887e-03
         - 7.0783802050751693e-04
         - -1.3279336771003731e-03
         - 3.9747556110466724e-03
         - -2.3488508655547315e-04
         - -3.9402756763286815e-03
         - -8.2309976186269521e-04
         - 3.7713298749556226e-03
         - -4.6714427035006610e-03
         - -1.7341612249956390e-03
         - -1.8105431627038371e-03
         - 3.4681011140477065e-03
         - -3.5147108579733339e-04
         - 2.0822074079328606e-03
         - -8.1991653762573979e-04
         - 3.2837092289361475e-03
         - 4.0292684351342202e-03
         - -4.4295230090454635e-03
         - 4.4171172371877962e-03
         - 4.7909510956947480e-03
         - 2.7762508681072719e-03
         - 1.8072569730586668e-03
         - -3.2215800996636609e-03
         - 4.8473609107349425e-03
         - -4.6903972093255905e-03
         - 2.6691721989852359e-03
         - -3.6199766136020650e-03
         - 1.9877184753375387e-03
         - -1.7019015850564775e-03
         - -4.1273746995126618e-03
         - -1.1505750775577031e-03
         - 3.1815230244264816e-03
         - 5.7485951386481349e-04
         - -9.2072873963245988e-04
         - -1.3948768259472357e-03
         - -1.3274749390038336e-03
         - -2.7090987449207332e-03
         - -1.4617387267405486e-03
         - -2.8740629237441811e-03
         - -3.2145695448451798e-03
         - 4.1259717153128974e-03
         - 1.1412864354916293e-03
         - -1.4882980895310222e-03
         - -3.5527350766163244e-03
         - -9.5567942803611325e-04
         - -3.7479402606681756e-04
         - -4.2764114212263454e-03
         - -4.3195294290877219e-03
         - -7.3975450104410640e-04
         - -2.6307052741256593e-03
         - -7.7469103152875258e-04
         - -9.2698143639192467e-04
         - -3.0136244717613829e-03
         - 2.6604299473295002e-03
         - 4.7974320161901342e-03
         - -4.2170740679964179e-03
         - -1.8582608498441751e-03
         - -4.5540571921745465e-03
         - 4.3456394578310044e-04
         - -1.0803567051782779e-03
         - 1.6817610244382623e-03
         - -2.1736347682634366e-03
         - -3.6075537286353538e-03
         - -2.7476289800849882e-03
         - 3.8289273115208423e-03
         - -8.4571188723977413e-04
         - -3.4881114606335251e-03
         - 1.1401793550863313e-03
         - -1.1304365316148462e-03
         - 3.8897552874734608e-03
         - 2.5401216211061754e-03
         - 4.0175714947599802e-04
         - 2.3941138906643706e-03
         - 3.2055640251687926e-03
         - 4.9363568604783642e-03
         - 1.9128406232507998e-03
         - -5.0140751850002311e-03
         - 7.6952675742922923e-04
         - -2.8373039920597969e-03
         - 2.3268992931799338e-03
         - -3.1702135289169960e-03
         - 2.6430706912133331e-03
         - -2.0343155584430944e-03
         - -3.0357186853381527e-03
         - 2.9318626735362124e-03
         - -5.0002744048557642e-03
         - 3.0870657882904459e-03
         - -5.1231832986555828e-03
         - -2.6919364240111710e-03
         - 3.4220821763024439e-03
         - -2.6604701775459786e-03
         - -1.5370865982057837e-03
         - 4.2029250048671116e-03
         - 7.9671092456333990e-04
         - 4.8881351583313828e-03
         - -3.4466355385851222e-03
         - 1.4782840115008967e-03
         - -3.6788186516381019e-04
         - 2.2603983898327037e-03
         - -4.8758708262306820e-03
         - 4.8163580247748148e-03
         - 2.1180344520384501e-03
         - 2.5499562063908089e-03
         - 2.2331374353467515e-04
         - -2.2281768921624582e-03
         - 3.4457871352194342e-03
         - -2.5472114117893480e-03
         - -4.0721795831482107e-03
         - 1.1179173420078532e-03
         - 4.1240458822287959e-03
         - 3.2803754553750791e-03
         - -5.2499396929517566e-04
         - 1.3648420101316286e-03
         - -2.2352279720508168e-03
         - 1.1807772946666152e-03
         - 7.7028151932167187e-04
         - -4.5015055265405146e-03
         - 3.3745097288896170e-03
         - 5.2239667798156366e-03
         - 2.3127741799676586e-04
         - 3.7541024563011384e-03
         - -2.7291426567360747e-03
         - -2.0170950803649933e-03
         - 2.0212279496986479e-03
         - 4.2194741916669947e-03
         - -2.1640379570981323e-03
         - 3.5652091467106841e-03
         - 3.2155759710604708e-03
         - -4.7625803656873439e-03
         - -2.6432433710810816e-03
         - 2.2526979655739282e-03
         - 2.2518509206272538e-03
         - 4.6162360485744250e-03
         - -3.2649752887630016e-03
         - 5.1675651001876956e-03
         - 1.3483930204134709e-03
         - 7.3448601044189888e-04
         - 5.0834674579839974e-03
         - -8.9864120898652876e-04
         - 1.5325287061309760e-03
         - 2.0199517573019081e-03
         - 2.6694720335347050e-03
         - -1.3501104582725239e-03
         - 3.8274725653540632e-03
         - 2.5878725860119136e-03
         - 3.3257981400231121e-03
         - 1.2795092245826067e-03
         - 9.1202655743863694e-04
         - 3.1153200006500516e-03
         - 3.5989724695559625e-03
         - -4.1399523049971436e-03
         - -4.0000677457749344e-03
         - -3.8782405081828576e-03
         - -3.2426557802209917e-03
         - 3.4356210293082028e-03
         - -4.5463865920855736e-04
         - 5.0032272129733896e-03
         - 9.7705316271466344e-04
         - -1.4487134628610231e-03
         - 4.9413360200185625e-04
         - 1.6047375737518886e-03
         - 4.6245512991622056e-03
         - -3.7690651521261492e-03
         - 2.7458322514640170e-04
         - 4.5633029045499436e-03
         - -3.8698708125788155e-03
         - -8.6216899372731773e-04
         - -5.2462301684082994e-04
         - -4.1399556819293002e-03
         - -4.6886827354785049e-03
         - 3.1866363861443635e-03
         - -2.5708362093381119e-03
         - 1.7618388293914355e-03
         - -3.4084802699210579e-03
         - -3.1307367325486917e-03
         - -3.6408844437612478e-03
         - -4.8348384168359609e-03
         - 4.0029663335851076e-03
         - -5.3125028786908288e-04
         - -5.0264612833747536e-03
         - 1.9923475234001124e-04
         - -3.2685702436747286e-03
         - -3.1763244323119625e-04
         - -2.5619974102796816e-03
         - 3.8581693674028814e-03
         - 7.5587831781532709e-04
         - -4.9159279742118662e-03
         - 1.6089593233365527e-03
         - -1.1881619774031689e-03
         - -2.2853150896380604e-03
         - 9.8095189035817248e-04
         - -1.4553548547817166e-03
         - -2.6551166026673660e-03
         - 2.7711673286027693e-03
         - -2.7598033666875301e-03
         - 4.4534131895672510e-04
         - 4.1765831043316173e-03
         - -5.0126733385064603e-03
         - -3.1447580502311119e-03
         - 4.8164207329713399e-03
         - -2.3436357826775787e-03
         - -2.2941743564700973e-03
         - 2.0931295979883390e-03
         - -1.8161229600293781e-03
         - -3.9064652938719663e-03
         - -2.0399472128227983e-03
         - 3.9625471773001263e-03
         - 4.7736661881987686e-04
         - 8.7102162769673111e-04
         - 9.5767883822616730e-06
         - -4.8102440406780278e-03
         - -2.7698655632474672e-03
         - -1.7442195266699450e-03
         - 3.7530565990699275e-04
         - 6.4151306719372185e-04
         - 1.6092421642302328e-03
         - -3.3886100907563428e-03
         - 1.6741423768191590e-03
         - 2.9597779655206997e-03
         - 1.0297667143790690e-03
         - -3.6829789730896292e-03
         - 2.0063452119862663e-03
         - 3.0807038185842145e-03
         - -4.5080035439267387e-03
         - 5.1778130130443753e-03
         - -2.6112370662057867e-03
         - 3.3473178706378034e-03
         - 2.3994347326817904e-03
         - -2.0295041525179359e-03
         - -2.9056292099372497e-03
         - -4.5111549772698413e-03
         - 4.9529809484960040e-03
         - 3.5466162168664517e-03
         - 2.8312646592747923e-03
         - -9.0168654622108514e-04
         - -3.7007696923094537e-03
         - -2.8744724149194663e-03
         - -1.2554690445874212e-03
         - 1.0712918824064041e-03
         - 2.5125462736295571e-05
         - -2.2486416286216907e-03
         - -3.1679904734726234e-03
         - 6.1786871933586240e-05
         - 2.4803042221381998e-03
         - 4.2588420105428770e-03
         - -4.2543307237921544e-03
         - -2.1171101864831730e-04
         - -8.1851319069050626e-05
         - 3.1311653748267634e-03
         - 2.5579840464287277e-03
         - 6.8763300729300972e-04
         - -4.1081537121269553e-03
         - 5.6515790407681075e-04
         - -1.8871022180237717e-03
         - 2.2087313747500867e-03
         - 1.7267053917978648e-03
         - 2.9176581011337854e-03
         - -3.7317954561750678e-03
         - -2.6932294157431670e-03
         - 5.6135869620039006e-04
         - -4.9359491732422472e-03
         - -6.9493982338500308e-04
         - -4.8434965969289551e-03
         - -4.5865849735001263e-03
         - -2.3963328240661033e-03
         - -2.3204685606374137e-03
         - -5.0517679906729104e-04
         - -4.8995747842647758e-03
         - 5.1602975653840403e-03
         - 2.5593114063925731e-03
         - 4.9624938802266634e-03
         - 2.9211959139288559e-03
         - -5.0041689441660455e-03
         - -4.6982275188378253e-03
         - -4.0798688599701675e-03
         - -4.8588873523853719e-03
         - 1.9444820354752020e-03
         - 4.3639953819319599e-03
         - -1.1054610718362287e-03
         - 3.9065051724870908e-03
         - 3.6559256824656226e-03
         - -3.6609993969341625e-03
         - 1.2441025459880609e-03
         - 1.3608628851794679e-03
         - 2.5833392298257651e-04
         - 2.6545744049303673e-03
         - -4.0307279440389716e-03
         - -4.7760649564907252e-03
         - -4.8424000241936950e-03
         - -4.1284039645579371e-03
         - -2.6272574878153602e-03
         - -2.4160142493010843e-03
         - 2.6939003343524862e-03
         - -4.4954041561028266e-03
         - 1.8543046945463850e-03
         - -4.0245332965961949e-03
         - 4.1482602145994415e-03
         - -1.3808198903742810e-03
         - 2.4454659578070459e-03
         - 2.6740507304742630e-03
         - 4.3969635050779797e-03
         - -4.6386759224185271e-03
         - -2.3554555708376721e-03
         - -3.9123384643782418e-04
         - -2.4301522329638358e-03
         - 3.0896393885427357e-03
         - 4.1665733373900029e-03
         - 1.1099487412798677e-03
         - 2.9410029494347238e-03
         - 1.4563688614996906e-03
         - 7.4112133852229035e-04
         - -4.1829006732607647e-03
         - 4.6272961634708214e-04
         - 2.9835031720185775e-03
         - -1.5535427290279311e-03
         - 3.5082584375012668e-03
         - -1.2804550736179364e-03
         - -3.9773891832121672e-03
         - -3.9372734768535148e-03
         - 3.0849093210796735e-03
         - -2.6955840901171941e-03
         - -8.1291317751973433e-04
         - -3.7703645109818380e-03
         - 4.9901194164180054e-03
         - 5.3427300571027940e-04
         - -2.1785696583524212e-03
         - -3.9339259320740937e-03
         - -2.7261246531576099e-03
         - 1.4433866729927579e-03
         - 2.4252211473287217e-03
         - 6.1222386067499889e-04
         - -3.4281798479866127e-03
         - -4.8326906967420423e-03
         - -4.3145768802073520e-03
         - 4.1739355460942386e-03
         - -2.5273756144872728e-03
         - -4.4321130432222925e-04
         - 4.8298489320065590e-03
         - 6.4615713385176893e-04
         - -4.0350878680058466e-03
         - -4.1194039308378689e-04
         - -4.6058566744483038e-03
         - -1.6883552758635678e-04
         - 1.1144483683845070e-03
         - 5.0189952353775161e-03
         - 4.7823796758203327e-03
         - -3.3989096225690105e-03
         - -3.6065354225756647e-03
         - 1.8055103058894002e-03
         - -2.6982872628419398e-03
         - 8.4875628963558645e-04
         - 4.1892467619766803e-03
         - 4.5218354247392413e-03
         - -1.1076114899072815e-03
         - 7.1657667517367534e-04
         - -3.8407111387128456e-03
         - 4.7891998405556364e-03
         - 1.1019934124282453e-03
         - 3.3785196044300797e-03
         - 2.1053250305637402e-03
         - 2.0760451312061110e-03
         - 2.6628755950895023e-03
         - 4.5676202383322347e-03
         - 1.9058710568565672e-03
         - -4.5492722865425978e-03
         - 2.3896993561455878e-03
         - -3.7759241336153310e-03
         - -4.9465576328428084e-03
         - -3.1484456081334331e-03
         - 1.0704884142668162e-04
         - 1.0424477116960289e-03
         - -3.8793326053721431e-03
         - 2.8526754376893343e-03
         - -2.6237817024051145e-03
         - 1.7407178856971176e-03
         - 3.3375144173592060e-03
         - 2.5716072308869698e-03
         - -6.2009250431354235e-04
         - -2.2684188691929940e-03
         - 1.7908185271743168e-03
         - 2.2133417715386079e-03
         - -4.7595533578658946e-03
         - 3.5894028176104453e-03
         - 1.9187600942974967e-03
         - -3.2955583849159386e-03
         - -2.0196426551789639e-03
         - 4.6118975136772156e-03
         - -2.7657847366935615e-03
         - 5.1864025463065943e-03
         - 9.3145776095734998e-04
         - 3.9099696118912739e-03
         - 3.8125620165453422e-03
         - -9.0682755949134011e-04
         - -1.6049648330689066e-03
         - 4.3729723221825055e-04
         - 1.9742971118859426e-03
         - 6.9407433136853128e-04
         - -4.0125294804884521e-04
         - 1.2676930973789177e-03
         - -9.5063916103292135e-04
         - -5.4477744971449435e-04
         - 4.7132229214646559e-04
         - -4.2836737362570024e-03
         - -4.4852551552489730e-03
         - -1.6459580014967407e-05
         - -4.7633962261919476e-03
         - 3.7203899087363671e-03
         - -2.6967109909112048e-03
         - 1.6030416027909132e-03
         - 2.9699071084412776e-03
         - -8.7083986576679971e-04
         - 4.0598207061633444e-03
         - 2.8527767410376488e-03
         - -4.1969217049108175e-04
         - 2.9425404175909800e-03
         - 2.7988333789501366e-03
         - 2.1261715565904374e-03
         - -5.0850069695089432e-03
         - 3.2443307695052353e-03
         - -5.6574367644014289e-04
         - -8.9646400180154700e-04
         - -2.9750814296689832e-03
         - 1.1620671597212182e-03
         - 1.2617631972899226e-03
         - 1.3578272595969572e-03
         - 1.8746153930919106e-03
         - -3.4478376952991490e-03
         - 1.9833611581325803e-03
         - -3.3276960797891317e-03
         - 2.4408120351814732e-04
         - 3.6941713198294446e-03
         - 2.1734036275649449e-03
         - 4.2966017872313762e-03
         - -4.2022259789782461e-03
         - -2.0649999090251595e-03
         - -4.3461804280117890e-03
         - -7.8657692971295122e-05
         - -4.0322675077240303e-03
         - -2.0184322503869019e-03
         - 5.8606369409923312e-04
         - 6.2751790962100630e-04
         - 4.1960592579229966e-03
         - 3.5683183322936809e-03
         - -2.3045189455724500e-03
         - 4.2133695076378335e-03
         - 1.5756991498719138e-03
         - -7.5361225836049009e-04
         - -7.7947844058244543e-04
         - 1.9506142655670508e-03
         - 3.9885769116650548e-03
         - 7.2243438110565614e-04
         - -7.6182116055525289e-04
         - 2.7873322320090990e-03
         - 2.9095299509139796e-03
         - -4.1860181516070894e-03
         - -4.7262355233166822e-03
         - 1.8835439675475335e-03
         - -1.9026844285480560e-03
         - 1.1455889476532563e-03
         - -2.4885725824675894e-03
         - 1.2810690493942677e-03
         - 4.4373323872363068e-03
         - 9.7069493778837465e-04
         - 3.3397596213575330e-03
         - -2.8809490823160019e-04
         - 6.0196842379541145e-04
         - -4.1393900273863152e-03
         - 4.5070083042272144e-03
         - 3.6915721891560816e-03
         - -4.3175870760009342e-03
         - 2.1058029269578945e-03
         - 2.8324583813674775e-03
         - -1.4249914546144999e-03
         - 5.3437151311192346e-04
         - -5.1122404580143917e-03
         - 3.4519482788309594e-03
         - 7.5574519147935258e-05
         - -3.3296893550097341e-03
         - 2.1508480373692829e-03
         - 9.3720653318794204e-04
         - -2.7387335924868952e-03
         - -4.0059674624000887e-03
         - 2.7137438381762912e-03
         - 4.1625471298147552e-03
         - -4.2694950916013488e-03
         - -4.4653665577210414e-03
         - -2.5972674623813358e-03
         - 3.4987686267241329e-03
         - -4.2307062305292622e-03
         - 2.5138290604818908e-04
         - 8.8571567808836218e-04
         - -1.3604326450149028e-03
         - -1.6055141780619434e-03
         - -3.1617921353722898e-03
         - -3.9021953204854336e-03
         - 4.7809856763071940e-03
         - -2.7681806984024174e-03
         - 4.5416669592919096e-03
         - 4.1486460807046467e-03
         - -2.8585626368748252e-04
         - -4.9146879158492524e-03
         - -5.3078342041547463e-04
         - -1.9032845740101284e-03
         - 5.6459752022924848e-04
         - 3.7650176516083240e-03
         - 4.7258191440411110e-04
         - -4.2774959274062153e-03
         - -1.6983473752193387e-03
         - 2.9404755040395832e-03
         - -4.7886462977150580e-03
         - 4.4090214769059691e-04
         - 1.1272958515077228e-03
         - -4.8381457735561162e-03
         - -9.4856751268322735e-04
         - -1.4659425399439808e-03
         - -4.6090770204487387e-03
         - 1.5776290638131630e-03
         - 1.4743250462914048e-03
         - -4.5988024129580704e-03
         - -4.4130005612154719e-03
         - -3.4326274668529289e-03
         - 2.6078492278500283e-04
         - 1.2761241114796105e-03
         - 1.9712065624558710e-03
         - 6.6379486239361821e-04
         - 2.9015006388081275e-03
         - 6.0415656152012197e-04
         - -2.5810152665493740e-03
         - 7.9213350058437906e-04
         - 2.7451952371532087e-03
         - -4.4745045016932961e-03
         - -1.3555990545975601e-03
         - 1.6471730817822976e-03
         - 4.9280697479993328e-03
         - 3.3764840847683927e-03
         - 2.6027770485847926e-03
         - 4.8340363189914720e-03
         - -1.4317437564769374e-03
         - -4.0015428351653911e-03
         - 9.7340937676107444e-04
         - 3.9013851330044259e-03
         - 5.2095725331696742e-03
         - -4.6171648992805910e-03
         - -2.0909781300545400e-04
         - -1.8643507277153331e-04
         - 1.3898360095395777e-03
         - 4.4062677463249083e-03
         - 3.4109102489687316e-03
         - -2.7256241730816261e-03
         - 1.3219500246220085e-03
         - -1.9197491633778914e-03
         - -4.3699865874177943e-03
         - -5.1175428189725002e-03
         - -1.1057423462031367e-03
         - -1.6398707632644138e-03
         - -3.1017519260834913e-04
         - 2.1570302577663359e-03
         - 3.1817595475884079e-03
         - -4.4938738622201544e-03
         - -4.6633332430531449e-03
         - 2.7275559191235694e-03
         - 8.4966709236283821e-04
         - -3.2665522321397445e-04
         - -4.4500093448974452e-03
         - 4.0461837616626688e-03
         - -8.6157566633442663e-05
         - 1.2038792379994549e-03
         - -5.0902221136115526e-03
         - 3.7110377969377267e-03
         - -1.8992960421501772e-03
         - 5.9465237611069617e-04
         - 1.6560417585387943e-03
         - -9.7555655913073079e-04
         - 2.2169912436435023e-03
         - -8.0351384708882037e-04
         - -3.7759115828673835e-03
         - 1.4022040739810040e-05
         - 4.3079488489238451e-03
         - 4.3739588038206540e-03
         - 1.8994405436203597e-03
         - 5.0249924117009856e-03
         - 4.5040750217782075e-03
         - 3.2172883498213590e-03
         - -1.5994694775121165e-03
         - -1.0828918258075082e-03
         - 2.2035821484235607e-03
         - -2.8630369073976581e-03
         - 1.0051377461061217e-03
         - 1.9432720597891133e-03
         - 2.6515892636953965e-03
         - 3.9660909360947150e-03
         - 3.7328457921245614e-04
         - 2.5253794241952691e-03
         - 4.5963238817289722e-03
         - -6.2576313012174876e-04
         - 1.0115607011232589e-03
         - 4.3818834704091895e-03
         - -3.5516336583503376e-03
         - 1.6145178761083176e-03
         - 3.6318246710574744e-03
         - -3.3726720491094450e-03
         - -2.5952945099497063e-03
         - -4.7426270887946254e-03
         - 5.0522754286274028e-03
         - -1.1956087546148571e-03
         - 2.7229202302807907e-03
         - -3.1739330880239886e-03
         - -1.1691589175593143e-03
         - 2.1073590801121440e-03
         - 3.3828375301760160e-03
         - -4.5296285748525067e-03
         - 7.7769934623915960e-04
         - -1.7009181608111748e-03
         - 4.7557165228221563e-03
         - 3.7061148959849129e-03
         - -6.8319846946703164e-04
         - -3.5132974357510454e-03
         - -3.1852065892018452e-03
         - -2.6718605376981155e-03
         - 2.9346920663324513e-03
         - 3.9097872113090810e-03
         - 3.2079603738941333e-03
         - 7.5164967149048178e-04
         - -2.7393887629681758e-03
         - -3.0898586681015041e-04
         - 2.4493961362952090e-03
         - 1.2806844218168300e-03
         - 1.4543725224160906e-03
         - 5.6846172870409905e-04
         - 3.3544667687302660e-03
         - 3.1304469345318094e-03
         - 1.1882017181194162e-03
         - -3.8782116985363489e-03
         - 5.3302869472663435e-04
         - 4.8859015847707435e-04
         - 1.4825098509462485e-03
         - 2.4358611554258346e-03
         - -2.3174607873125653e-03
         - 2.4537428413886745e-03
         - 3.9079327068868852e-03
         - 4.8209389351152659e-03
         - -3.6872170811286714e-04
         - 1.6327381151298322e-03
         - 5.0457381189732012e-03
         - -4.9724742447815311e-03
         - -4.8733877835578599e-03
         - -2.5993558612122755e-04
         - -3.6026191899725109e-03
         - 2.3016314836886318e-03
         - 1.8258720193034812e-03
         - 4.5094205046500987e-03
         - 3.0382088119562597e-03
         - 4.4414127228322694e-03
         - -1.6170647460661684e-03
         - -5.0177317702113974e-03
         - 2.9537141710673730e-03
         - -4.1365483490497842e-03
         - 4.4718570186187735e-05
         - -9.2632040564381672e-04
         - -4.2173569640169837e-03
         - 3.6339324497817135e-03
         - 3.0005875024617158e-03
         - -4.0808919685207503e-03
         - 2.2443215264757901e-03
         - 6.3206497027193365e-04
         - 3.9412511113181671e-03
         - -3.9742151738442148e-03
         - 1.5051815466509593e-03
         - -3.8343504466993943e-03
         - -4.9375595328253873e-03
         - -9.4793886540096384e-04
         - -4.4318314899311172e-03
         - -2.1430475789549421e-03
         - -1.4037522305986379e-03
         - 4.4767163017465561e-03
         - 1.0242048111456872e-03
         - 4.0352875291891936e-03
         - 3.2823834193059015e-03
         - -5.2896551921402372e-04
         - 6.4240083884223602e-04
         - -3.9068369207448782e-03
         - 2.9815244075438977e-03
         - -4.2287164704940712e-03
         - 8.3232578884915036e-04
         - 3.0428761164398425e-04
         - -3.8431823276094510e-04
         - -5.7586127313732384e-04
         - 3.9326051909068882e-04
         - 4.4696070602029299e-03
         - -3.0887989167550461e-04
         - 4.4286424089088530e-03
         - 1.1280399556983641e-03
         - 3.0553037703863408e-03
         - 2.1461929819496135e-03
         - -3.6238465851234268e-04
         - -1.3551152443037045e-03
         - 8.6064842057020994e-04
         - 5.2630778450770896e-04
         - -4.7936301749158831e-03
         - -2.2052437405870669e-03
         - -3.9289169225354692e-03
         - 5.7080200762240946e-04
         - -3.0752983596836754e-03
         - 1.8162027739655160e-04
         - -1.5708919187968102e-03
         - 4.9470391898572457e-03
         - 2.9995891283850877e-03
         - 1.1107469837868336e-03
         - -1.8205094722569910e-03
         - 4.1197633565014718e-03
         - 1.7837470064099034e-03
         - 1.2580929045860451e-03
         - -1.6347294217611901e-03
         - 2.4866351188240873e-03
         - -1.4333623543431471e-03
         - -4.1765146042818746e-05
         - 3.9358422820180072e-03
         - -3.1423787683224095e-03
         - 4.1053776919038375e-03
         - 3.2527488594114059e-03
         - 3.4478477600756174e-03
         - 2.1159569046814760e-03
         - 4.1387803881215842e-03
         - -4.7550003419282900e-03
         - 3.0294620411382891e-03
         - 2.3846100022324864e-03
         - 6.5322953452691683e-04
         - -3.8007819882449718e-04
         - 3.9876111131221586e-03
         - -1.5883826019706497e-03
         - 2.3571536841782786e-03
         - 2.1589957796264532e-03
         - -3.9668515122005619e-03
         - -2.6686919489482307e-03
         - 1.5033536697251469e-04
         - -3.2017205183288034e-03
         - -2.5174629571404691e-03
         - -1.0577234236891272e-03
         - -3.7890409956240203e-03
         - 1.9826427680104991e-04
         - 4.2502032997244737e-03
         - -3.7264649709975875e-03
         - 3.0515750113592152e-03
         - 7.0268158423491666e-04
         - -9.8112396282361465e-04
         - 1.2512073807472062e-03
         - 1.2137622439650287e-03
         - 1.1825991918672370e-03
         - -3.2401325937860301e-03
         - 2.1857180819893603e-03
         - 1.5814695475305015e-03
         - -5.1256305835392594e-03
         - -7.9663675273344717e-04
         - 2.4828995730047025e-03
         - -3.8177009989535777e-03
         - -5.0317005935863563e-03
         - 2.8612523652571898e-03
         - -3.2259888320521264e-03
         - -4.7517071442538718e-03
         - -3.3016808222344346e-03
         - -3.1629621149209644e-04
         - 9.6826390603133429e-04
         - -3.3528988500447329e-03
         - -3.4796146540555469e-03
         - -2.2686239227547597e-03
         - 1.1255167353995364e-03
         - 1.9930171282112755e-03
         - 4.3319921792194151e-03
         - 2.2822535949664547e-03
         - -4.4522573153429196e-03
         - -3.0680398998675696e-03
         - -4.9236414560450605e-03
         - 2.5647745080864173e-03
         - 3.6953519721389539e-03
         - -1.3955283101301165e-03
         - -4.7125921839591689e-03
         - -4.4363006719674346e-03
         - -2.5101688852640356e-04
         - -3.2278856471179558e-03
         - 2.6165400173933507e-03
         - 1.3515992409961917e-03
         - -3.3556691244896871e-03
         - -1.2551420939322308e-03
         - 1.1070204284336683e-03
         - 2.8718990916471879e-03
         - -3.3207806989215194e-03
         - 3.5988283272323195e-03
         - -7.8180287282722451e-04
         - 4.0172585501586193e-03
         - 4.5012050570924838e-03
         - 1.4659153262033067e-03
         - -2.8985583859154084e-03
         - 4.8428351437695312e-03
         - -8.3035959751391207e-04
         - 2.4881662438581533e-03
         - -5.0199794036618374e-03
         - 2.0329926483770057e-03
         - -6.9584256686331324e-04
         - -8.3963392554087387e-04
         - 1.8105980600958960e-03
         - 4.7038975936024435e-03
         - -2.5559949097692038e-03
         - -2.9879057558955279e-03
         - -5.0027337814832302e-03
         - -3.8720106226482762e-03
         - -7.7503712455055749e-04
         - -2.6130451800962387e-03
         - 2.8239212760555340e-03
         - -2.0128130966283746e-03
         - -4.4204309410767204e-03
         - 2.4398021476120095e-03
         - -3.8344894875360371e-03
         - 4.8424400696461109e-03
         - -2.3006673805972154e-03
         - -3.3421335920498694e-03
         - 4.3503531762079358e-03
         - -3.8009135846264379e-03
         - -4.4389935583175437e-03
         - 1.4612882982381694e-03
         - -4.9343041654107403e-03
         - -1.4897958465445429e-03
         - 3.1760437918249186e-04
         - 2.2543137707517545e-03
         - 4.9346101891527948e-05
         - 1.8952071581807230e-03
         - -1.2568584026007002e-03
         - -4.8238175209340999e-03
         - 1.5458776209557935e-04
         - 5.2669751690079833e-04
         - 1.7595643830930375e-03
         - 4.5769380168911777e-03
         - 2.4172206336395300e-03
         - 2.3722670860344091e-03
         - -3.7608088331911559e-03
         - 6.4453733887131917e-04
         - 3.1437472676723475e-03
         - 1.9539311681958512e-03
         - 3.1984007395043947e-04
         - -2.7562521195879480e-04
         - -1.2771602464444946e-03
         - 3.8662615435681915e-03
         - 1.4429114223684105e-03
         - 4.0341379036674068e-04
         - -5.5675373909163783e-04
         - -3.2765341610903219e-03
         - -2.8637712283801583e-03
         - 4.0519035643601670e-03
         - -2.7809618458628947e-03
         - -2.3389155878843329e-04
         - -3.2309124522472091e-03
         - -3.8318785650256503e-03
         - -4.3785296750920334e-03
         - -1.1068957200970155e-03
         - -3.2635950470565754e-03
         - 4.1493436342097262e-03
         - -2.0148545635271802e-03
         - -2.1910297826757174e-03
         - 3.7685690342987221e-03
         - 2.1953836188606120e-03
         - -3.1326241576863333e-03
         - 1.8104619622166967e-03
         - -1.0229195467870663e-03
         - 2.2641362785731332e-03
         - -4.5581114230308084e-03
         - 1.4784693215575981e-03
         - 1.6822906763243313e-03
         - 5.2418750386949153e-03
         - 3.5121152149773125e-03
         - 1.6830798976759723e-03
         - 4.9677901278045678e-03
         - -2.0326113159587055e-03
         - 4.4634508169350369e-03
         - 1.8522636873970553e-03
         - -2.1581375273282692e-03
         - 3.5517717965956050e-03
         - 4.9739066092560590e-03
         - 2.8510745337214862e-03
         - -5.9395962004861556e-04
         - -8.4300134010671838e-05
         - -2.8026088975636773e-03
         - -4.6269471274935827e-03
         - -3.9244029700282205e-03
         - -4.4181368667937275e-03
         - 7.0351217628924763e-04
         - 1.9659437072883168e-03
         - -1.6626693031618839e-03
         - 5.8626320877981240e-04
         - 1.5002870525896762e-03
         - 9.6054701500524972e-05
         - 7.4573209000600952e-04
         - -1.0450674135721910e-03
         - 1.9635268182076455e-03
         - 3.2483386260337642e-03
         - 4.5478389727002305e-03
         - 4.9544886182355235e-03
         - 1.1221129374307766e-03
         - -3.6735261754925890e-04
         - -7.5239605956903537e-04
         - 4.8952766395152988e-03
         - 1.1378556379421055e-03
         - -1.9554968522013400e-03
         - -2.8951435073550145e-03
         - -4.4405441792584838e-04
         - -3.5105589220132190e-04
         - 6.8890586268912334e-04
         - -6.2309189621509214e-04
         - 6.3599818683576033e-04
         - 1.9492778480310776e-03
         - -5.0028973611336179e-03
         - -4.4067410066280441e-03
         - -2.7897693237762164e-03
         - -4.2100421315600422e-03
         - -4.9881803242118200e-04
         - 6.3497818768845648e-04
         - -1.4085001141237799e-03
         - -5.5899291421741605e-05
         - 1.8710136877248661e-03
         - -3.4489017019686120e-03
         - -1.9414679844260003e-05
         - 4.5213781752581374e-03
         - 4.0770954452305922e-03
         - 1.0337447950946241e-03
         - 3.6263309026514177e-03
         - 1.2238839341557753e-03
         - 2.1928475466226737e-03
         - -2.7029976862719550e-03
         - -9.2815698069491871e-05
         - 4.5773450802600911e-03
         - -3.9654614390383014e-03
         - 2.9898167686025182e-03
         - -1.3959026409125855e-03
         - 3.7282501003669238e-03
         - 3.6059925052200738e-03
         - 5.0493912381339634e-03
         - -2.9519960902923271e-03
         - -3.4104841637770979e-03
         - -7.5359286351065738e-04
         - -6.6857587172159739e-04
         - -1.3115958389868555e-03
         - -3.5131460234342823e-03
         - -5.0055835907511564e-03
         - -1.9955564597134525e-03
         - 1.4994821386745702e-03
         - -4.2155383568679384e-03
         - 4.2424439147972833e-03
         - 3.0421151206857845e-03
         - 4.1054216856521416e-03
         - 3.3519314873467513e-03
         - -2.7133196234105732e-03
         - -2.3256926534194543e-03
         - -4.8342875419510436e-03
         - 1.0400989468369016e-03
         - -3.7832815763920837e-03
         - -9.4851279768969076e-05
         - -1.6007121132211894e-03
         - 3.9111946338713875e-03
         - 3.3161568726815310e-03
         - 2.6650748283377737e-03
         - 2.0672392860970530e-03
         - 8.7676694933451959e-04
         - -1.6590513282271711e-03
         - -4.9005109951683068e-04
         - 4.4650246482703737e-03
         - 1.0542724822184715e-03
         - 3.3284844846288549e-03
         - -3.6961704694376037e-03
         - 5.1621622713322896e-03
         - -3.0015302675744458e-03
         - 9.1827152442264292e-04
         - 2.6228584204519845e-03
         - -4.3642774640640127e-03
         - -1.7193486635694766e-03
         - 1.0905488230115181e-03
         - 2.4003806453054639e-04
         - 2.4182614224488278e-03
         - -2.0063594730326639e-03
         - 4.2881210466100614e-04
         - 1.6011376688430856e-03
         - -4.4741905658825173e-03
         - -4.4706310902590538e-03
         - -1.7668614574475486e-03
         - 3.8904826740425364e-03
         - 1.0869483759728352e-03
         - 2.2424219659086335e-03
         - -1.9593882335585708e-03
         - 1.1752681247105701e-03
         - -1.2602013758140226e-03
         - -4.4007518046147260e-03
         - 4.7965096149635775e-03
         - -2.3730510485565407e-04
         - -3.6592199030591310e-03
         - 2.8024054875295931e-03
         - 3.8361883835274645e-03
         - -1.6484005772115634e-03
         - -4.2293798331764724e-03
         - -3.6834658932661021e-03
         - 1.1765017486640261e-04
         - 1.6536704904365881e-03
         - -3.4449094999397839e-03
         - -2.7705170447711609e-03
         - -7.2520104840129293e-04
         - -6.2489149229998000e-04
         - 3.7053514004040866e-03
         - 2.6946422666835547e-03
         - -4.1829531293638596e-03
         - 1.1494348687101170e-03
         - 8.3455456806115068e-04
         - 1.4293139101020341e-03
         - -3.1834243050959539e-03
         - -2.9807873020952559e-03
         - 1.3733383881844559e-03
         - -4.0050295902774395e-04
         - 2.3251691614634886e-03
         - -4.6381143766266435e-03
         - 4.5586017226728250e-03
         - -3.6972866241828869e-03
         - 2.1677101415115670e-03
         - -1.2629965918703413e-03
         - -1.5934106742246676e-03
         - 3.8003308408281764e-03
         - 1.6543909942350696e-03
         - 2.4885560369569105e-03
         - -2.1561534357501001e-03
         - -2.7302208502421295e-03
         - -1.8462016530144093e-03
         - -4.8536286999762987e-03
         - 8.6524201164931141e-04
         - -4.2593745061901894e-03
         - -4.4895345076702304e-03
         - -1.2582525323826166e-03
         - -2.4663571175918522e-03
         - 9.8264727544895782e-04
         - -1.1079931545948207e-03
         - -2.5504006182321096e-03
         - 2.4856181185332190e-03
         - 3.9082690155137836e-03
         - -3.3856339549751973e-03
         - 4.5003463008861924e-03
         - 1.5175026888085341e-03
         - -2.4538013210331014e-03
         - 1.9118013838838471e-03
         - 4.1930187159656086e-03
         - -1.6022543217299732e-04
         - 1.1500651035012599e-03
         - -1.0038490273459005e-04
         - 1.7413926026753294e-03
         - -4.9938874506287188e-04
         - -3.6312664807802461e-03
         - 3.6763355220642475e-03
         - 3.5536779523247723e-03
         - -2.8708036505230576e-03
         - 3.5381990178514995e-03
         - -4.2119560706177688e-03
         - -3.9955420512782901e-03
         - 9.3339765367985675e-04
         - 5.0102511279562986e-03
         - 1.0640224846856189e-03
         - -2.6298128974042343e-03
         - 9.7913853622507243e-04
         - 3.6886859952028686e-03
         - 4.1317633294987903e-03
         - -2.8301165401408111e-03
         - -2.5781594416842209e-03
         - -9.1843432148710542e-05
         - -2.9891831780422288e-03
         - 4.2924005205436759e-03
         - 2.8943338209376561e-04
         - 2.7967845051711138e-03
         - 5.5203795960760531e-04
         - -1.0802535943231701e-03
         - -4.7543948893842324e-03
         - 1.7458195771700613e-03
         - 3.7612537246607867e-03
         - 1.4341800607618721e-03
         - -4.5659771926940020e-03
         - -1.9491129604036180e-03
         - -1.9522458000323720e-03
         - -1.3231913837986461e-03
         - 1.4146092904272418e-03
         - 3.2701895704633976e-03
         - -4.6582303541506138e-06
         - 1.9458138369406837e-03
         - -3.9303878232922014e-03
         - -2.9814985398936853e-03
         - -2.1998714471088920e-03
         - -2.3395798674252372e-03
         - 4.5622729307269044e-03
         - 4.9605095465000745e-03
         - -3.3663226354133792e-03
         - -4.0969626330040823e-03
         - -3.2096433777444289e-03
         - 2.9796335061334175e-03
         - 2.5899674759475616e-03
         - -3.8893976960908544e-03
         - 1.9928107196896415e-03
         - 3.6728176307398116e-03
         - 3.4068119333885431e-03
         - 1.4555735637717066e-03
         - 2.7952904956765213e-03
         - 2.4441199301491689e-03
         - 1.7152776941800861e-03
         - 1.4739397143832900e-03
         - 1.8192313493775490e-03
         - -3.9276954761994784e-03
         - 6.5219092107813203e-04
         - -2.5113532243586749e-03
         - 2.1180546742683047e-03
         - 1.4034906241011849e-03
         - 4.2352318965325450e-04
         - -1.3209091812506515e-03
         - 2.2719886133053223e-03
         - 4.2511931219200343e-03
         - -2.1689086406913487e-04
         - -5.2381413205631504e-04
         - -3.4319806257792737e-03
         - 2.2496319844839733e-03
         - -4.8010251627860151e-03
         - 2.5175971152961427e-03
         - -1.2399908603407330e-03
         - -2.2478698797420769e-04
         - -3.3239280461022625e-03
         - -2.8981746385304146e-03
         - 1.1222507721497701e-03
         - 2.4265254278963123e-03
         - -3.2997788896003679e-03
         - -9.9447450744490832e-04
         - -3.0150547163652371e-04
         - 3.8122368500238522e-03
         - 3.3131024436978329e-03
         - -4.1758498105027575e-03
         - -2.1554690506418203e-03
         - -2.2533834149206780e-03
         - -6.7447918496485221e-04
         - 3.3263083225044615e-03
         - -5.1541565743389236e-05
         - 4.6491800614190018e-04
         - -3.8022743371420118e-03
         - 4.1019131515900578e-03
         - 5.2020152319768719e-04
         - -3.1320705492814496e-03
         - 5.0599347925248568e-03
         - 7.8249007127040814e-04
         - -4.8239674311231669e-03
         - -3.6157935111291377e-03
         - -2.2817850997818184e-03
         - -3.1841198005193431e-03
         - -5.7701144116543320e-05
         - 2.0524915638370847e-03
         - -2.2530496363856122e-03
         - -2.7573470991231188e-03
         - -3.3690780634534393e-03
         - -2.7056925370471606e-03
         - 2.5521045030349691e-03
         - -1.7271700665203475e-03
         - 4.6321309213452283e-03
         - -2.0991379158781806e-03
         - -3.2912633931688512e-03
         - 1.0377939127029525e-03
         - 1.8852426863698573e-03
         - 3.4097508101980673e-04
         - -2.3176333367694721e-03
         - 1.8945237588940071e-03
         - 4.8009785844091478e-03
         - 3.8334464318334894e-03
         - 4.9560800853792851e-03
         - 2.3849282260919192e-03
         - 4.6405136074108887e-03
         - 2.7018868804002142e-03
         - 4.4432093568239992e-03
         - -1.2211254635220103e-03
         - -3.1547613094492417e-03
         - -3.4483707589643840e-03
         - 1.0670395185910482e-03
         - 3.5860704799262717e-03
         - -8.7886882284619037e-04
         - -3.5519751530817142e-03
         - -2.4294008527361974e-04
         - -2.4303549392310198e-03
         - 3.7316204880238541e-03
         - -4.5067794998187799e-03
         - -4.9437443339800970e-03
         - 2.7411549701017277e-03
         - 3.3414455984515563e-03
         - -9.8165307079061954e-04
         - -4.2003065533019121e-03
         - 3.1778294809327321e-03
         - 1.7732006716552628e-03
         - 1.5070524970875795e-03
         - -4.1241200232086522e-03
         - -4.8041862267229760e-04
         - -2.4773165410012358e-03
         - 3.9377266245913568e-03
         - -4.3136720342441624e-03
         - -2.5951104389859672e-03
         - -2.1908708500604367e-03
         - -2.8054594934284298e-03
         - -4.0708333197033118e-03
         - 4.3843436282330183e-03
         - -3.7237153914177539e-03
         - -5.1745326017719976e-03
         - -1.6342968507060228e-04
         - -1.3882916431416687e-03
         - -4.5496223752670038e-03
         - 2.5234751293541154e-03
         - 3.1739986151725725e-03
         - -2.7511108315838892e-03
         - 4.0432006936651412e-03
         - -3.4756674493096646e-03
         - -1.4158200472742927e-03
         - -1.8602994093097687e-03
         - 3.6955206790520863e-04
         - -3.2758316301903226e-03
         - -4.0463725387559707e-03
         - -4.6563334068164758e-03
         - -1.7181116790065552e-04
         - -2.2976022179868666e-03
         - -2.5549224034121074e-03
         - 4.6941559248853352e-03
         - 8.0159847671312139e-04
         - 1.7783084552795965e-03
         - -4.5468291430328839e-04
         - 3.0467353340872250e-03
         - -2.5658307416155540e-03
         - 3.0821714642052090e-04
         - 4.7615252035921709e-03
         - 1.6237002869693502e-04
         - 1.8625381147019246e-03
         - -3.5375548617026581e-03
         - 1.5052845851867916e-03
         - -3.7904281157832981e-03
         - 4.8304731709000416e-03
         - 8.8240432279018373e-04
         - 4.3280920778982560e-03
         - 7.1446177727139246e-05
         - 3.1887572272803017e-03
         - 1.4203245987943938e-03
         - 3.5199577226077620e-03
         - -1.1976604517380559e-03
         - -4.9827906905875949e-03
         - -4.3488701572744056e-03
         - 3.9254148927655025e-03
         - -2.3696052160741719e-03
         - -2.1961268116888477e-03
         - 1.9871531570902802e-03
         - -3.2997974727915669e-03
         - -4.5765585546761241e-03
         - 2.7004589902730633e-04
         - 6.8117760580828143e-06
         - -5.7245823216628086e-04
         - 4.1531462005352866e-04
         - 2.7546176254736442e-03
         - -3.5867928866539101e-03
         - 1.8105623103775370e-04
         - -2.1896422288414162e-03
         - 2.5672301749287466e-03
         - -3.1594742775633692e-03
         - -2.0768569778659728e-03
         - -9.8598356420821157e-04
         - 1.2989212889663991e-04
         - -3.7433898751401532e-03
         - -3.9269003176494290e-03
         - -6.6859575799456839e-04
         - -2.1632408153609905e-04
         - -2.9674104996419660e-03
         - -1.0245874332757122e-03
         - 2.2088894816555469e-03
         - 4.7939474925371116e-03
         - -2.6980503513323066e-03
         - -1.2973503018303863e-03
         - 2.2522320608256235e-03
         - -2.5294482468316147e-03
         - 2.0100992732732617e-03
         - -2.4766291847269578e-03
         - -3.8355513436654545e-04
         - 2.3448232645774322e-03
         - 3.6633752568451749e-03
         - 3.6741566349566064e-03
         - 4.0421279214255656e-03
         - 7.2982772420455500e-04
         - -2.0574385898789031e-03
         - 3.4964769363036424e-03
         - 1.4853088603274938e-03
         - -2.6270297415290586e-03
         - -2.1661541998850074e-03
         - 3.1336316635401573e-03
         - -3.0094116820639362e-03
         - 1.8215992822745060e-03
         - -3.0053108172582417e-03
         - 2.7957767061333482e-03
         - 4.7998254798240474e-03
         - -4.2809033682557774e-03
         - 1.1099407287188251e-03
         - -3.7647431325224774e-03
         - -4.2383943155078260e-03
         - 3.6841071341823131e-03
         - -3.4279077453310334e-03
         - -2.5454986081383869e-04
         - -4.6570104469802510e-03
         - 3.4428081487962777e-03
         - -2.5712517859278624e-03
         - -3.0049518380183857e-03
         - 7.5164332323616632e-04
         - -1.6629102077430067e-03
         - 7.9029764644492778e-04
         - 3.2504921865587045e-03
         - -1.6654485566634748e-03
         - -2.7859788296849528e-03
         - -2.1302997589528541e-03
         - 3.7333813535543794e-03
         - -2.3569287040939224e-03
         - -1.6079666011921698e-03
         - 1.6064633480630565e-03
         - -3.5928564364759623e-03
         - 4.9604328250471555e-03
         - 3.7362788947719276e-03
         - -2.3195261800436581e-03
         - -2.0218131439221853e-03
         - 7.4244450516778486e-04
         - 2.5082511153736780e-03
         - 1.7198047477009435e-04
         - 2.6044483455150732e-03
         - -1.1173314178169317e-03
         - -4.2031441550208484e-03
         - -4.9563055781519363e-03
         - 4.0492589748344710e-03
         - -1.5168941401769271e-03
         - 2.1299675394931645e-03
         - 2.9212255790034801e-03
         - -1.2296053611973599e-03
         - -3.8689456784442976e-03
         - 4.6960812436255637e-03
         - -1.3718104178481372e-03
         - -4.8704371031956283e-03
         - -3.8995102078891956e-04
         - 3.2660792287706208e-03
         - -4.1620766406699641e-04
         - 3.4709160438339067e-03
         - 4.0512541609032105e-04
         - 3.2295594093505508e-03
         - -4.4190737827368032e-03
         - -2.2773015008885501e-03
         - 2.6046836926491355e-03
         - -4.5912038217455686e-03
         - 4.1809989151969191e-03
         - -5.3087246007405362e-03
         - -2.6058302059624992e-03
         - -2.3297201411476998e-03
         - -3.0476384930156817e-03
         - 4.6758259853496211e-03
         - 2.8456917247166179e-03
         - -4.8831226971620800e-03
         - 1.4083301972857699e-03
         - 1.1270965222747040e-04
         - 1.9353053434670148e-03
         - -2.4262179458399316e-03
         - -1.4142124259564346e-03
         - 2.4823129726360108e-03
         - -1.5848604075840728e-03
         - 3.8009106051660017e-03
         - 4.5895682983266529e-03
         - 1.0431215344747359e-03
         - -1.9823918740308781e-03
         - -1.7251653094651389e-03
         - 1.9017451881689160e-03
         - -1.2191858662579380e-03
         - -2.0040798924296603e-03
         - 2.5786883792617375e-03
         - 1.8365263073967918e-03
         - 1.6911543265874388e-03
         - 4.3563584520363366e-03
         - 2.0488495073012459e-03
         - 2.2751125452733067e-03
         - -1.4802599156733581e-03
         - 1.7137669096039094e-03
         - 2.5548462929923782e-04
         - -4.0682479628487743e-03
         - 2.2260287699402267e-03
         - 6.9836422731008724e-04
         - 1.3963346164467055e-03
         - 2.5174612107774909e-03
         - 5.1178167172019071e-03
         - -3.5643458335501217e-03
         - -7.8159290731683322e-04
         - -6.2788763270920340e-05
         - -4.0637249922659772e-03
         - 5.7485527804585293e-04
         - 2.5197234606420902e-03
         - -3.9412824868838370e-03
         - -1.6172640554929386e-03
         - -7.2608829307364202e-04
         - 7.8094628970676880e-04
         - -3.1676080981827366e-04
         - -3.7751126780944618e-03
         - 2.4079993625359293e-03
         - -3.9152945471274828e-03
         - 2.6172248069596858e-04
         - 1.8173225315093562e-03
         - -1.6496793091384976e-03
         - -1.9093617083366459e-03
         - 1.8399019424805013e-03
         - 2.0576614476648918e-03
         - -5.0275876900601479e-03
         - 7.7775743319924190e-04
         - -3.6615001290674467e-03
         - -3.4356355411131155e-03
         - 1.2586527741885760e-03
         - -2.4836502753275594e-03
         - -3.5553663252261667e-03
         - 4.0523781856964119e-03
         - -5.8983215236954112e-04
         - 1.2087742844988972e-03
         - 4.1272965022608986e-03
         - 1.9252890131229100e-03
         - 3.6405892248822912e-03
         - -2.0735529532948848e-04
         - -2.5860021258025667e-03
         - 1.4863049881655114e-03
         - -5.0727735340513423e-03
         - 9.1171379858905153e-04
         - 3.7805329446464067e-03
         - -1.0403804694213848e-03
         - -4.0398131927117213e-03
         - -2.3856407018384962e-03
         - -9.2388695923562925e-04
         - -3.7493086306997869e-03
         - -1.2389886330478389e-03
         - -1.2464134303995706e-03
         - 3.0504731661541639e-03
         - 3.6509734892048093e-04
         - 4.3190746881672524e-03
         - 2.4232150162368593e-03
         - -4.5055635540236444e-03
         - 4.3521086429716294e-03
         - -3.5454850219998374e-04
         - 2.1735658735310194e-03
         - -1.1039621855935737e-03
         - 4.7508637124382518e-03
         - 4.5195806406719277e-04
         - 2.3727603780765490e-03
         - 1.3885463573238685e-03
         - -6.9849606880803474e-04
         - 2.7150497307502591e-03
         - 2.4508041730462466e-03
         - -1.9707367612886752e-03
         - -8.6135744422589976e-04
         - 1.2461513553062473e-03
         - 2.7999880593673559e-03
         - -3.4991012636667812e-03
         - -1.0127488935246772e-03
         - -2.3734394169893248e-03
         - -3.5073318409705742e-03
         - 8.6897289167162984e-04
         - 4.7611645077780531e-03
         - -2.9818633558065500e-03
         - -9.2696812713261186e-04
         - -6.6406343316883435e-04
         - 2.4631463793832464e-03
         - -3.6689283628015359e-03
         - -2.1786698881799413e-03
         - 4.1852295025499170e-03
         - 4.8606348262788830e-03
         - -2.3710851606410900e-03
         - 4.2087721608515469e-03
         - -1.3210747983756887e-03
         - -2.0822009880537701e-03
         - -4.4239764184989165e-03
         - -4.6453325774034509e-03
         - -3.4403899246648511e-03
         - 1.4069526716796127e-03
         - -9.3039621036144300e-04
         - -8.2470025170118912e-04
         - 7.9790444608372207e-05
         - 4.3839599996438145e-03
         - -1.1582031462218723e-03
         - -3.5917806517157349e-03
         - 3.9985106596349814e-03
         - 6.2838998564242882e-04
         - -4.9169557338999345e-03
         - -2.8450886831665142e-03
         - -1.7352089166542159e-03
         - 2.9198780437601317e-03
         - 3.5490610944620121e-03
         - 3.6074122647854391e-04
         - -2.9760270802824370e-03
         - 2.1552583241312958e-03
         - 4.6444331648975209e-03
         - 2.7165175188327228e-03
         - 2.0597625934666731e-03
         - 5.0977266499732774e-04
         - -3.1222343685600773e-04
         - -2.2576504801055551e-03
         - -2.1775084060543467e-03
         - 3.8025736263763506e-03
         - 2.5449912671905483e-03
         - 2.0576213353672656e-03
         - -2.8067200822615686e-03
         - 1.5106717218972773e-03
         - 2.3302678402860313e-03
         - 9.8482187286910196e-04
         - -1.5849170969296929e-03
         - 4.3048061035283487e-03
         - 3.4667208711694234e-03
         - -1.5699015348710316e-03
         - 4.7405086276830679e-03
         - 4.7884473127343674e-04
         - -2.8911879180457587e-03
         - -2.9143976818061090e-03
         - -1.7124013764120030e-03
         - 1.2228212142650803e-03
         - 3.6911637822209745e-03
         - -4.4628065887786028e-03
         - -1.9237065632816850e-03
         - 2.7280100634679248e-03
         - 4.6254267069808491e-03
         - 1.5919081498622532e-03
         - -1.2743130241211939e-04
         - -1.3661031596984098e-04
         - -3.9927364900837620e-03
         - 4.4346087184880447e-03
         - -2.5995910325449126e-03
         - 3.6410348336960737e-04
         - -5.4868852694205938e-03
         - -2.2179231122879035e-03
         - -5.4746329402622675e-04
         - -3.9906573040906675e-03
         - 2.7155551510686113e-03
         - 2.2920374597039210e-03
         - -2.5122705780098713e-03
         - 5.1161333201431066e-03
         - 3.5584121515373703e-03
         - 6.7772995885070236e-04
         - -2.7042504732605554e-03
         - 1.6918559323950704e-03
         - 2.3523513232685013e-03
         - 2.5555321072201773e-03
         - -2.5605035192911704e-03
         - -2.8309070570277229e-03
         - 3.9575182826951738e-03
         - -1.1221548054947592e-03
         - 4.0225115999409245e-03
         - -3.9185880832076064e-03
         - -8.6319760522922243e-04
         - 1.3719548778034634e-04
         - 3.7183959114480141e-03
         - 4.1019731419410050e-03
         - 3.5944022644731053e-03
         - 4.9428934473398269e-03
         - -3.9370080044322199e-03
         - -2.8438788710382678e-03
         - 2.0895227721123857e-03
         - -5.0198098976113464e-03
         - -4.9182490182480129e-03
         - 4.8157650985248207e-03
         - -1.8951821559931616e-03
         - 4.6147182036606251e-03
         - 2.3703136495784646e-03
         - 6.2425856729634611e-04
         - -4.4278252216331622e-03
         - -9.9705953884447144e-04
         - -2.0970770337192281e-03
         - 8.8232440683324310e-05
         - 1.1283259348349214e-03
         - 1.4944734615473189e-03
         - -5.0913977885955891e-03
         - -3.9222460251490078e-03
         - -1.8058519412144328e-03
         - -9.9694509643457165e-04
         - -1.5462003384973449e-03
         - 4.5149512283146924e-03
         - 5.8178574357432204e-04
         - 4.0830342458068655e-03
         - -4.0098425298459280e-03
         - 3.4006338029505985e-03
         - 7.7283227507929961e-04
         - 9.2298838637594580e-04
         - -4.0362265421959136e-03
         - -3.2291600226757732e-03
         - -4.6086211470857258e-03
         - -2.9039576142645481e-03
         - 3.4186866807757173e-03
         - 3.2462217903718384e-03
         - 2.0205108299829713e-03
         - -1.6177440079984766e-03
         - -3.6387583461019546e-03
         - 4.5359722383611885e-03
         - -4.2545158294126344e-03
         - 4.4834706413838330e-03
         - 3.0643684497909628e-03
         - -7.8291704561618504e-04
         - 3.2587383933544364e-03
         - -3.2890405519636077e-03
         - 2.8703816551586760e-03
         - -1.9369355475772497e-03
         - 4.8121000149073693e-03
         - -4.5036863004621957e-03
         - -2.7992715055474696e-04
         - 1.8203297411433215e-03
         - -5.0485160205129909e-03
         - 7.7392354596211074e-04
         - -3.5439549938247237e-03
         - -1.9844679222024773e-03
         - 3.7640118469103030e-03
         - -3.8727087717930057e-03
         - -4.6761429590722577e-03
         - 1.0444909722528088e-03
         - -1.7093370687187657e-03
         - -3.2171732984565831e-03
         - -3.7235142340815556e-03
         - -2.9288042858976455e-03
         - 8.7061518280861984e-04
         - -2.2010032849629963e-03
         - 3.0974122122207608e-03
         - 2.8949860333458742e-03
         - -2.7851627219191719e-03
         - 1.9053706521341715e-03
         - 1.0866215863170364e-03
         - -4.0124982426856188e-03
         - -3.8273634733269179e-03
         - -1.3408325811902942e-03
         - 3.9965158364782564e-03
         - 1.0132951147827372e-05
         - -6.6568759718903757e-04
         - -1.4483481916396530e-04
         - -1.6283551144504911e-04
         - 1.2141620476476041e-03
         - -2.5198024734728076e-03
         - 3.9569409688520654e-03
         - 4.3132556815320116e-05
         - -1.5569281864760728e-03
         - -1.7141972290978722e-03
         - 3.1112518934428763e-03
         - 1.9196489400061787e-03
         - -4.8025506082128864e-03
         - 3.5934496486290952e-03
         - 1.5996101203742451e-03
         - 3.1059661241279041e-04
         - 4.7591033925977718e-03
         - 3.7678421632299126e-03
         - 3.9852381698118030e-03
         - 3.7449113873371420e-03
         - -6.4599563783790945e-04
         - -2.6165948180468710e-03
         - 5.9515205751269301e-04
         - 2.1031122975869181e-03
         - 2.4865850007299330e-03
         - -3.5581621897979648e-03
         - 2.5631425100938595e-03
         - 2.0161947072614627e-03
         - -1.2109507097685268e-05
         - -4.6996959691435547e-03
         - -5.1978319899589221e-03
         - -3.6134534614438501e-03
         - -2.9544053741609884e-03
         - -4.4815031549613566e-03
         - 6.7258782901702559e-05
         - -1.3415705100620341e-03
         - 1.0145635040067784e-03
         - -7.0090836994262740e-04
         - 2.1575859123182904e-03
         - 4.1957912183909147e-03
         - 6.5630857834750246e-04
         - 1.8471770292049204e-03
         - -4.4822615055638039e-03
         - 5.0634078377954500e-03
         - -2.3180769384531629e-03
         - -1.2709799752481721e-03
         - -5.0766465805358206e-03
         - -2.5382139420422885e-03
         - -3.5287993315031630e-03
         - -1.4594981832176559e-03
         - 3.1761915220398619e-03
         - 1.2111964334857576e-03
         - 4.5822283116176803e-03
         - 6.1484576059173774e-04
         - -4.4776552514757548e-03
         - 1.0123710384979636e-05
         - -2.1633186709278168e-03
         - 4.6179292041641897e-03
         - 4.7688198504573067e-03
         - -3.5519500075733819e-03
         - 3.8684159215511800e-03
         - 3.5286076538386733e-03
         - -2.9597213443000804e-03
         - -2.2128744136202126e-04
         - 3.8417584202868143e-03
         - 2.6462488949869811e-03
         - -5.2918023348183128e-03
         - -1.8428210092884902e-03
         - -2.3761917874683181e-03
         - -3.0519246595931519e-03
         - 4.1739222838371405e-03
         - 8.8613533484839166e-04
         - -2.4838787415192459e-03
         - -2.5185087821019895e-03
         - 4.6849930558029275e-03
         - -4.8041526234931312e-03
         - -1.7006350815197090e-03
         - -1.2921773678373489e-03
         - 4.5966873925690913e-03
         - 1.2651844464936885e-03
         - 2.0566995801118287e-03
         - 3.1568717567815176e-03
         - 5.1903142980371415e-03
         - -8.2272323786677047e-04
         - 7.1502929550975919e-04
         - 5.2978245492029206e-03
         - 4.3836622923015675e-03
         - -5.9344059995714681e-05
         - 1.0650693409065130e-03
         - 4.6525657141109900e-03
         - 4.2146992193109719e-03
         - -1.5588388049613032e-03
         - -1.1608427327154274e-03
         - -3.7932675718442125e-03
         - 1.0176948448979619e-03
         - 3.1806946623280643e-03
         - -1.9948296808750129e-04
         - 1.9651018798858785e-03
         - -2.4616282473659073e-03
         - -1.5421923095206003e-03
         - -9.2698504988454166e-04
         - -2.9919977825054633e-03
         - -3.0784485836012161e-03
         - 4.3008715759556247e-03
         - 3.8132768565188766e-03
         - -2.6092328490589182e-03
         - -1.1872151582366091e-03
         - -1.8601341391498165e-03
         - -1.0384823394800368e-03
         - -1.6943023156934221e-03
         - -1.7808596565595345e-03
         - 4.9217238368810378e-03
         - 3.9396521161022026e-05
         - 1.4970847566875753e-03
         - -3.4247878684059239e-03
         - 1.2603753592794551e-03
         - 2.0727034854555069e-03
         - -4.2156033827949711e-03
         - -3.8385106456071427e-03
         - 4.0321229046187080e-03
         - -3.9226971797327688e-03
         - 1.4025561930059357e-05
         - -5.1028874422652049e-03
         - -3.5260370942394098e-03
         - 2.0375880033346701e-03
         - -2.7994304456742183e-03
         - -3.5972669922839451e-03
         - -4.1446965239719108e-03
         - 3.9506558057362294e-03
         - 3.2156913759216245e-04
         - 3.5440674558138369e-03
         - -6.1617902003605594e-04
         - -3.9524818879792247e-03
         - 3.5961645144238757e-03
         - -1.9261572858457589e-03
         - 1.4233311293829787e-04
         - -1.5642525036395787e-03
         - 2.5432944842539306e-03
         - 4.7448445402052252e-04
         - 4.3873767042126874e-03
         - -3.6795065478477894e-04
         - 1.7267864944210858e-03
         - -4.0712936104196230e-03
         - -2.9236782612786579e-03
         - 4.0393218359437459e-03
         - 4.4219010912214451e-03
         - 1.2775881496023743e-04
         - 1.2066792774365095e-03
         - -2.0786892181785472e-03
         - 2.5215183982254543e-03
         - -8.1130003781362348e-04
         - -1.6366136508108641e-03
         - 1.4206603013728949e-04
         - 5.1342103985323765e-03
         - 2.6244611800218852e-03
         - -4.0702602305703458e-03
         - 3.1504883919654145e-03
         - -5.0402491786395781e-03
         - -3.9478445823146850e-03
         - 2.1420695373925236e-03
         - -2.8337628783565863e-04
         - -3.1065897540964336e-03
         - -3.0635175054961649e-03
         - -1.2217694751233967e-03
         - 3.8935967110698098e-03
         - 2.1388659183784928e-03
         - 4.7005715438651167e-03
         - -2.6241561471349859e-03
         - -2.8887885977972325e-03
         - 3.9610144051627208e-03
         - 7.5762464065313182e-04
         - 2.8070296846535994e-03
         - 2.1312929506175460e-03
         - 3.0009456530575127e-03
         - -4.9354368326476163e-03
         - 3.8450564202206741e-03
         - -2.7374641264189888e-03
         - -1.9976292309104946e-03
         - -2.3145005571082490e-03
         - 1.8215072136569283e-03
         - -2.4927546043587994e-03
         - 3.7882409534675940e-03
         - 7.1845519283249846e-04
         - -9.5421444864386121e-04
         - -5.0653873565000068e-03
         - -4.0199448962213594e-03
         - -4.2228769941624724e-03
         - 4.0166859966448134e-03
         - 4.3203619928674575e-03
         - -2.2748412148778756e-03
         - -3.9223052783563519e-03
         - 1.9165896705096279e-03
         - 2.2697413175979870e-03
         - 2.6072944571585893e-04
         - -2.0340598810821590e-03
         - -4.5923795011092988e-03
         - -1.9096765104509735e-03
         - -1.4387712789330357e-03
         - 3.0321842456027771e-03
         - -5.4930618264558534e-04
         - -3.3994377303745831e-04
         - -3.8428662095641953e-03
         - 1.2399111412490693e-03
         - -1.0941584413560190e-03
         - 7.0507926455831444e-04
         - -1.0981401697251537e-03
         - -3.5830536493864609e-03
         - 2.8332827975785643e-04
         - 1.0141975992379428e-03
         - -3.4022374761393426e-03
         - 2.1762211551483493e-03
         - -8.0031044872082795e-05
         - -6.0332638238974525e-04
         - -3.9275144758500720e-03
         - 1.3323595722469226e-03
         - 4.1967416686846124e-03
         - 3.8139114061683408e-03
         - 4.8082343401918120e-03
         - -2.0974299111838255e-03
         - -9.1801059146489391e-04
         - 2.7288825252543706e-03
         - 5.6390147326537937e-04
         - -4.6673283453509493e-03
         - -1.4980166110663341e-03
         - -2.6930634545469234e-03
         - -9.0907985405899283e-04
         - 1.2930022183340287e-03
         - -7.9790407046361682e-04
         - -4.0759521909993846e-03
         - 4.7535352568492456e-03
         - 4.3649234884023400e-03
         - -2.2058814789527189e-03
         - 1.0312039973216364e-03
         - -3.3834706374142247e-03
         - -4.9090995921008867e-03
         - 2.4802023896551865e-03
         - -2.2476775136680547e-03
         - -8.2035701429800675e-04
         - 4.3725308053161500e-03
         - 3.3528860579308140e-03
         - -2.5589982592074748e-03
         - -1.8623178018627937e-03
         - 6.1196364429416325e-04
         - 1.7576958081252001e-03
         - -1.1481712974800832e-03
         - 4.7462587218000327e-03
         - 2.4175721047584049e-03
         - -4.9378893908185667e-03
         - -1.0337351841462638e-03
         - 4.4640633058559160e-03
         - -2.6515420789651320e-03
         - -4.8412073681206235e-03
         - -1.0742583603909099e-03
         - -2.3506763663292043e-03
         - -4.2521034434023323e-03
         - -1.9595615523890428e-03
         - -3.6414217790465102e-03
         - -2.2799814616307904e-03
         - -9.1931308949196673e-04
         - 2.1367089655865588e-03
         - 1.5297040064578581e-03
         - 5.3085311933053275e-03
         - -4.4170219457511520e-03
         - 1.5266068922978053e-03
         - -4.6493604614657007e-03
         - -9.3524629951987324e-04
         - 3.7045005448010787e-03
         - 1.5359611753117835e-03
         - 4.2417338092799505e-03
         - 1.1206832449297014e-03
         - 1.9931969464213068e-03
         - -1.6619582939618595e-03
         - -3.8411570534319798e-03
         - 3.8497965583436555e-03
         - -1.6666800510320367e-03
         - 3.9022634466872237e-03
         - 1.1187051455230244e-03
         - -1.6384169881115444e-03
         - -1.2788250908723866e-03
         - -3.8069459288526761e-03
         - 4.6176912847345720e-03
         - -2.6373429887822084e-03
         - -7.7125424632538248e-04
         - 3.4599260456756706e-03
         - 1.6738719959997475e-03
         - 6.5560159056623091e-04
         - -1.3386310972972988e-04
         - 4.8613778207424584e-03
         - -3.1090253790050739e-03
         - -8.9477829750541043e-04
         - 2.8681008499299547e-03
         - 2.2962119281217964e-05
         - -3.9355712993403777e-05
         - 7.6281223770693701e-04
         - 2.9813765265825020e-03
         - 3.7204459899078317e-03
         - 8.4423736100594233e-04
         - -4.9710150836088382e-03
         - 4.2786184351505203e-03
         - -1.8663774929937493e-03
         - -2.3356395392633515e-03
         - -1.2312235357375568e-03
         - 2.9975101988757558e-03
         - 4.9749913464356135e-03
         - -4.2717391264841670e-03
         - 4.6344125476137782e-03
         - 3.2073583524379421e-03
         - 2.5687005510965444e-03
         - 2.4521969272885426e-03
         - -1.1249103274059385e-03
         - 4.7178692401061350e-03
         - 3.6190335873973554e-03
         - -4.8853568838435767e-04
         - 4.4444430666570507e-03
         - 2.0321375332248725e-03
         - 5.7154497537945310e-04
         - -1.9130533253142032e-03
         - -3.5378345200954863e-03
         - 4.0691010139039495e-03
         - -3.5447613764675052e-03
         - -4.5375252698113050e-03
         - -2.1485023629817380e-03
         - 3.8847037317455580e-03
         - 4.2975958392556255e-03
         - -1.0818069470839209e-03
         - 4.4019373173320381e-03
         - 1.6945091162547954e-03
         - -2.8754667973691513e-03
         - -1.8469447781329351e-03
         - 3.3773342949345027e-03
         - 4.7312835242354087e-03
         - 5.1289512460409492e-04
         - -7.1280212320337687e-04
         - 4.2355660612587991e-04
         - -2.5355970243988668e-04
         - 8.4200005462758813e-04
         - 4.2024855023388799e-04
         - -5.2696160929281942e-03
         - -2.9896952399536612e-03
         - -2.6979698082150934e-04
         - -5.7567398883006749e-04
         - -4.4724685689330593e-04
         - 3.7437457244992910e-03
         - 3.3221133614049769e-03
         - 2.4980552278932753e-03
         - -5.4480161858386743e-04
         - -2.9731486546808443e-04
         - 1.8439849588673754e-03
         - -1.0487582044229620e-04
         - 3.3370299501103338e-03
         - 4.1351703617132744e-03
         - -9.6969544841471532e-04
         - -7.9814258676423340e-04
         - 2.5409793399988254e-04
         - -2.5510410676035317e-03
         - 4.6584780596870979e-03
         - -2.7042007289223525e-03
         - -4.5851894242265809e-03
         - 5.1007961446237167e-05
         - 1.7698660330678030e-03
         - -1.6500622891066636e-03
         - 3.0139429197138970e-03
         - 2.4312258268012980e-03
         - 9.7603758756468941e-04
         - -2.8901380326760433e-03
         - 5.0503041073326023e-03
         - -3.5404532419412225e-03
         - -9.3906756139758415e-04
         - -5.0500317383786204e-03
         - 1.4034702206072226e-03
